%YAML:1.0
my_svm: !!opencv-ml-svm
   svm_type: C_SVC
   kernel: { type:RBF, gamma:3.3750000000000002e-02 }
   C: 6.2500000000000000e+01
   term_criteria: { epsilon:1.0000000133514320e-10, iterations:10000 }
   var_all: 72
   var_count: 72
   class_count: 2
   class_labels: !!opencv-matrix
      rows: 1
      cols: 2
      dt: i
      data: [ 0, 1 ]
   class_weights: !!opencv-matrix
      rows: 2
      cols: 1
      dt: d
      data: [ 4.5758929103612900e+01, 9.8557695746421814e+01 ]
   sv_total: 20
   support_vectors:
      - [ 0., 0., 0., 2.38095205e-02, 2.61904806e-01, 7.14285672e-01, 0.,
          0., 0., 0., 0., 0., 0., 4.25531901e-02, 5.95744729e-01,
          3.61702114e-01, 0., 0., 0., 0., 0., 0., 2.17391308e-02,
          5.00000000e-01, 4.78260905e-01, 0., 0., 0., 0., 2.27272704e-01,
          1.13636397e-01, 4.54545505e-02, 6.13636374e-01, 0., 0., 0., 0.,
          0., 0., 2.04081591e-02, 8.77551019e-01, 1.02040797e-01, 0., 0.,
          0., 0., 0., 0., 2.50000004e-02, 1.00000001e-01, 3.75000000e-01,
          5.00000000e-01, 0., 0., 0., 0., 0., 0., 6.25000000e-02,
          2.81250000e-01, 6.56250000e-01, 0., 0., 0., 0., 0., 0.,
          2.77777798e-02, 3.88888896e-01, 5.83333313e-01, 0., 0. ]
      - [ 0., 0., 0., 0., 4.13793087e-01, 5.86206913e-01, 0., 0., 0., 0.,
          0., 0., 0., 4.90565985e-01, 4.52830195e-01, 5.66037707e-02, 0.,
          0., 0., 0., 0., 0., 6.16666675e-01, 3.16666692e-01,
          6.66666701e-02, 0., 0., 0., 0., 0., 0., 5.57376981e-01,
          4.42622989e-01, 0., 0., 0., 0., 0., 0., 0., 5.08474588e-01,
          8.47457573e-02, 6.77966103e-02, 3.38983089e-01, 0., 0., 0., 0.,
          0., 3.39285702e-01, 1.07142903e-01, 7.14285672e-02,
          4.82142895e-01, 0., 0., 0., 0., 0., 2.25806400e-01,
          3.54838699e-01, 3.87096792e-01, 3.22580598e-02, 0., 0., 0., 0.,
          0., 3.49206388e-01, 6.50793672e-01, 0., 0., 0. ]
      - [ 0., 0., 0., 0., 2.54237294e-01, 2.54237294e-01, 2.20339000e-01,
          2.71186411e-01, 0., 0., 0., 0., 0., 2.25806400e-01,
          7.74193525e-01, 0., 0., 0., 0., 0., 0., 0., 4.33333308e-01,
          5.66666722e-01, 0., 0., 0., 0., 0., 0., 0., 4.18181807e-01,
          5.27272701e-01, 5.45454510e-02, 0., 0., 0., 0., 0., 0.,
          7.41379321e-01, 1.20689698e-01, 1.37931004e-01, 0., 0., 0., 0.,
          0., 0., 4.83871013e-01, 5.16129017e-01, 0., 0., 0., 0., 0., 0.,
          0., 5.16129017e-01, 2.58064508e-01, 9.67741907e-02,
          1.29032299e-01, 0., 0., 0., 0., 0., 4.28571403e-01,
          5.35714291e-02, 3.57142910e-02, 4.82142895e-01, 0. ]
      - [ 0., 0., 0., 2.04081591e-02, 8.16326514e-02, 7.34693885e-01,
          1.63265303e-01, 0., 0., 0., 0., 0., 0., 2.17391308e-02,
          5.21739125e-01, 4.56521690e-01, 0., 0., 0., 0., 2.82608688e-01,
          0., 2.17391308e-02, 6.95652187e-01, 0., 0., 0., 0., 0., 0.,
          1.02040797e-01, 5.30612171e-01, 3.67346913e-01, 0., 0., 0., 0.,
          0., 0., 2.43902393e-02, 1.95121899e-01, 3.90243888e-01,
          3.90243888e-01, 0., 0., 0., 0., 0., 0., 3.12500000e-02,
          2.81250000e-01, 6.87500000e-01, 0., 0., 0., 0., 0., 0.,
          6.25000000e-02, 3.75000000e-01, 5.62500000e-01, 0., 0., 0., 0.,
          0., 2.43902393e-02, 9.75609720e-02, 7.80487776e-01,
          9.75609720e-02, 0., 0. ]
      - [ 0., 0., 0., 0., 3.33333313e-01, 8.33333433e-02, 4.16666687e-01,
          1.66666701e-01, 0., 0., 0., 0., 0., 1.88679203e-01,
          3.01886797e-01, 2.83018887e-01, 1.32075503e-01, 9.43396166e-02,
          0., 0., 0., 0., 2.50000000e-01, 4.37500000e-01, 3.12500000e-01,
          0., 0., 0., 0., 0., 0., 9.59183693e-01, 4.08163294e-02, 0., 0.,
          0., 0., 0., 0., 0., 3.26086998e-01, 5.86956501e-01,
          8.69565234e-02, 0., 0., 0., 0., 0., 2.32558101e-02,
          1.86046496e-01, 4.65116292e-01, 2.55813986e-01, 6.97674528e-02,
          0., 0., 0., 0., 0., 2.77777791e-01, 3.88888896e-01,
          3.33333313e-01, 0., 0., 0., 0., 0., 0., 3.63636404e-01,
          9.09090936e-02, 4.54545498e-01, 9.09090936e-02, 0. ]
      - [ 0., 0., 0., 0., 6.20000005e-01, 2.00000003e-01, 1.80000007e-01,
          0., 0., 0., 0., 0., 0., 8.85245919e-01, 1.14754103e-01, 0., 0.,
          0., 0., 0., 0., 0., 7.24137902e-01, 2.41379306e-01,
          3.44827585e-02, 0., 0., 0., 0., 0., 0., 2.90909111e-01,
          1.27272695e-01, 1.09090902e-01, 4.72727299e-01, 0., 0., 0., 0.,
          0., 2.24489793e-01, 1.42857105e-01, 4.08163294e-02,
          5.91836810e-01, 0., 0., 0., 0., 0., 2.69841313e-01,
          2.69841313e-01, 6.34920672e-02, 3.96825403e-01, 0., 0., 0., 0.,
          0., 3.16666692e-01, 6.83333278e-01, 0., 0., 0., 0., 0., 0., 0.,
          7.19298184e-01, 2.80701786e-01, 0., 0., 0. ]
      - [ 0., 0., 0., 0., 1., 0., 0., 0., 0., 0., 0., 0., 0., 1., 0., 0.,
          0., 0., 0., 0., 0., 0., 1., 0., 0., 0., 0., 0., 0., 0., 0.,
          9.24528301e-01, 0., 5.66037707e-02, 0., 1.88679192e-02, 0., 0.,
          0., 0., 8.42105329e-01, 2.63157897e-02, 2.63157897e-02,
          7.89473727e-02, 2.63157897e-02, 0., 0., 0., 0., 7.22222209e-01,
          5.55555597e-02, 5.55555597e-02, 5.55555597e-02, 1.11111097e-01,
          0., 0., 0., 0., 7.69230783e-01, 1.02564096e-01, 0.,
          7.69230798e-02, 5.12820482e-02, 0., 0., 0., 0., 8.84615421e-01,
          5.76923117e-02, 1.92307699e-02, 1.92307699e-02, 1.92307699e-02 ]
      - [ 0., 0., 0., 0., 5.35714328e-01, 2.50000000e-01, 2.14285702e-01,
          0., 0., 0., 0., 0., 0., 5.71428597e-01, 1.42857105e-01,
          2.85714298e-01, 0., 0., 0., 0., 0., 0., 5.31914890e-01,
          2.76595712e-01, 1.91489398e-01, 0., 0., 0., 0., 0.,
          5.00000007e-02, 6.00000024e-01, 3.49999994e-01, 0., 0., 0., 0.,
          0., 0., 0., 1.64179102e-01, 2.98507512e-01, 2.53731310e-01,
          2.38805994e-01, 4.47761193e-02, 0., 0., 0., 0., 1.66666701e-01,
          1.25000000e-01, 3.33333313e-01, 3.33333313e-01, 4.16666716e-02,
          0., 0., 0., 0., 1.83333293e-01, 1.33333296e-01, 4.00000006e-01,
          1.66666701e-01, 1.16666697e-01, 0., 0., 0., 0., 4.70588207e-01,
          2.94117689e-01, 1.76470593e-01, 5.88235296e-02, 0. ]
      - [ 0., 0., 0., 0., 2.60869592e-01, 3.91304314e-01, 3.47826093e-01,
          0., 0., 0., 0., 0., 0., 4.61538494e-01, 5.38461626e-01, 0., 0.,
          0., 0., 0., 0., 0., 6.20689571e-01, 3.79310310e-01, 0., 0., 0.,
          0., 0., 0., 0., 1.92307696e-01, 4.23076898e-01, 3.84615391e-01,
          0., 0., 0., 0., 0., 0., 2.39999995e-01, 4.00000006e-01,
          3.19999993e-01, 3.99999991e-02, 0., 0., 0., 0., 0.,
          3.91304314e-01, 6.08695626e-01, 0., 0., 0., 0., 0., 0., 0.,
          6.53846085e-01, 3.46153885e-01, 0., 0., 0., 0., 0., 0., 0.,
          2.50000000e-01, 4.58333313e-01, 2.91666687e-01, 0., 0. ]
      - [ 0., 0., 0., 0., 7.54716992e-02, 9.05660391e-01, 1.88679192e-02,
          0., 0., 0., 0., 0., 0., 1.15384601e-01, 8.84615421e-01, 0., 0.,
          0., 0., 0., 0., 1.88679192e-02, 2.45282993e-01, 7.35849082e-01,
          0., 0., 0., 0., 0., 0., 0., 2.50000000e-01, 7.50000000e-01, 0.,
          0., 0., 0., 0., 0., 0., 4.72727299e-01, 5.27272701e-01, 0., 0.,
          0., 0., 0., 0., 0., 1., 0., 0., 0., 0., 0., 0., 0.,
          3.38983089e-02, 4.23728794e-01, 5.42372882e-01, 0., 0., 0., 0.,
          0., 0., 0., 9.25925896e-02, 7.22222209e-01, 1.29629597e-01,
          5.55555597e-02, 0. ]
      - [ 0., 0., 0., 0., 8.33333433e-02, 8.95833313e-01, 2.08333302e-02,
          0., 0., 0., 0., 0., 4.08163294e-02, 2.04081595e-01,
          7.55101979e-01, 0., 0., 0., 0., 0., 0., 0., 2.44898006e-01,
          7.55101979e-01, 0., 0., 0., 0., 0., 0., 0., 3.88888896e-01,
          5.92592597e-01, 1.85185205e-02, 0., 0., 0., 0., 0., 0.,
          8.64406824e-01, 1.35593206e-01, 0., 0., 0., 0., 0., 0.,
          6.77966103e-02, 7.28813589e-01, 2.03389794e-01, 0., 0., 0., 0.,
          0., 0., 0., 9.25925896e-02, 7.59259284e-01, 9.25925896e-02,
          5.55555597e-02, 0., 0., 0., 0., 0., 5.76923117e-02,
          9.23076928e-01, 1.92307699e-02, 0., 0. ]
      - [ 0., 0., 0., 0., 6.25000000e-01, 3.75000000e-01, 0., 0., 0., 0.,
          0., 0., 0., 3.85964900e-01, 6.14035130e-01, 0., 0., 0., 0., 0.,
          0., 0., 5.78947425e-01, 2.98245609e-01, 1.22807004e-01, 0., 0.,
          0., 0., 0., 0., 5.34482777e-01, 4.65517312e-01, 0., 0., 0., 0.,
          0., 0., 0., 5.39682627e-01, 4.28571403e-01, 3.17460299e-02, 0.,
          0., 0., 0., 0., 0., 4.82758611e-01, 6.89655170e-02,
          3.44827585e-02, 4.13793087e-01, 0., 0., 0., 0., 0.,
          3.21428597e-01, 1.42857105e-01, 1.25000000e-01, 4.10714298e-01,
          0., 0., 0., 0., 0., 2.03125000e-01, 5.00000000e-01,
          2.96875000e-01, 0., 0. ]
      - [ 0., 0., 0., 0., 3.80952388e-01, 5.23809612e-01, 9.52380970e-02,
          0., 0., 0., 0., 0., 0., 2.36842096e-01, 3.68420988e-01,
          3.42105299e-01, 5.26315793e-02, 0., 0., 0., 0., 0.,
          2.82051295e-01, 3.84615391e-01, 3.33333313e-01, 0., 0., 0., 0.,
          0., 0., 1., 0., 0., 0., 0., 0., 0., 0., 0., 3.75000000e-01,
          6.00000024e-01, 2.50000004e-02, 0., 0., 0., 0., 0., 0.,
          2.57142901e-01, 4.00000006e-01, 3.14285696e-01, 2.85714306e-02,
          0., 0., 0., 0., 0., 2.82051295e-01, 4.61538494e-01,
          2.56410301e-01, 0., 0., 0., 0., 0., 0., 9.76190388e-01,
          2.38095205e-02, 0., 0., 0. ]
      - [ 0., 0., 0., 0., 1.80000007e-01, 4.19999987e-01, 2.59999990e-01,
          1.40000001e-01, 0., 0., 0., 0., 0., 6.34920672e-02,
          6.34920672e-02, 8.57142925e-01, 1.58730205e-02, 0., 0., 0., 0.,
          0., 3.07692308e-02, 6.15384616e-02, 9.07692313e-01, 0., 0., 0.,
          0., 0., 0., 3.22580598e-02, 6.45161271e-02, 8.54838729e-01,
          4.83870991e-02, 0., 0., 0., 0., 0., 3.57142910e-02,
          1.78571403e-01, 5.00000000e-01, 2.85714298e-01, 0., 0., 0., 0.,
          0., 7.50000030e-02, 6.49999976e-01, 7.50000030e-02,
          2.00000003e-01, 0., 0., 0., 0., 0., 1.81818202e-01,
          2.42424205e-01, 5.75757623e-01, 0., 0., 0., 0., 0., 0.,
          2.22222194e-01, 4.72222209e-01, 3.05555612e-01, 0., 0. ]
      - [ 0., 0., 0., 0., 1., 0., 0., 0., 0., 0., 0., 0., 0.,
          6.84210479e-01, 3.15789491e-01, 0., 0., 0., 0., 0., 0., 0.,
          8.52941215e-01, 1.47058800e-01, 0., 0., 0., 0., 0., 0., 0.,
          8.38709712e-01, 1.61290303e-01, 0., 0., 0., 0., 0., 0., 0.,
          6.55172408e-01, 3.44827592e-01, 0., 0., 0., 0., 0., 0., 0.,
          5.45454621e-01, 4.24242407e-01, 3.03030293e-02, 0., 0., 0., 0.,
          0., 0., 3.82352889e-01, 4.41176504e-01, 1.47058800e-01,
          2.94117592e-02, 0., 0., 0., 0., 0., 2.72727311e-01,
          2.50000000e-01, 3.63636404e-01, 1.13636397e-01, 0. ]
      - [ 0., 0., 0., 0., 2.15384603e-01, 6.92307711e-01, 9.23076868e-02,
          0., 0., 0., 0., 0., 1.66666694e-02, 5.00000000e-01,
          4.83333290e-01, 0., 0., 0., 0., 0., 0., 0., 4.23728794e-01,
          5.25423706e-01, 5.08474596e-02, 0., 0., 0., 0., 0., 0.,
          6.90909088e-01, 1.27272695e-01, 1.81818202e-01, 0., 0., 0., 0.,
          0., 0., 5.16129017e-01, 4.83871013e-01, 0., 0., 0., 0., 0., 0.,
          0., 5.08474588e-01, 4.23728794e-01, 6.77966103e-02, 0., 0., 0.,
          0., 0., 0., 5.00000000e-01, 5.35714291e-02, 0., 4.46428597e-01,
          0., 0., 0., 0., 0., 2.67857105e-01, 2.14285702e-01,
          1.78571403e-01, 3.39285702e-01, 0. ]
      - [ 0., 0., 0., 0., 5.33333421e-01, 2.88888901e-01, 1.11111097e-01,
          6.66666701e-02, 0., 0., 0., 0., 0., 5.35714328e-01,
          2.14285702e-01, 2.50000000e-01, 0., 0., 0., 0., 0., 0.,
          5.51724076e-01, 2.06896603e-01, 2.41379306e-01, 0., 0., 0., 0.,
          0., 0., 6.20000005e-01, 3.19999993e-01, 5.99999987e-02, 0., 0.,
          0., 0., 0., 4.76190485e-02, 3.65079403e-01, 5.87301612e-01, 0.,
          0., 0., 0., 0., 0., 0., 1.47541001e-01, 2.78688490e-01,
          2.29508206e-01, 3.11475396e-01, 3.27868797e-02, 0., 0., 0., 0.,
          1.59999996e-01, 7.99999982e-02, 4.19999987e-01, 3.00000012e-01,
          3.99999991e-02, 0., 0., 0., 0., 2.13114798e-01, 2.29508206e-01,
          3.44262302e-01, 9.83606577e-02, 1.14754103e-01 ]
      - [ 0., 0., 0., 0., 1., 0., 0., 0., 0., 0., 0., 0., 0.,
          3.42105299e-01, 5.26315808e-01, 1.31578997e-01, 0., 0., 0., 0.,
          0., 0., 2.70270288e-01, 4.05405402e-01, 3.24324310e-01, 0., 0.,
          0., 0., 0., 0., 2.82051295e-01, 5.38461626e-01, 1.79487199e-01,
          0., 0., 0., 0., 0., 0., 1., 0., 0., 0., 0., 0., 0., 0., 0.,
          2.97297299e-01, 4.05405402e-01, 2.97297299e-01, 0., 0., 0., 0.,
          0., 0., 2.77777791e-01, 3.33333313e-01, 3.33333313e-01,
          5.55555597e-02, 0., 0., 0., 0., 0., 3.07692289e-01,
          4.35897410e-01, 2.56410301e-01, 0., 0. ]
      - [ 0., 0., 0., 0., 2.36363605e-01, 4.36363608e-01, 2.00000003e-01,
          1.09090902e-01, 1.81818195e-02, 0., 0., 0., 0., 4.77272689e-01,
          3.63636404e-01, 1.13636397e-01, 4.54545505e-02, 0., 0., 0., 0.,
          0., 5.71428597e-01, 1.78571403e-01, 2.50000000e-01, 0., 0., 0.,
          0., 0., 0., 5.15151501e-01, 2.12121204e-01, 2.42424205e-01,
          3.03030293e-02, 0., 0., 0., 0., 0., 7.40740716e-01,
          2.59259313e-01, 0., 0., 0., 0., 0., 0., 3.03030293e-02,
          2.42424205e-01, 5.90909123e-01, 1.36363596e-01, 0., 0., 0., 0.,
          0., 0., 1.63934395e-01, 2.29508206e-01, 2.13114798e-01,
          2.95082003e-01, 9.83606577e-02, 0., 0., 0., 0., 1.73076898e-01,
          7.69230798e-02, 4.03846115e-01, 3.46153885e-01, 0. ]
      - [ 0., 0., 0., 0., 2.06896603e-01, 7.93103516e-01, 0., 0., 0., 0.,
          0., 0., 0., 7.40740672e-02, 7.40740716e-01, 1.85185194e-01, 0.,
          0., 0., 0., 0., 0., 7.69230798e-02, 8.46153915e-01,
          7.69230798e-02, 0., 0., 0., 0., 0., 0., 1.76470593e-01,
          8.23529422e-01, 0., 0., 0., 0., 0., 0., 1.96078401e-02,
          2.54902005e-01, 6.27451003e-01, 9.80392173e-02, 0., 0., 0., 0.,
          0., 0., 2.69230813e-01, 7.30769217e-01, 0., 0., 0., 0., 0., 0.,
          0., 6.03448272e-01, 3.96551698e-01, 0., 0., 0., 0., 0., 0., 0.,
          1., 0., 0., 0., 0. ]
   decision_functions:
      -
         sv_count: 20
         rho: 5.2695981258933733e-01
         alpha: [ 4.5758929103612900e+01, 4.5758929103612900e+01,
             3.2495373809016584e+01, 2.3348704314506410e+00,
             4.5758929103612900e+01, 4.6786718585795768e+00,
             2.8702556234210324e+01, 1.7890739108126777e+01,
             3.9657211196151145e+01, 4.5758929103612900e+01,
             -6.5185992924216805e+01, -3.8854794169893282e+01,
             -1.4943885182547042e+01, -2.5036290301589137e+01,
             -3.9658315201861321e+01, -9.7416762281925031e+00,
             -3.8216286849679548e+01, -1.6823000394430959e+01,
             -2.2444813004595822e+01, -3.7890084794980282e+01 ]
         index: [ 0, 1, 2, 3, 4, 5, 6, 7, 8, 9, 10, 11, 12, 13, 14, 15,
             16, 17, 18, 19 ]
