%YAML:1.0
my_boost_tree: !!opencv-ml-boost-tree
   boosting_type: DiscreteAdaboost
   splitting_criteria: 3
   ntrees: 30
   weight_trimming_rate: 9.4999998807907104e-01
   is_classifier: 1
   var_all: 72
   var_count: 72
   ord_var_count: 72
   cat_var_count: 0
   training_params:
      use_surrogates: 1
      max_categories: 10
      max_depth: 1
      min_sample_count: 10
      cross_validation_folds: 3
      use_1se_rule: 1
      truncate_pruned_tree: 1
      priors: !!opencv-matrix
         rows: 1
         cols: 2
         dt: d
         data: [ 1., 1. ]
   var_type: [ 0, 0, 0, 0, 0, 0, 0, 0, 0, 0, 0, 0, 0, 0, 0, 0, 0, 0, 0,
       0, 0, 0, 0, 0, 0, 0, 0, 0, 0, 0, 0, 0, 0, 0, 0, 0, 0, 0, 0, 0, 0,
       0, 0, 0, 0, 0, 0, 0, 0, 0, 0, 0, 0, 0, 0, 0, 0, 0, 0, 0, 0, 0, 0,
       0, 0, 0, 0, 0, 0, 0, 0, 0 ]
   cat_count: !!opencv-matrix
      rows: 1
      cols: 1
      dt: i
      data: [ 2 ]
   cat_map: !!opencv-matrix
      rows: 1
      cols: 2
      dt: i
      data: [ 0, 1 ]
   trees:
      -
         best_tree_idx: -1
         nodes:
            -
               depth: 0
               sample_count: 41
               value: -1.2685113254635079e+00
               norm_class_idx: 0
               Tn: 0
               complexity: 2
               alpha: 0.
               node_risk: 0.
               tree_risk: 0.
               tree_error: 0.
               splits:
                  - { var:50, quality:7.8048777580261230e-01,
                      le:5.1893407106399536e-01 }
                  - { var:59, quality:6.8530631065368652e-01,
                      le:7.8703701496124268e-01 }
                  - { var:33, quality:6.8530631065368652e-01,
                      le:7.2741937637329102e-01 }
                  - { var:32, quality:6.8530631065368652e-01,
                      le:7.8676474094390869e-01 }
                  - { var:31, quality:6.8530631065368652e-01,
                      gt:3.6962367594242096e-02 }
                  - { var:25, quality:6.8530631065368652e-01,
                      le:3.4897025674581528e-02 }
                  - { var:24, quality:6.8530631065368652e-01,
                      le:6.9297659397125244e-01 }
                  - { var:15, quality:6.8530631065368652e-01,
                      le:6.5683233737945557e-01 }
                  - { var:70, quality:6.6627007722854614e-01,
                      le:3.4271979331970215e-01 }
                  - { var:68, quality:6.6627007722854614e-01,
                      le:8.3077830076217651e-01 }
                  - { var:62, quality:6.6627007722854614e-01,
                      le:9.0847000479698181e-02 }
                  - { var:60, quality:6.6627007722854614e-01,
                      le:5.6993007659912109e-01 }
                  - { var:41, quality:6.6627007722854614e-01,
                      le:6.2407028675079346e-01 }
                  - { var:23, quality:6.6627007722854614e-01,
                      le:8.0062794685363770e-01 }
            -
               depth: 1
               sample_count: 35
               value: -1.2685113254635079e+00
               norm_class_idx: 0
               Tn: 2147483647
               complexity: 1
               alpha: 0.
               node_risk: 0.
               tree_risk: 0.
               tree_error: 0.
            -
               depth: 1
               sample_count: 6
               value: 1.2685113254635079e+00
               norm_class_idx: 1
               Tn: 2147483647
               complexity: 1
               alpha: 0.
               node_risk: 0.
               tree_risk: 0.
               tree_error: 0.
      -
         best_tree_idx: -1
         nodes:
            -
               depth: 0
               sample_count: 41
               value: 1.3668762752627892e+00
               norm_class_idx: 1
               Tn: 0
               complexity: 2
               alpha: 0.
               node_risk: 0.
               tree_risk: 0.
               tree_error: 0.
               splits:
                  - { var:6, quality:7.9687500000000000e-01,
                      le:1.3718819618225098e-01 }
                  - { var:40, quality:7.3461914062500000e-01,
                      gt:2.7518594264984131e-01 }
                  - { var:42, quality:7.2216796875000000e-01,
                      le:1.2068965286016464e-01 }
                  - { var:33, quality:6.5991210937500000e-01,
                      le:2.1736595034599304e-01 }
                  - { var:50, quality:6.3500976562500000e-01,
                      le:4.5472973585128784e-01 }
                  - { var:4, quality:6.2117511034011841e-01,
                      gt:3.3974361419677734e-01 }
                  - { var:31, quality:6.0872393846511841e-01,
                      gt:5.3254747390747070e-01 }
                  - { var:7, quality:6.0319006443023682e-01,
                      le:7.5000002980232239e-02 }
                  - { var:69, quality:5.9073889255523682e-01,
                      le:3.7412589788436890e-01 }
                  - { var:51, quality:5.9073889255523682e-01,
                      le:3.2380950450897217e-01 }
                  - { var:49, quality:5.7828772068023682e-01,
                      gt:8.7500005960464478e-02 }
                  - { var:43, quality:5.7828772068023682e-01,
                      le:1.2518799304962158e-01 }
                  - { var:15, quality:5.7828772068023682e-01,
                      le:3.7315875291824341e-01 }
                  - { var:60, quality:5.6583654880523682e-01,
                      le:5.0802141427993774e-01 }
                  - { var:16, quality:5.6583654880523682e-01,
                      le:6.2030073255300522e-02 }
                  - { var:13, quality:5.6583654880523682e-01,
                      gt:1.8957769870758057e-01 }
                  - { var:70, quality:5.5338537693023682e-01,
                      le:3.4271979331970215e-01 }
                  - { var:66, quality:5.5338537693023682e-01,
                      le:1.0416665114462376e-02 }
                  - { var:62, quality:5.5338537693023682e-01,
                      le:9.0847000479698181e-02 }
                  - { var:44, quality:5.5338537693023682e-01,
                      le:3.5545952618122101e-02 }
                  - { var:34, quality:5.5338537693023682e-01,
                      le:1.5151514671742916e-02 }
                  - { var:22, quality:5.5338537693023682e-01,
                      gt:6.1188817024230957e-02 }
                  - { var:12, quality:5.5338537693023682e-01,
                      le:6.5862715244293213e-02 }
                  - { var:61, quality:5.4646807909011841e-01,
                      gt:9.2592602595686913e-03 }
                  - { var:67, quality:5.4093420505523682e-01,
                      gt:2.4305555969476700e-02 }
                  - { var:58, quality:5.4093420505523682e-01,
                      gt:8.4757834672927856e-02 }
                  - { var:57, quality:5.4093420505523682e-01,
                      le:7.6949149370193481e-02 }
                  - { var:41, quality:5.4093420505523682e-01,
                      le:6.7647063732147217e-01 }
                  - { var:39, quality:5.4093420505523682e-01,
                      le:1.4880952239036560e-01 }
                  - { var:24, quality:5.4093420505523682e-01,
                      le:3.8257575035095215e-01 }
                  - { var:21, quality:5.4093420505523682e-01,
                      le:8.9285699650645256e-03 }
                  - { var:17, quality:5.4093420505523682e-01,
                      le:6.9897085428237915e-02 }
                  - { var:14, quality:5.4093420505523682e-01,
                      le:7.6464772224426270e-01 }
                  - { var:8, quality:5.4093420505523682e-01,
                      le:9.0909097343683243e-03 }
                  - { var:32, quality:5.3955078125000000e-01,
                      le:3.3142858743667603e-01 }
            -
               depth: 1
               sample_count: 22
               value: 1.3668762752627892e+00
               norm_class_idx: 1
               Tn: 2147483647
               complexity: 1
               alpha: 0.
               node_risk: 0.
               tree_risk: 0.
               tree_error: 0.
            -
               depth: 1
               sample_count: 19
               value: -1.3668762752627892e+00
               norm_class_idx: 0
               Tn: 2147483647
               complexity: 1
               alpha: 0.
               node_risk: 0.
               tree_risk: 0.
               tree_error: 0.
      -
         best_tree_idx: -1
         nodes:
            -
               depth: 0
               sample_count: 41
               value: -1.2890039442049370e+00
               norm_class_idx: 0
               Tn: 0
               complexity: 2
               alpha: 0.
               node_risk: 0.
               tree_risk: 0.
               tree_error: 0.
               splits:
                  - { var:50, quality:7.8397852182388306e-01,
                      le:1.9260400533676147e-01 }
                  - { var:13, quality:6.5022784471511841e-01,
                      gt:7.6255977153778076e-01 }
                  - { var:49, quality:6.4595782756805420e-01,
                      gt:6.3383841514587402e-01 }
                  - { var:23, quality:6.3544696569442749e-01,
                      le:3.0769230797886848e-02 }
                  - { var:22, quality:6.3544696569442749e-01,
                      gt:9.1754209995269775e-01 }
                  - { var:59, quality:6.3058573007583618e-01,
                      le:1.8618264794349670e-01 }
                  - { var:14, quality:6.2776088714599609e-01,
                      le:5.2579369395971298e-02 }
                  - { var:58, quality:6.2007486820220947e-01,
                      gt:7.3345255851745605e-01 }
                  - { var:41, quality:6.1521357297897339e-01,
                      le:9.9407494068145752e-02 }
                  - { var:15, quality:6.1317712068557739e-01,
                      le:5.7148039340972900e-02 }
                  - { var:4, quality:6.0608226060867310e-01,
                      gt:3.5016030073165894e-01 }
                  - { var:67, quality:5.9274661540985107e-01,
                      gt:8.1561088562011719e-01 }
                  - { var:51, quality:5.8788532018661499e-01,
                      le:5.9523813426494598e-02 }
                  - { var:68, quality:5.8506053686141968e-01,
                      le:6.7873306572437286e-02 }
                  - { var:6, quality:5.8302408456802368e-01,
                      le:8.7820515036582947e-02 }
                  - { var:5, quality:5.7310450077056885e-01,
                      le:7.8703701496124268e-02 }
                  - { var:32, quality:5.7027965784072876e-01,
                      le:1.7241379246115685e-02 }
                  - { var:69, quality:5.5227982997894287e-01,
                      le:1.7752099037170410e-01 }
                  - { var:60, quality:5.4945504665374756e-01,
                      le:8.7962970137596130e-02 }
                  - { var:31, quality:5.4860103130340576e-01,
                      gt:5.3254747390747070e-01 }
                  - { var:24, quality:5.4459375143051147e-01,
                      le:2.1643435955047607e-01 }
                  - { var:40, quality:5.3244060277938843e-01,
                      gt:9.9038457870483398e-01 }
                  - { var:33, quality:5.2212679386138916e-01,
                      le:5.8301884680986404e-02 }
                  - { var:53, quality:5.1483488082885742e-01,
                      gt:3.7226773798465729e-02 }
                  - { var:35, quality:5.0714886188507080e-01,
                      gt:9.4339596107602119e-03 }
                  - { var:52, quality:5.0228756666183472e-01,
                      gt:3.5119049251079559e-02 }
                  - { var:44, quality:5.0005400180816650e-01,
                      gt:1.3157894834876060e-02 }
                  - { var:71, quality:4.9519270658493042e-01,
                      gt:9.6153849735856056e-03 }
                  - { var:70, quality:4.9479857087135315e-01,
                      le:7.4866309762001038e-02 }
                  - { var:62, quality:4.8468187451362610e-01,
                      gt:4.5641023665666580e-02 }
                  - { var:8, quality:4.7699579596519470e-01,
                      gt:1.8350169062614441e-02 }
                  - { var:16, quality:4.7456520795822144e-01,
                      le:7.9365102574229240e-03 }
                  - { var:7, quality:4.7029513120651245e-01,
                      le:6.1111114919185638e-02 }
                  - { var:43, quality:4.6990096569061279e-01,
                      gt:7.5187966227531433e-02 }
                  - { var:21, quality:4.6930974721908569e-01,
                      gt:8.9285699650645256e-03 }
                  - { var:42, quality:4.6806159615516663e-01,
                      le:7.7376566827297211e-02 }
                  - { var:48, quality:4.6260908246040344e-01,
                      le:1.1627905070781708e-02 }
                  - { var:39, quality:4.4782817363739014e-01,
                      le:9.6153849735856056e-03 }
                  - { var:34, quality:4.4684278964996338e-01,
                      gt:7.5664147734642029e-02 }
                  - { var:57, quality:4.3915671110153198e-01,
                      gt:1.2820514850318432e-02 }
                  - { var:17, quality:4.3915671110153198e-01,
                      gt:2.2727275267243385e-02 }
                  - { var:61, quality:4.3567499518394470e-01,
                      gt:9.2592602595686913e-03 }
                  - { var:38, quality:4.2437583208084106e-01,
                      gt:4.1666671633720398e-02 }
                  - { var:12, quality:4.1951456665992737e-01,
                      gt:2.0032050088047981e-02 }
            -
               depth: 1
               sample_count: 16
               value: -1.2890039442049370e+00
               norm_class_idx: 0
               Tn: 2147483647
               complexity: 1
               alpha: 0.
               node_risk: 0.
               tree_risk: 0.
               tree_error: 0.
            -
               depth: 1
               sample_count: 25
               value: 1.2890039442049370e+00
               norm_class_idx: 1
               Tn: 2147483647
               complexity: 1
               alpha: 0.
               node_risk: 0.
               tree_risk: 0.
               tree_error: 0.
      -
         best_tree_idx: -1
         nodes:
            -
               depth: 0
               sample_count: 33
               value: -1.7001448744748633e+00
               norm_class_idx: 0
               Tn: 0
               complexity: 2
               alpha: 0.
               node_risk: 0.
               tree_risk: 0.
               tree_error: 0.
               splits:
                  - { var:61, quality:8.1429028511047363e-01,
                      le:2.1205714344978333e-01 }
                  - { var:52, quality:7.3412555456161499e-01,
                      le:4.0530925989151001e-01 }
                  - { var:62, quality:7.0701915025711060e-01,
                      le:9.0847000479698181e-02 }
                  - { var:70, quality:7.0662456750869751e-01,
                      le:2.4656595289707184e-01 }
                  - { var:71, quality:7.0504939556121826e-01,
                      le:8.6788818240165710e-02 }
                  - { var:39, quality:7.0504939556121826e-01,
                      le:3.6004643887281418e-02 }
                  - { var:48, quality:6.8796283006668091e-01,
                      le:2.8665028512477875e-02 }
            -
               depth: 1
               sample_count: 29
               value: -1.7001448744748633e+00
               norm_class_idx: 0
               Tn: 2147483647
               complexity: 1
               alpha: 0.
               node_risk: 0.
               tree_risk: 0.
               tree_error: 0.
            -
               depth: 1
               sample_count: 4
               value: 1.7001448744748633e+00
               norm_class_idx: 1
               Tn: 2147483647
               complexity: 1
               alpha: 0.
               node_risk: 0.
               tree_risk: 0.
               tree_error: 0.
      -
         best_tree_idx: -1
         nodes:
            -
               depth: 0
               sample_count: 34
               value: 1.3892179192971428e+00
               norm_class_idx: 1
               Tn: 0
               complexity: 2
               alpha: 0.
               node_risk: 0.
               tree_risk: 0.
               tree_error: 0.
               splits:
                  - { var:58, quality:7.8732109069824219e-01,
                      le:3.9705878496170044e-01 }
                  - { var:60, quality:7.4218595027923584e-01,
                      gt:8.7962970137596130e-02 }
                  - { var:51, quality:6.8196856975555420e-01,
                      gt:2.8309408575296402e-02 }
                  - { var:59, quality:6.6405797004699707e-01,
                      gt:1.2271060049533844e-01 }
                  - { var:13, quality:6.5299808979034424e-01,
                      le:7.6255977153778076e-01 }
                  - { var:49, quality:6.5210247039794922e-01,
                      le:7.4598574638366699e-01 }
                  - { var:23, quality:6.5210247039794922e-01,
                      gt:3.0769230797886848e-02 }
                  - { var:22, quality:6.5210247039794922e-01,
                      le:9.2647063732147217e-01 }
                  - { var:14, quality:6.5210247039794922e-01,
                      gt:5.2579369395971298e-02 }
                  - { var:50, quality:6.4014691114425659e-01,
                      gt:6.2260538339614868e-02 }
                  - { var:68, quality:6.3292002677917480e-01,
                      gt:1.1904760263860226e-02 }
                  - { var:67, quality:6.3292002677917480e-01,
                      le:9.8809516429901123e-01 }
                  - { var:32, quality:6.1917310953140259e-01,
                      le:6.2163299322128296e-01 }
                  - { var:6, quality:6.1879748106002808e-01,
                      le:3.1549710035324097e-01 }
                  - { var:71, quality:6.0428023338317871e-01,
                      le:9.6153849735856056e-03 }
                  - { var:41, quality:5.9615767002105713e-01,
                      le:6.2407028675079346e-01 }
                  - { var:24, quality:5.9579837322235107e-01,
                      gt:9.6153849735856056e-03 }
                  - { var:53, quality:5.9232467412948608e-01,
                      le:4.7149125486612320e-02 }
                  - { var:8, quality:5.8126479387283325e-01,
                      le:3.3481154590845108e-02 }
                  - { var:5, quality:5.8036911487579346e-01,
                      le:9.0074682235717773e-01 }
                  - { var:70, quality:5.7947349548339844e-01,
                      le:4.1414839029312134e-01 }
                  - { var:7, quality:5.7947349548339844e-01,
                      le:2.1892654895782471e-01 }
                  - { var:21, quality:5.7020497322082520e-01,
                      le:9.4339596107602119e-03 }
                  - { var:57, quality:5.6930923461914062e-01,
                      le:2.9769670218229294e-02 }
                  - { var:34, quality:5.6930923461914062e-01,
                      le:1.1115004867315292e-01 }
                  - { var:17, quality:5.6930923461914062e-01,
                      le:2.2727275267243385e-02 }
                  - { var:4, quality:5.6930923461914062e-01,
                      gt:7.8552171587944031e-02 }
                  - { var:31, quality:5.6886959075927734e-01,
                      le:9.8275864124298096e-01 }
            -
               depth: 1
               sample_count: 18
               value: 1.3892179192971428e+00
               norm_class_idx: 1
               Tn: 2147483647
               complexity: 1
               alpha: 0.
               node_risk: 0.
               tree_risk: 0.
               tree_error: 0.
            -
               depth: 1
               sample_count: 16
               value: -1.3892179192971428e+00
               norm_class_idx: 0
               Tn: 2147483647
               complexity: 1
               alpha: 0.
               node_risk: 0.
               tree_risk: 0.
               tree_error: 0.
      -
         best_tree_idx: -1
         nodes:
            -
               depth: 0
               sample_count: 35
               value: -1.0692129491535640e+00
               norm_class_idx: 0
               Tn: 0
               complexity: 2
               alpha: 0.
               node_risk: 0.
               tree_risk: 0.
               tree_error: 0.
               splits:
                  - { var:50, quality:7.4444723129272461e-01,
                      le:3.8749998807907104e-01 }
                  - { var:41, quality:5.7718735933303833e-01,
                      le:1.6071425378322601e-01 }
                  - { var:67, quality:5.6765401363372803e-01,
                      le:2.1267360448837280e-01 }
                  - { var:58, quality:5.6338912248611450e-01,
                      le:1.2826348841190338e-01 }
                  - { var:30, quality:5.4532629251480103e-01,
                      gt:1.1111110448837280e-02 }
                  - { var:51, quality:5.3806495666503906e-01,
                      gt:4.7972977161407471e-01 }
                  - { var:68, quality:5.3658163547515869e-01,
                      gt:2.6535087823867798e-01 }
                  - { var:13, quality:5.3080362081527710e-01,
                      le:5.3485162556171417e-02 }
                  - { var:14, quality:5.2773970365524292e-01,
                      gt:5.5841398239135742e-01 }
                  - { var:32, quality:5.1942062377929688e-01,
                      gt:3.4642860293388367e-01 }
                  - { var:23, quality:5.0937086343765259e-01,
                      gt:4.4097220897674561e-01 }
                  - { var:40, quality:5.0798583030700684e-01,
                      gt:7.4133813381195068e-01 }
                  - { var:22, quality:5.0445109605789185e-01,
                      le:2.6254180818796158e-02 }
                  - { var:33, quality:5.0023186206817627e-01,
                      le:1.5641024708747864e-01 }
                  - { var:16, quality:4.9800539016723633e-01,
                      le:7.9365102574229240e-03 }
                  - { var:42, quality:4.9715736508369446e-01,
                      le:7.7376566827297211e-02 }
                  - { var:5, quality:4.9712228775024414e-01,
                      gt:7.0329666137695312e-01 }
                  - { var:60, quality:4.9659454822540283e-01,
                      gt:3.4848487377166748e-01 }
                  - { var:6, quality:4.9194213747978210e-01,
                      le:3.3119659870862961e-02 }
                  - { var:31, quality:4.8780646920204163e-01,
                      le:6.4545452594757080e-01 }
                  - { var:48, quality:4.8713997006416321e-01,
                      gt:2.4127904325723648e-02 }
                  - { var:69, quality:4.8535984754562378e-01,
                      gt:5.3125000000000000e-01 }
                  - { var:39, quality:4.8535984754562378e-01,
                      gt:2.0007999613881111e-02 }
                  - { var:70, quality:4.8332816362380981e-01,
                      le:7.4866309762001038e-02 }
                  - { var:49, quality:4.8127868771553040e-01,
                      gt:6.3383841514587402e-01 }
                  - { var:15, quality:4.7967958450317383e-01,
                      le:1.2531329691410065e-01 }
                  - { var:59, quality:4.7814825177192688e-01,
                      le:3.8194444775581360e-01 }
                  - { var:29, quality:4.7809851169586182e-01,
                      gt:1.1363635212182999e-01 }
                  - { var:52, quality:4.6743342280387878e-01,
                      gt:2.2931036353111267e-01 }
                  - { var:7, quality:4.6115210652351379e-01,
                      le:6.9444447755813599e-02 }
                  - { var:4, quality:4.5066371560096741e-01,
                      le:1.3166667520999908e-01 }
                  - { var:24, quality:4.4648429751396179e-01,
                      gt:3.8257575035095215e-01 }
                  - { var:43, quality:4.3681597709655762e-01,
                      gt:3.1234869360923767e-01 }
                  - { var:61, quality:4.2681646347045898e-01,
                      gt:3.0834909528493881e-02 }
                  - { var:34, quality:4.1543012857437134e-01,
                      gt:7.5664147734642029e-02 }
                  - { var:44, quality:4.1070109605789185e-01,
                      gt:1.3157894834876060e-02 }
                  - { var:71, quality:4.1054069995880127e-01,
                      gt:9.6153849735856056e-03 }
                  - { var:21, quality:4.0816879272460938e-01,
                      gt:2.1315190941095352e-02 }
                  - { var:20, quality:4.0106791257858276e-01,
                      gt:1.4130434393882751e-01 }
                  - { var:11, quality:4.0106791257858276e-01,
                      gt:6.5217398107051849e-02 }
                  - { var:12, quality:3.9795860648155212e-01,
                      gt:2.0032050088047981e-02 }
                  - { var:53, quality:3.9617848396301270e-01,
                      gt:4.6695403754711151e-02 }
                  - { var:57, quality:3.9608445763587952e-01,
                      le:7.6949149370193481e-02 }
                  - { var:17, quality:3.9608445763587952e-01,
                      le:6.9897085428237915e-02 }
                  - { var:8, quality:3.9608445763587952e-01,
                      le:6.9444447755813599e-02 }
                  - { var:35, quality:3.9601802825927734e-01,
                      gt:9.4339596107602119e-03 }
                  - { var:62, quality:3.8197666406631470e-01,
                      gt:1.0751368105411530e-01 }
                  - { var:38, quality:3.8197666406631470e-01,
                      gt:4.1666671633720398e-02 }
                  - { var:25, quality:3.7964132428169250e-01,
                      le:3.4897025674581528e-02 }
            -
               depth: 1
               sample_count: 21
               value: -1.0692129491535640e+00
               norm_class_idx: 0
               Tn: 2147483647
               complexity: 1
               alpha: 0.
               node_risk: 0.
               tree_risk: 0.
               tree_error: 0.
            -
               depth: 1
               sample_count: 14
               value: 1.0692129491535640e+00
               norm_class_idx: 1
               Tn: 2147483647
               complexity: 1
               alpha: 0.
               node_risk: 0.
               tree_risk: 0.
               tree_error: 0.
      -
         best_tree_idx: -1
         nodes:
            -
               depth: 0
               sample_count: 41
               value: -1.3420158404011280e+00
               norm_class_idx: 0
               Tn: 0
               complexity: 2
               alpha: 0.
               node_risk: 0.
               tree_risk: 0.
               tree_error: 0.
               splits:
                  - { var:6, quality:7.9282122850418091e-01,
                      le:1.3718819618225098e-01 }
                  - { var:40, quality:7.1428811550140381e-01,
                      gt:3.4558320045471191e-01 }
                  - { var:42, quality:6.9638335704803467e-01,
                      le:7.7376566827297211e-02 }
                  - { var:50, quality:6.0880362987518311e-01,
                      le:4.5472973585128784e-01 }
                  - { var:41, quality:5.9483718872070312e-01,
                      le:1.3779661059379578e-01 }
                  - { var:61, quality:5.8420914411544800e-01,
                      gt:9.2592602595686913e-03 }
                  - { var:4, quality:5.7404464483261108e-01,
                      gt:2.6138719916343689e-01 }
                  - { var:33, quality:5.7302641868591309e-01,
                      le:2.1736595034599304e-01 }
                  - { var:22, quality:5.7016748189926147e-01,
                      le:6.1867809295654297e-01 }
                  - { var:7, quality:5.6898093223571777e-01,
                      le:7.5000002980232239e-02 }
                  - { var:5, quality:5.6240898370742798e-01,
                      gt:5.0148814916610718e-01 }
                  - { var:14, quality:5.5819451808929443e-01,
                      gt:5.7969057559967041e-01 }
                  - { var:24, quality:5.5562025308609009e-01,
                      gt:4.2665109038352966e-02 }
                  - { var:49, quality:5.4823100566864014e-01,
                      gt:2.5019305944442749e-01 }
                  - { var:32, quality:5.3629821538925171e-01,
                      gt:4.3284994363784790e-01 }
                  - { var:23, quality:5.3295242786407471e-01,
                      gt:3.8196283578872681e-01 }
                  - { var:58, quality:5.2899837493896484e-01,
                      le:3.3071428537368774e-01 }
                  - { var:69, quality:5.2448397874832153e-01,
                      le:3.7412589788436890e-01 }
                  - { var:31, quality:5.2348726987838745e-01,
                      gt:5.3254747390747070e-01 }
                  - { var:60, quality:5.1028895378112793e-01,
                      gt:9.2592602595686913e-03 }
                  - { var:51, quality:5.0673097372055054e-01,
                      le:7.3214285075664520e-02 }
                  - { var:13, quality:4.9295586347579956e-01,
                      gt:1.8957769870758057e-01 }
                  - { var:70, quality:4.8845845460891724e-01,
                      le:5.7189546525478363e-02 }
                  - { var:52, quality:4.8602405190467834e-01,
                      le:6.2661506235599518e-02 }
                  - { var:67, quality:4.8598933219909668e-01,
                      gt:7.6349520683288574e-01 }
                  - { var:15, quality:4.8581269383430481e-01,
                      le:3.7315875291824341e-01 }
                  - { var:21, quality:4.8083904385566711e-01,
                      le:8.9285699650645256e-03 }
                  - { var:39, quality:4.7775045037269592e-01,
                      le:2.2108839824795723e-02 }
                  - { var:16, quality:4.7751697897911072e-01,
                      le:6.2030073255300522e-02 }
                  - { var:12, quality:4.7258341312408447e-01,
                      le:6.5862715244293213e-02 }
                  - { var:8, quality:4.6775883436203003e-01,
                      le:9.0909097343683243e-03 }
                  - { var:57, quality:4.6764984726905823e-01,
                      le:7.6949149370193481e-02 }
                  - { var:17, quality:4.6764984726905823e-01,
                      le:6.9897085428237915e-02 }
                  - { var:53, quality:4.6304327249526978e-01,
                      le:3.7226773798465729e-02 }
                  - { var:68, quality:4.6149626374244690e-01,
                      le:4.4711536169052124e-01 }
                  - { var:34, quality:4.5991876721382141e-01,
                      le:1.5151514671742916e-02 }
                  - { var:48, quality:4.5539104938507080e-01,
                      gt:2.4127904325723648e-02 }
                  - { var:43, quality:4.5525565743446350e-01,
                      le:1.2518799304962158e-01 }
                  - { var:59, quality:4.5379829406738281e-01,
                      gt:7.2129631042480469e-01 }
                  - { var:66, quality:4.5130124688148499e-01,
                      le:1.0416665114462376e-02 }
                  - { var:30, quality:4.4757142663002014e-01,
                      gt:1.0783860087394714e-01 }
                  - { var:29, quality:4.4757142663002014e-01,
                      gt:1.1363635212182999e-01 }
                  - { var:3, quality:4.4757142663002014e-01,
                      gt:2.2108839824795723e-02 }
                  - { var:44, quality:4.2546778917312622e-01,
                      le:3.5545952618122101e-02 }
                  - { var:62, quality:4.2524981498718262e-01,
                      le:9.0847000479698181e-02 }
            -
               depth: 1
               sample_count: 22
               value: 1.3420158404011280e+00
               norm_class_idx: 1
               Tn: 2147483647
               complexity: 1
               alpha: 0.
               node_risk: 0.
               tree_risk: 0.
               tree_error: 0.
            -
               depth: 1
               sample_count: 19
               value: -1.3420158404011280e+00
               norm_class_idx: 0
               Tn: 2147483647
               complexity: 1
               alpha: 0.
               node_risk: 0.
               tree_risk: 0.
               tree_error: 0.
      -
         best_tree_idx: -1
         nodes:
            -
               depth: 0
               sample_count: 33
               value: -1.3096692020462943e+00
               norm_class_idx: 0
               Tn: 0
               complexity: 2
               alpha: 0.
               node_risk: 0.
               tree_risk: 0.
               tree_error: 0.
               splits:
                  - { var:50, quality:7.6247972249984741e-01,
                      le:6.2934780120849609e-01 }
                  - { var:33, quality:7.4540656805038452e-01,
                      le:7.2741937637329102e-01 }
                  - { var:31, quality:7.4540656805038452e-01,
                      gt:3.8856305181980133e-02 }
                  - { var:24, quality:7.4540656805038452e-01,
                      le:6.9297659397125244e-01 }
                  - { var:15, quality:7.4540656805038452e-01,
                      le:6.5683233737945557e-01 }
                  - { var:40, quality:7.3408895730972290e-01,
                      gt:4.6428576111793518e-02 }
                  - { var:34, quality:7.2241878509521484e-01,
                      le:4.7449365258216858e-02 }
                  - { var:7, quality:7.0421904325485229e-01,
                      le:1.2454545497894287e-01 }
                  - { var:32, quality:6.9858866930007935e-01,
                      le:7.8676474094390869e-01 }
                  - { var:41, quality:6.9037038087844849e-01,
                      le:6.2407028675079346e-01 }
                  - { var:23, quality:6.9037038087844849e-01,
                      le:8.0062794685363770e-01 }
                  - { var:49, quality:6.8980193138122559e-01,
                      gt:8.7500005960464478e-02 }
                  - { var:42, quality:6.8944948911666870e-01,
                      le:4.4512194395065308e-01 }
                  - { var:43, quality:6.8727165460586548e-01,
                      le:1.8233083188533783e-01 }
            -
               depth: 1
               sample_count: 31
               value: -1.3096692020462943e+00
               norm_class_idx: 0
               Tn: 2147483647
               complexity: 1
               alpha: 0.
               node_risk: 0.
               tree_risk: 0.
               tree_error: 0.
            -
               depth: 1
               sample_count: 2
               value: 1.3096692020462943e+00
               norm_class_idx: 1
               Tn: 2147483647
               complexity: 1
               alpha: 0.
               node_risk: 0.
               tree_risk: 0.
               tree_error: 0.
      -
         best_tree_idx: -1
         nodes:
            -
               depth: 0
               sample_count: 30
               value: 1.1669874119403509e+00
               norm_class_idx: 1
               Tn: 0
               complexity: 2
               alpha: 0.
               node_risk: 0.
               tree_risk: 0.
               tree_error: 0.
               splits:
                  - { var:51, quality:7.5421571731567383e-01,
                      le:3.6547619104385376e-01 }
                  - { var:69, quality:7.3248302936553955e-01,
                      le:4.6685609221458435e-01 }
                  - { var:67, quality:7.3248302936553955e-01,
                      gt:4.2735047638416290e-02 }
                  - { var:58, quality:7.2593635320663452e-01,
                      gt:8.4757834672927856e-02 }
                  - { var:30, quality:7.2593635320663452e-01,
                      le:1.1111110448837280e-02 }
                  - { var:13, quality:7.2593635320663452e-01,
                      gt:5.3485162556171417e-02 }
                  - { var:22, quality:7.1876662969589233e-01,
                      gt:2.6254180818796158e-02 }
                  - { var:60, quality:7.1159684658050537e-01,
                      le:6.1600381135940552e-01 }
                  - { var:29, quality:7.1159684658050537e-01,
                      le:1.1363635212182999e-01 }
                  - { var:49, quality:7.0634728670120239e-01,
                      gt:1.2377050518989563e-01 }
                  - { var:31, quality:6.9940078258514404e-01,
                      gt:1.6432225704193115e-01 }
                  - { var:32, quality:6.9338774681091309e-01,
                      le:6.0311448574066162e-01 }
                  - { var:39, quality:6.7898249626159668e-01,
                      le:2.0007999613881111e-02 }
                  - { var:15, quality:6.7829126119613647e-01,
                      le:3.5190370678901672e-01 }
                  - { var:24, quality:6.7112147808074951e-01,
                      le:4.0579712390899658e-01 }
                  - { var:42, quality:6.3940840959548950e-01,
                      le:5.3571426868438721e-01 }
                  - { var:21, quality:6.3940840959548950e-01,
                      le:1.9638039171695709e-02 }
                  - { var:4, quality:6.3201528787612915e-01,
                      gt:5.8569185435771942e-02 }
                  - { var:40, quality:6.2912654876708984e-01,
                      le:8.7097895145416260e-01 }
                  - { var:57, quality:6.2484550476074219e-01,
                      le:7.6949149370193481e-02 }
                  - { var:12, quality:6.2484550476074219e-01,
                      le:1.5870602428913116e-01 }
                  - { var:35, quality:6.1135238409042358e-01,
                      le:6.6734075546264648e-02 }
                  - { var:20, quality:6.1112904548645020e-01,
                      le:1.4130434393882751e-01 }
                  - { var:11, quality:6.1112904548645020e-01,
                      le:6.5217398107051849e-02 }
                  - { var:6, quality:6.1112904548645020e-01,
                      le:4.4791668653488159e-01 }
                  - { var:34, quality:6.0418260097503662e-01,
                      le:1.1115004867315292e-01 }
            -
               depth: 1
               sample_count: 25
               value: 1.1669874119403509e+00
               norm_class_idx: 1
               Tn: 2147483647
               complexity: 1
               alpha: 0.
               node_risk: 0.
               tree_risk: 0.
               tree_error: 0.
            -
               depth: 1
               sample_count: 5
               value: -1.1669874119403509e+00
               norm_class_idx: 0
               Tn: 2147483647
               complexity: 1
               alpha: 0.
               node_risk: 0.
               tree_risk: 0.
               tree_error: 0.
      -
         best_tree_idx: -1
         nodes:
            -
               depth: 0
               sample_count: 30
               value: -1.4557304091074827e+00
               norm_class_idx: 0
               Tn: 0
               complexity: 2
               alpha: 0.
               node_risk: 0.
               tree_risk: 0.
               tree_error: 0.
               splits:
                  - { var:61, quality:7.8852367401123047e-01,
                      le:5.0505056977272034e-02 }
                  - { var:14, quality:6.6962069272994995e-01,
                      le:6.0488992929458618e-01 }
                  - { var:48, quality:6.5756559371948242e-01,
                      le:2.8665028512477875e-02 }
                  - { var:12, quality:6.4218723773956299e-01,
                      le:8.3333346992731094e-03 }
                  - { var:23, quality:6.4020895957946777e-01,
                      le:5.1271188259124756e-01 }
                  - { var:68, quality:6.3863599300384521e-01,
                      le:8.2594525814056396e-01 }
                  - { var:59, quality:6.3863599300384521e-01,
                      le:7.2129631042480469e-01 }
                  - { var:5, quality:6.2222343683242798e-01,
                      le:8.0640721321105957e-01 }
                  - { var:70, quality:6.1560845375061035e-01,
                      le:2.4656595289707184e-01 }
                  - { var:67, quality:6.1278915405273438e-01,
                      gt:2.1766850352287292e-01 }
                  - { var:33, quality:6.0217994451522827e-01,
                      le:9.2592602595686913e-03 }
                  - { var:58, quality:5.9623867273330688e-01,
                      gt:1.7287629842758179e-01 }
                  - { var:4, quality:5.9623122215270996e-01,
                      gt:1.3166667520999908e-01 }
                  - { var:62, quality:5.8606499433517456e-01,
                      le:9.0847000479698181e-02 }
                  - { var:53, quality:5.8354794979095459e-01,
                      le:8.1871338188648224e-02 }
                  - { var:71, quality:5.8019542694091797e-01,
                      le:8.6788818240165710e-02 }
                  - { var:39, quality:5.8019542694091797e-01,
                      le:3.5714283585548401e-02 }
                  - { var:7, quality:5.7869327068328857e-01,
                      le:2.1892654895782471e-01 }
                  - { var:40, quality:5.7805651426315308e-01,
                      le:5.1230180263519287e-01 }
                  - { var:49, quality:5.6944084167480469e-01,
                      le:4.3703144788742065e-01 }
                  - { var:44, quality:5.6713533401489258e-01,
                      le:1.3157894834876060e-02 }
                  - { var:35, quality:5.6713533401489258e-01,
                      le:9.4339596107602119e-03 }
            -
               depth: 1
               sample_count: 22
               value: -1.4557304091074827e+00
               norm_class_idx: 0
               Tn: 2147483647
               complexity: 1
               alpha: 0.
               node_risk: 0.
               tree_risk: 0.
               tree_error: 0.
            -
               depth: 1
               sample_count: 8
               value: 1.4557304091074827e+00
               norm_class_idx: 1
               Tn: 2147483647
               complexity: 1
               alpha: 0.
               node_risk: 0.
               tree_risk: 0.
               tree_error: 0.
      -
         best_tree_idx: -1
         nodes:
            -
               depth: 0
               sample_count: 34
               value: 1.1931348373761022e+00
               norm_class_idx: 1
               Tn: 0
               complexity: 2
               alpha: 0.
               node_risk: 0.
               tree_risk: 0.
               tree_error: 0.
               splits:
                  - { var:59, quality:7.5019490718841553e-01,
                      le:3.9272028207778931e-01 }
                  - { var:41, quality:5.9284108877182007e-01,
                      le:5.9365081787109375e-01 }
                  - { var:16, quality:5.5475366115570068e-01,
                      le:4.6536799520254135e-02 }
                  - { var:5, quality:5.4853487014770508e-01,
                      le:4.8008662462234497e-01 }
                  - { var:52, quality:5.4559499025344849e-01,
                      gt:5.2777782082557678e-02 }
                  - { var:60, quality:5.3458195924758911e-01,
                      gt:3.2575756311416626e-01 }
                  - { var:31, quality:5.3441864252090454e-01,
                      le:9.6235048770904541e-01 }
                  - { var:51, quality:5.3040617704391479e-01,
                      le:2.9864865541458130e-01 }
                  - { var:69, quality:5.2764385938644409e-01,
                      gt:2.4321265518665314e-02 }
                  - { var:23, quality:5.2605473995208740e-01,
                      le:3.8196283578872681e-01 }
                  - { var:4, quality:5.1298540830612183e-01,
                      gt:1.3166667520999908e-01 }
                  - { var:67, quality:5.1230514049530029e-01,
                      le:6.0383510589599609e-01 }
                  - { var:12, quality:5.1021981239318848e-01,
                      le:3.0824828892946243e-02 }
                  - { var:42, quality:5.0994902849197388e-01,
                      gt:2.5657895952463150e-02 }
                  - { var:68, quality:5.0476258993148804e-01,
                      le:6.8650794029235840e-01 }
                  - { var:48, quality:5.0199699401855469e-01,
                      le:4.9049820750951767e-02 }
                  - { var:14, quality:5.0141996145248413e-01,
                      le:3.0883812904357910e-01 }
                  - { var:22, quality:4.9620842933654785e-01,
                      gt:3.5289004445075989e-01 }
                  - { var:32, quality:4.9433007836341858e-01,
                      gt:3.7649542093276978e-02 }
                  - { var:13, quality:4.9238550662994385e-01,
                      gt:2.4342104792594910e-01 }
                  - { var:33, quality:4.9228209257125854e-01,
                      gt:3.2515075057744980e-02 }
                  - { var:6, quality:4.8816540837287903e-01,
                      gt:1.8999999761581421e-01 }
                  - { var:50, quality:4.7952225804328918e-01,
                      le:6.9038462638854980e-01 }
                  - { var:7, quality:4.7905480861663818e-01,
                      gt:2.5641024112701416e-02 }
                  - { var:57, quality:4.7883749008178711e-01,
                      le:1.6949154436588287e-02 }
                  - { var:25, quality:4.7812613844871521e-01,
                      le:2.1739130839705467e-02 }
                  - { var:49, quality:4.7511076927185059e-01,
                      le:5.3636366128921509e-01 }
                  - { var:43, quality:4.7033220529556274e-01,
                      le:4.6540993452072144e-01 }
                  - { var:34, quality:4.7033220529556274e-01,
                      le:3.2332015037536621e-01 }
                  - { var:21, quality:4.6635776758193970e-01,
                      le:9.4339596107602119e-03 }
            -
               depth: 1
               sample_count: 24
               value: -1.1931348373761022e+00
               norm_class_idx: 0
               Tn: 2147483647
               complexity: 1
               alpha: 0.
               node_risk: 0.
               tree_risk: 0.
               tree_error: 0.
            -
               depth: 1
               sample_count: 10
               value: 1.1931348373761022e+00
               norm_class_idx: 1
               Tn: 2147483647
               complexity: 1
               alpha: 0.
               node_risk: 0.
               tree_risk: 0.
               tree_error: 0.
      -
         best_tree_idx: -1
         nodes:
            -
               depth: 0
               sample_count: 32
               value: 1.3506892968349258e+00
               norm_class_idx: 1
               Tn: 0
               complexity: 2
               alpha: 0.
               node_risk: 0.
               tree_risk: 0.
               tree_error: 0.
               splits:
                  - { var:22, quality:7.7928656339645386e-01,
                      le:5.9780704975128174e-01 }
                  - { var:24, quality:6.8751537799835205e-01,
                      gt:7.1794874966144562e-02 }
                  - { var:13, quality:6.6961377859115601e-01,
                      le:6.2781953811645508e-01 }
                  - { var:58, quality:6.4807146787643433e-01,
                      le:3.3071428537368774e-01 }
                  - { var:60, quality:6.2969183921813965e-01,
                      gt:8.7962970137596130e-02 }
                  - { var:5, quality:6.2433522939682007e-01,
                      gt:2.2499999403953552e-01 }
                  - { var:23, quality:6.2401300668716431e-01,
                      gt:3.0769230797886848e-02 }
                  - { var:4, quality:6.1438637971878052e-01,
                      le:7.1527779102325439e-01 }
                  - { var:14, quality:6.1003470420837402e-01,
                      gt:2.0833335816860199e-02 }
                  - { var:53, quality:6.0910618305206299e-01,
                      le:3.7226773798465729e-02 }
                  - { var:49, quality:6.0848134756088257e-01,
                      le:5.2696460485458374e-01 }
                  - { var:6, quality:6.0755759477615356e-01,
                      le:2.6888889074325562e-01 }
                  - { var:43, quality:6.0424071550369263e-01,
                      le:3.1234869360923767e-01 }
                  - { var:41, quality:5.9896785020828247e-01,
                      gt:9.9407494068145752e-02 }
                  - { var:59, quality:5.8596611022949219e-01,
                      gt:1.1794869601726532e-01 }
                  - { var:44, quality:5.8453547954559326e-01,
                      le:1.3157894834876060e-02 }
                  - { var:50, quality:5.8243012428283691e-01,
                      gt:6.2260538339614868e-02 }
                  - { var:8, quality:5.8136951923370361e-01,
                      le:3.3481154590845108e-02 }
                  - { var:15, quality:5.7715564966201782e-01,
                      gt:8.5120081901550293e-02 }
                  - { var:52, quality:5.7614463567733765e-01,
                      le:4.4796800613403320e-01 }
                  - { var:35, quality:5.7576668262481689e-01,
                      le:9.4339596107602119e-03 }
                  - { var:71, quality:5.7390952110290527e-01,
                      le:9.6153849735856056e-03 }
                  - { var:34, quality:5.7091647386550903e-01,
                      le:3.2332015037536621e-01 }
                  - { var:67, quality:5.6900316476821899e-01,
                      gt:2.4305555969476700e-02 }
                  - { var:57, quality:5.6900316476821899e-01,
                      le:7.6949149370193481e-02 }
                  - { var:42, quality:5.6900316476821899e-01,
                      le:6.0000002384185791e-01 }
                  - { var:12, quality:5.6900316476821899e-01,
                      le:1.5870602428913116e-01 }
                  - { var:32, quality:5.6884670257568359e-01,
                      gt:1.7241379246115685e-02 }
                  - { var:51, quality:5.6508487462997437e-01,
                      gt:3.2392892986536026e-02 }
                  - { var:68, quality:5.6352621316909790e-01,
                      gt:1.1904760263860226e-02 }
                  - { var:21, quality:5.6042933464050293e-01,
                      le:1.9638039171695709e-02 }
                  - { var:62, quality:5.5897486209869385e-01,
                      le:4.5641023665666580e-02 }
                  - { var:31, quality:5.5712306499481201e-01,
                      le:7.4080336093902588e-01 }
                  - { var:69, quality:5.5664819478988647e-01,
                      le:3.5573124885559082e-01 }
                  - { var:39, quality:5.5166786909103394e-01,
                      le:2.2108839824795723e-02 }
            -
               depth: 1
               sample_count: 17
               value: 1.3506892968349258e+00
               norm_class_idx: 1
               Tn: 2147483647
               complexity: 1
               alpha: 0.
               node_risk: 0.
               tree_risk: 0.
               tree_error: 0.
            -
               depth: 1
               sample_count: 15
               value: -1.3506892968349258e+00
               norm_class_idx: 0
               Tn: 2147483647
               complexity: 1
               alpha: 0.
               node_risk: 0.
               tree_risk: 0.
               tree_error: 0.
      -
         best_tree_idx: -1
         nodes:
            -
               depth: 0
               sample_count: 30
               value: -1.0894509078682300e+00
               norm_class_idx: 0
               Tn: 0
               complexity: 2
               alpha: 0.
               node_risk: 0.
               tree_risk: 0.
               tree_error: 0.
               splits:
                  - { var:23, quality:7.3736441135406494e-01,
                      le:4.3028843402862549e-01 }
                  - { var:14, quality:6.1251533031463623e-01,
                      le:5.7969057559967041e-01 }
                  - { var:5, quality:6.0340660810470581e-01,
                      le:6.9059830904006958e-01 }
                  - { var:32, quality:5.9555214643478394e-01,
                      le:4.9639499187469482e-01 }
                  - { var:22, quality:5.7065623998641968e-01,
                      gt:4.5350873470306396e-01 }
                  - { var:13, quality:5.6245815753936768e-01,
                      gt:2.2828780114650726e-01 }
                  - { var:67, quality:5.6197595596313477e-01,
                      gt:1.5945509076118469e-01 }
                  - { var:4, quality:5.4914093017578125e-01,
                      gt:3.3974361419677734e-01 }
                  - { var:58, quality:5.4880654811859131e-01,
                      le:3.9819005131721497e-01 }
                  - { var:40, quality:5.3872096538543701e-01,
                      le:7.4106001853942871e-01 }
                  - { var:48, quality:5.3857594728469849e-01,
                      le:1.1627905070781708e-02 }
                  - { var:69, quality:5.3644186258316040e-01,
                      le:4.2919582128524780e-01 }
                  - { var:51, quality:5.3438478708267212e-01,
                      le:4.0660917758941650e-01 }
                  - { var:68, quality:5.2928942441940308e-01,
                      le:6.8650794029235840e-01 }
                  - { var:41, quality:5.2625137567520142e-01,
                      gt:1.6071425378322601e-01 }
                  - { var:31, quality:5.2276796102523804e-01,
                      gt:4.2387706041336060e-01 }
                  - { var:60, quality:5.2222144603729248e-01,
                      gt:1.1088709533214569e-01 }
                  - { var:7, quality:5.1198619604110718e-01,
                      le:1.5333335101604462e-01 }
                  - { var:21, quality:5.1069140434265137e-01,
                      le:1.8362529575824738e-02 }
                  - { var:30, quality:5.0864255428314209e-01,
                      le:1.1111110448837280e-02 }
                  - { var:59, quality:5.0647377967834473e-01,
                      le:5.4118645191192627e-01 }
                  - { var:29, quality:5.0556969642639160e-01,
                      le:1.1363635212182999e-01 }
                  - { var:52, quality:5.0338941812515259e-01,
                      gt:1.4285715296864510e-02 }
                  - { var:6, quality:4.9497437477111816e-01,
                      le:4.1203704476356506e-01 }
                  - { var:39, quality:4.9208623170852661e-01,
                      le:9.8039200529456139e-03 }
                  - { var:49, quality:4.9086970090866089e-01,
                      le:7.2551786899566650e-01 }
                  - { var:57, quality:4.9082168936729431e-01,
                      le:1.2820514850318432e-02 }
                  - { var:50, quality:4.8556551337242126e-01,
                      gt:3.8749998807907104e-01 }
                  - { var:70, quality:4.8304739594459534e-01,
                      le:4.1414839029312134e-01 }
                  - { var:17, quality:4.8015502095222473e-01,
                      le:4.7169808298349380e-02 }
                  - { var:16, quality:4.8015502095222473e-01,
                      le:1.0240139067173004e-01 }
                  - { var:12, quality:4.7752127051353455e-01,
                      le:8.3333346992731094e-03 }
                  - { var:42, quality:4.6357470750808716e-01,
                      gt:1.2500000186264515e-02 }
                  - { var:35, quality:4.5796889066696167e-01,
                      le:5.2912220358848572e-02 }
                  - { var:11, quality:4.5291849970817566e-01,
                      le:6.5217398107051849e-02 }
                  - { var:61, quality:4.5203435420989990e-01,
                      le:4.2857146263122559e-01 }
                  - { var:34, quality:4.4563645124435425e-01,
                      le:1.3842710852622986e-01 }
                  - { var:25, quality:4.4505390524864197e-01,
                      le:3.4897025674581528e-02 }
                  - { var:43, quality:4.4158571958541870e-01,
                      gt:2.0511730015277863e-01 }
                  - { var:44, quality:4.3887308239936829e-01,
                      le:5.0959490239620209e-02 }
            -
               depth: 1
               sample_count: 18
               value: 1.0894509078682300e+00
               norm_class_idx: 1
               Tn: 2147483647
               complexity: 1
               alpha: 0.
               node_risk: 0.
               tree_risk: 0.
               tree_error: 0.
            -
               depth: 1
               sample_count: 12
               value: -1.0894509078682300e+00
               norm_class_idx: 0
               Tn: 2147483647
               complexity: 1
               alpha: 0.
               node_risk: 0.
               tree_risk: 0.
               tree_error: 0.
      -
         best_tree_idx: -1
         nodes:
            -
               depth: 0
               sample_count: 33
               value: -9.8398898804828772e-01
               norm_class_idx: 0
               Tn: 0
               complexity: 2
               alpha: 0.
               node_risk: 0.
               tree_risk: 0.
               tree_error: 0.
               splits:
                  - { var:50, quality:7.1123278141021729e-01,
                      le:4.2019772529602051e-01 }
                  - { var:70, quality:5.2208262681961060e-01,
                      le:7.4866309762001038e-02 }
                  - { var:33, quality:5.1701742410659790e-01,
                      le:1.8065270781517029e-01 }
                  - { var:69, quality:5.1658213138580322e-01,
                      le:3.0121529102325439e-01 }
                  - { var:7, quality:5.1464283466339111e-01,
                      le:9.6212118864059448e-02 }
                  - { var:41, quality:4.9272346496582031e-01,
                      le:1.6071425378322601e-01 }
                  - { var:42, quality:4.9185931682586670e-01,
                      le:3.1909090280532837e-01 }
                  - { var:6, quality:4.8889449238777161e-01,
                      le:2.1731235086917877e-01 }
                  - { var:49, quality:4.8617616295814514e-01,
                      gt:8.7500005960464478e-02 }
                  - { var:40, quality:4.8617616295814514e-01,
                      gt:1.0857142508029938e-01 }
                  - { var:32, quality:4.8293361067771912e-01,
                      gt:3.4642860293388367e-01 }
                  - { var:23, quality:4.8200654983520508e-01,
                      gt:2.0997536182403564e-01 }
                  - { var:16, quality:4.7705546021461487e-01,
                      le:7.9365102574229240e-03 }
                  - { var:31, quality:4.7432330250740051e-01,
                      gt:3.8856305181980133e-02 }
                  - { var:24, quality:4.7432330250740051e-01,
                      le:6.9297659397125244e-01 }
                  - { var:15, quality:4.7432330250740051e-01,
                      le:6.2087917327880859e-01 }
                  - { var:13, quality:4.6855849027633667e-01,
                      gt:1.9727888703346252e-01 }
                  - { var:68, quality:4.6061629056930542e-01,
                      gt:2.6535087823867798e-01 }
                  - { var:22, quality:4.5862063765525818e-01,
                      gt:2.0940551161766052e-01 }
                  - { var:4, quality:4.5729330182075500e-01,
                      gt:2.6138719916343689e-01 }
                  - { var:67, quality:4.4683134555816650e-01,
                      gt:2.9177719354629517e-01 }
                  - { var:17, quality:4.4160062074661255e-01,
                      le:6.9897085428237915e-02 }
                  - { var:61, quality:4.4119444489479065e-01,
                      le:4.2857146263122559e-01 }
                  - { var:57, quality:4.3593284487724304e-01,
                      le:7.6949149370193481e-02 }
                  - { var:12, quality:4.3593284487724304e-01,
                      le:1.5870602428913116e-01 }
                  - { var:59, quality:4.3575924634933472e-01,
                      le:1.8618264794349670e-01 }
                  - { var:34, quality:4.3134614825248718e-01,
                      le:1.5151514671742916e-02 }
                  - { var:60, quality:4.3092113733291626e-01,
                      le:5.6060612201690674e-01 }
                  - { var:25, quality:4.2784625291824341e-01,
                      le:3.4897025674581528e-02 }
                  - { var:43, quality:4.2602530121803284e-01,
                      gt:4.2727276682853699e-02 }
                  - { var:58, quality:4.1890600323677063e-01,
                      le:3.3071428537368774e-01 }
                  - { var:14, quality:4.1871598362922668e-01,
                      gt:5.5841398239135742e-01 }
                  - { var:5, quality:4.1589790582656860e-01,
                      gt:2.7777779847383499e-02 }
                  - { var:51, quality:4.1533654928207397e-01,
                      gt:3.0714285373687744e-01 }
                  - { var:52, quality:4.1476464271545410e-01,
                      gt:2.2931036353111267e-01 }
            -
               depth: 1
               sample_count: 22
               value: -9.8398898804828772e-01
               norm_class_idx: 0
               Tn: 2147483647
               complexity: 1
               alpha: 0.
               node_risk: 0.
               tree_risk: 0.
               tree_error: 0.
            -
               depth: 1
               sample_count: 11
               value: 9.8398898804828772e-01
               norm_class_idx: 1
               Tn: 2147483647
               complexity: 1
               alpha: 0.
               node_risk: 0.
               tree_risk: 0.
               tree_error: 0.
      -
         best_tree_idx: -1
         nodes:
            -
               depth: 0
               sample_count: 31
               value: -1.1880624288286250e+00
               norm_class_idx: 0
               Tn: 0
               complexity: 2
               alpha: 0.
               node_risk: 0.
               tree_risk: 0.
               tree_error: 0.
               splits:
                  - { var:42, quality:7.5051987171173096e-01,
                      le:3.6281179636716843e-02 }
                  - { var:6, quality:6.8046724796295166e-01,
                      le:2.1091645956039429e-01 }
                  - { var:40, quality:6.4131331443786621e-01,
                      gt:3.4558320045471191e-01 }
                  - { var:50, quality:5.8998394012451172e-01,
                      le:4.3712121248245239e-01 }
                  - { var:49, quality:5.7068294286727905e-01,
                      gt:4.9813973903656006e-01 }
                  - { var:4, quality:5.5037516355514526e-01,
                      gt:6.2250000238418579e-01 }
                  - { var:5, quality:5.4234564304351807e-01,
                      gt:6.9059830904006958e-01 }
                  - { var:61, quality:5.3468078374862671e-01,
                      gt:1.4705879613757133e-02 }
                  - { var:67, quality:5.3084635734558105e-01,
                      le:3.2844933867454529e-01 }
                  - { var:43, quality:5.2850365638732910e-01,
                      le:1.3513514772057533e-02 }
                  - { var:7, quality:5.2634650468826294e-01,
                      le:7.5000002980232239e-02 }
                  - { var:32, quality:5.1914429664611816e-01,
                      gt:5.3286719322204590e-01 }
                  - { var:33, quality:5.1239788532257080e-01,
                      le:2.6251643896102905e-01 }
                  - { var:58, quality:5.0992447137832642e-01,
                      le:1.7287629842758179e-01 }
                  - { var:14, quality:5.0571429729461670e-01,
                      gt:5.7969057559967041e-01 }
                  - { var:68, quality:4.9490779638290405e-01,
                      gt:6.8650794029235840e-01 }
                  - { var:23, quality:4.9136546254158020e-01,
                      gt:6.5125787258148193e-01 }
                  - { var:22, quality:4.8912766575813293e-01,
                      le:2.4764150381088257e-01 }
                  - { var:51, quality:4.8668044805526733e-01,
                      le:6.9612592458724976e-02 }
                  - { var:52, quality:4.7804608941078186e-01,
                      le:6.2661506235599518e-02 }
                  - { var:59, quality:4.7605291008949280e-01,
                      le:2.3596620559692383e-01 }
                  - { var:41, quality:4.7600740194320679e-01,
                      le:1.3779661059379578e-01 }
                  - { var:48, quality:4.7260257601737976e-01,
                      gt:2.8665028512477875e-02 }
                  - { var:60, quality:4.7224974632263184e-01,
                      le:2.6820516586303711e-01 }
                  - { var:31, quality:4.6967649459838867e-01,
                      gt:6.1000001430511475e-01 }
                  - { var:13, quality:4.6520382165908813e-01,
                      gt:2.9020980000495911e-01 }
                  - { var:15, quality:4.5399674773216248e-01,
                      le:2.6650944352149963e-01 }
                  - { var:69, quality:4.4952222704887390e-01,
                      le:2.0032050088047981e-02 }
                  - { var:24, quality:4.4605827331542969e-01,
                      gt:3.1841215491294861e-01 }
                  - { var:16, quality:4.4181206822395325e-01,
                      le:7.9365102574229240e-03 }
                  - { var:30, quality:4.3477612733840942e-01,
                      gt:8.1818200647830963e-02 }
                  - { var:29, quality:4.3477612733840942e-01,
                      gt:1.1363635212182999e-01 }
                  - { var:3, quality:4.3477612733840942e-01,
                      gt:1.1904760263860226e-02 }
                  - { var:39, quality:4.3228659033775330e-01,
                      gt:2.0007999613881111e-02 }
                  - { var:70, quality:4.2982640862464905e-01,
                      le:5.7189546525478363e-02 }
                  - { var:53, quality:4.2620086669921875e-01,
                      gt:8.1417620182037354e-02 }
                  - { var:12, quality:4.2410087585449219e-01,
                      gt:3.0824828892946243e-02 }
                  - { var:34, quality:4.2361119389533997e-01,
                      le:3.9345063269138336e-02 }
                  - { var:62, quality:4.2200347781181335e-01,
                      gt:1.9999999552965164e-02 }
                  - { var:35, quality:4.1689866781234741e-01,
                      gt:9.4339596107602119e-03 }
                  - { var:71, quality:4.1586199402809143e-01,
                      gt:1.1094850301742554e-01 }
                  - { var:25, quality:4.1286799311637878e-01,
                      gt:3.4897025674581528e-02 }
                  - { var:21, quality:4.0520602464675903e-01,
                      le:1.9638039171695709e-02 }
            -
               depth: 1
               sample_count: 13
               value: 1.1880624288286250e+00
               norm_class_idx: 1
               Tn: 2147483647
               complexity: 1
               alpha: 0.
               node_risk: 0.
               tree_risk: 0.
               tree_error: 0.
            -
               depth: 1
               sample_count: 18
               value: -1.1880624288286250e+00
               norm_class_idx: 0
               Tn: 2147483647
               complexity: 1
               alpha: 0.
               node_risk: 0.
               tree_risk: 0.
               tree_error: 0.
      -
         best_tree_idx: -1
         nodes:
            -
               depth: 0
               sample_count: 31
               value: -1.1377009108158402e+00
               norm_class_idx: 0
               Tn: 0
               complexity: 2
               alpha: 0.
               node_risk: 0.
               tree_risk: 0.
               tree_error: 0.
               splits:
                  - { var:50, quality:7.2328418493270874e-01,
                      le:6.2934780120849609e-01 }
                  - { var:40, quality:7.0176935195922852e-01,
                      gt:4.6428576111793518e-02 }
                  - { var:33, quality:7.0176935195922852e-01,
                      le:7.2741937637329102e-01 }
                  - { var:31, quality:7.0176935195922852e-01,
                      gt:3.8856305181980133e-02 }
                  - { var:24, quality:7.0176935195922852e-01,
                      le:6.9297659397125244e-01 }
                  - { var:15, quality:7.0176935195922852e-01,
                      le:6.2593990564346313e-01 }
                  - { var:34, quality:6.9102978706359863e-01,
                      le:2.4193549528717995e-02 }
                  - { var:43, quality:6.7755681276321411e-01,
                      le:2.6226013898849487e-01 }
                  - { var:49, quality:6.7571592330932617e-01,
                      gt:8.7500005960464478e-02 }
                  - { var:42, quality:6.7571592330932617e-01,
                      le:4.1216215491294861e-01 }
                  - { var:22, quality:6.5843892097473145e-01,
                      gt:1.1538463830947876e-01 }
                  - { var:13, quality:6.5843892097473145e-01,
                      gt:7.5498573482036591e-02 }
                  - { var:60, quality:6.3692408800125122e-01,
                      le:5.6060612201690674e-01 }
                  - { var:32, quality:6.3397520780563354e-01,
                      le:7.8676474094390869e-01 }
                  - { var:52, quality:6.2599426507949829e-01,
                      le:1.4166668057441711e-01 }
                  - { var:7, quality:6.2216347455978394e-01,
                      le:1.1166667193174362e-01 }
                  - { var:16, quality:6.1424344778060913e-01,
                      le:7.9365102574229240e-03 }
            -
               depth: 1
               sample_count: 29
               value: -1.1377009108158402e+00
               norm_class_idx: 0
               Tn: 2147483647
               complexity: 1
               alpha: 0.
               node_risk: 0.
               tree_risk: 0.
               tree_error: 0.
            -
               depth: 1
               sample_count: 2
               value: 1.1377009108158402e+00
               norm_class_idx: 1
               Tn: 2147483647
               complexity: 1
               alpha: 0.
               node_risk: 0.
               tree_risk: 0.
               tree_error: 0.
      -
         best_tree_idx: -1
         nodes:
            -
               depth: 0
               sample_count: 28
               value: 1.2397498260357800e+00
               norm_class_idx: 1
               Tn: 0
               complexity: 2
               alpha: 0.
               node_risk: 0.
               tree_risk: 0.
               tree_error: 0.
               splits:
                  - { var:58, quality:7.4833697080612183e-01,
                      le:4.0304082632064819e-01 }
                  - { var:60, quality:7.0602196455001831e-01,
                      gt:8.7962970137596130e-02 }
                  - { var:59, quality:6.4396202564239502e-01,
                      gt:1.1794869601726532e-01 }
                  - { var:50, quality:6.3337218761444092e-01,
                      gt:6.2260538339614868e-02 }
                  - { var:14, quality:6.2114101648330688e-01,
                      le:7.6464772224426270e-01 }
                  - { var:23, quality:6.1629104614257812e-01,
                      gt:3.0769230797886848e-02 }
                  - { var:22, quality:6.1629104614257812e-01,
                      le:9.2647063732147217e-01 }
                  - { var:13, quality:6.1629104614257812e-01,
                      le:7.6255977153778076e-01 }
                  - { var:68, quality:6.1372613906860352e-01,
                      gt:6.7873306572437286e-02 }
                  - { var:32, quality:6.1167371273040771e-01,
                      le:6.5681815147399902e-01 }
                  - { var:49, quality:6.0835891962051392e-01,
                      le:7.8107345104217529e-01 }
                  - { var:51, quality:5.9737253189086914e-01,
                      gt:1.5151514671742916e-02 }
                  - { var:67, quality:5.8940201997756958e-01,
                      le:8.1561088562011719e-01 }
                  - { var:70, quality:5.8683776855468750e-01,
                      le:3.0357140302658081e-01 }
                  - { var:41, quality:5.7909625768661499e-01,
                      le:6.2407028675079346e-01 }
                  - { var:4, quality:5.7882601022720337e-01,
                      gt:7.9402521252632141e-02 }
                  - { var:35, quality:5.7824927568435669e-01,
                      le:9.4339596107602119e-03 }
                  - { var:5, quality:5.7820498943328857e-01,
                      le:9.0074682235717773e-01 }
                  - { var:24, quality:5.7649177312850952e-01,
                      gt:9.9865041673183441e-02 }
                  - { var:53, quality:5.7560092210769653e-01,
                      le:3.7226773798465729e-02 }
                  - { var:62, quality:5.7395344972610474e-01,
                      le:4.5641023665666580e-02 }
                  - { var:61, quality:5.7176947593688965e-01,
                      le:4.2857146263122559e-01 }
                  - { var:71, quality:5.6849521398544312e-01,
                      le:9.6153849735856056e-03 }
                  - { var:44, quality:5.6799250841140747e-01,
                      le:1.3157894834876060e-02 }
                  - { var:7, quality:5.6206369400024414e-01,
                      le:2.1892654895782471e-01 }
                  - { var:8, quality:5.6084424257278442e-01,
                      le:3.3649504184722900e-02 }
                  - { var:57, quality:5.6021416187286377e-01,
                      le:1.6949154436588287e-02 }
                  - { var:21, quality:5.6021416187286377e-01,
                      le:9.4339596107602119e-03 }
            -
               depth: 1
               sample_count: 16
               value: 1.2397498260357800e+00
               norm_class_idx: 1
               Tn: 2147483647
               complexity: 1
               alpha: 0.
               node_risk: 0.
               tree_risk: 0.
               tree_error: 0.
            -
               depth: 1
               sample_count: 12
               value: -1.2397498260357800e+00
               norm_class_idx: 0
               Tn: 2147483647
               complexity: 1
               alpha: 0.
               node_risk: 0.
               tree_risk: 0.
               tree_error: 0.
      -
         best_tree_idx: -1
         nodes:
            -
               depth: 0
               sample_count: 28
               value: -9.8835577131970698e-01
               norm_class_idx: 0
               Tn: 0
               complexity: 2
               alpha: 0.
               node_risk: 0.
               tree_risk: 0.
               tree_error: 0.
               splits:
                  - { var:69, quality:7.2430026531219482e-01,
                      le:3.7412589788436890e-01 }
                  - { var:48, quality:6.5783327817916870e-01,
                      le:1.1627905070781708e-02 }
                  - { var:67, quality:6.4994651079177856e-01,
                      gt:4.2735047638416290e-02 }
                  - { var:51, quality:6.4350980520248413e-01,
                      le:4.2800560593605042e-01 }
                  - { var:49, quality:6.2140810489654541e-01,
                      gt:1.8785084784030914e-01 }
                  - { var:39, quality:6.2043714523315430e-01,
                      le:2.0007999613881111e-02 }
                  - { var:31, quality:6.1728674173355103e-01,
                      gt:1.1680673062801361e-01 }
                  - { var:60, quality:6.1131829023361206e-01,
                      le:6.1600381135940552e-01 }
                  - { var:58, quality:6.1131829023361206e-01,
                      gt:6.9711536169052124e-02 }
                  - { var:30, quality:6.1131829023361206e-01,
                      le:8.1818200647830963e-02 }
                  - { var:22, quality:6.1131829023361206e-01,
                      gt:2.6254180818796158e-02 }
                  - { var:13, quality:6.1131829023361206e-01,
                      gt:4.3015725910663605e-02 }
                  - { var:3, quality:6.1131829023361206e-01,
                      le:1.1904760263860226e-02 }
                  - { var:6, quality:5.8352136611938477e-01,
                      le:2.6888889074325562e-01 }
                  - { var:40, quality:5.8325684070587158e-01,
                      le:8.7097895145416260e-01 }
                  - { var:24, quality:5.8162653446197510e-01,
                      le:3.1009614467620850e-01 }
                  - { var:15, quality:5.7299000024795532e-01,
                      le:3.5190370678901672e-01 }
                  - { var:17, quality:5.6404066085815430e-01,
                      le:4.7169808298349380e-02 }
                  - { var:16, quality:5.6404066085815430e-01,
                      le:1.0240139067173004e-01 }
                  - { var:12, quality:5.5947178602218628e-01,
                      le:6.5862715244293213e-02 }
                  - { var:57, quality:5.5380326509475708e-01,
                      le:7.6949149370193481e-02 }
                  - { var:4, quality:5.5380326509475708e-01,
                      gt:3.1944446265697479e-02 }
                  - { var:32, quality:5.4760533571243286e-01,
                      le:6.0311448574066162e-01 }
                  - { var:42, quality:5.4736655950546265e-01,
                      le:5.6428575515747070e-01 }
                  - { var:21, quality:5.4736655950546265e-01,
                      le:1.9638039171695709e-02 }
                  - { var:41, quality:5.4300689697265625e-01,
                      gt:1.1136524379253387e-01 }
                  - { var:7, quality:5.3198724985122681e-01,
                      le:1.5333335101604462e-01 }
                  - { var:8, quality:5.2924227714538574e-01,
                      le:5.0925932824611664e-02 }
                  - { var:33, quality:5.2114355564117432e-01,
                      le:4.0064102411270142e-01 }
            -
               depth: 1
               sample_count: 22
               value: 9.8835577131970698e-01
               norm_class_idx: 1
               Tn: 2147483647
               complexity: 1
               alpha: 0.
               node_risk: 0.
               tree_risk: 0.
               tree_error: 0.
            -
               depth: 1
               sample_count: 6
               value: -9.8835577131970698e-01
               norm_class_idx: 0
               Tn: 2147483647
               complexity: 1
               alpha: 0.
               node_risk: 0.
               tree_risk: 0.
               tree_error: 0.
      -
         best_tree_idx: -1
         nodes:
            -
               depth: 0
               sample_count: 30
               value: -1.2599810537169409e+00
               norm_class_idx: 0
               Tn: 0
               complexity: 2
               alpha: 0.
               node_risk: 0.
               tree_risk: 0.
               tree_error: 0.
               splits:
                  - { var:61, quality:7.2766220569610596e-01,
                      le:2.3087435960769653e-01 }
                  - { var:70, quality:6.7280089855194092e-01,
                      le:3.0357140302658081e-01 }
            -
               depth: 1
               sample_count: 27
               value: -1.2599810537169409e+00
               norm_class_idx: 0
               Tn: 2147483647
               complexity: 1
               alpha: 0.
               node_risk: 0.
               tree_risk: 0.
               tree_error: 0.
            -
               depth: 1
               sample_count: 3
               value: 1.2599810537169409e+00
               norm_class_idx: 1
               Tn: 2147483647
               complexity: 1
               alpha: 0.
               node_risk: 0.
               tree_risk: 0.
               tree_error: 0.
      -
         best_tree_idx: -1
         nodes:
            -
               depth: 0
               sample_count: 31
               value: 1.1303689042754110e+00
               norm_class_idx: 1
               Tn: 0
               complexity: 2
               alpha: 0.
               node_risk: 0.
               tree_risk: 0.
               tree_error: 0.
               splits:
                  - { var:50, quality:7.3902994394302368e-01,
                      le:1.6419489681720734e-01 }
                  - { var:49, quality:6.4149117469787598e-01,
                      gt:7.8107345104217529e-01 }
                  - { var:23, quality:6.2841910123825073e-01,
                      le:3.0769230797886848e-02 }
                  - { var:22, quality:6.2841910123825073e-01,
                      gt:9.1754209995269775e-01 }
                  - { var:44, quality:6.2650239467620850e-01,
                      gt:1.3157894834876060e-02 }
                  - { var:71, quality:6.2474590539932251e-01,
                      gt:9.6153849735856056e-03 }
                  - { var:52, quality:6.2427783012390137e-01,
                      gt:2.2931036353111267e-01 }
                  - { var:59, quality:6.1991876363754272e-01,
                      le:1.8618264794349670e-01 }
                  - { var:14, quality:6.1590009927749634e-01,
                      le:3.1746033579111099e-02 }
                  - { var:13, quality:6.1590009927749634e-01,
                      gt:9.4262295961380005e-01 }
                  - { var:58, quality:6.0781186819076538e-01,
                      gt:7.1153843402862549e-01 }
                  - { var:41, quality:6.0157132148742676e-01,
                      le:9.3393281102180481e-02 }
                  - { var:53, quality:6.0045605897903442e-01,
                      gt:4.6695403754711151e-02 }
                  - { var:62, quality:5.9559714794158936e-01,
                      gt:1.0751368105411530e-01 }
                  - { var:8, quality:5.9457457065582275e-01,
                      gt:1.8350169062614441e-02 }
                  - { var:61, quality:5.9407204389572144e-01,
                      gt:6.6239319741725922e-02 }
                  - { var:35, quality:5.9352970123291016e-01,
                      gt:9.4339596107602119e-03 }
                  - { var:5, quality:5.9349715709686279e-01,
                      gt:9.0074682235717773e-01 }
                  - { var:43, quality:5.9184664487838745e-01,
                      gt:7.5187966227531433e-02 }
                  - { var:7, quality:5.8958178758621216e-01,
                      gt:2.8374135494232178e-01 }
                  - { var:32, quality:5.8123010396957397e-01,
                      le:1.7241379246115685e-02 }
                  - { var:25, quality:5.7699847221374512e-01,
                      gt:1.3157894834876060e-02 }
                  - { var:57, quality:5.7649302482604980e-01,
                      gt:2.9769670218229294e-02 }
                  - { var:21, quality:5.7580649852752686e-01,
                      gt:8.9285699650645256e-03 }
                  - { var:16, quality:5.7499754428863525e-01,
                      gt:6.2030073255300522e-02 }
                  - { var:4, quality:5.7457482814788818e-01,
                      gt:3.9737272262573242e-01 }
            -
               depth: 1
               sample_count: 12
               value: -1.1303689042754110e+00
               norm_class_idx: 0
               Tn: 2147483647
               complexity: 1
               alpha: 0.
               node_risk: 0.
               tree_risk: 0.
               tree_error: 0.
            -
               depth: 1
               sample_count: 19
               value: 1.1303689042754110e+00
               norm_class_idx: 1
               Tn: 2147483647
               complexity: 1
               alpha: 0.
               node_risk: 0.
               tree_risk: 0.
               tree_error: 0.
      -
         best_tree_idx: -1
         nodes:
            -
               depth: 0
               sample_count: 28
               value: -1.0428980104001451e+00
               norm_class_idx: 0
               Tn: 0
               complexity: 2
               alpha: 0.
               node_risk: 0.
               tree_risk: 0.
               tree_error: 0.
               splits:
                  - { var:6, quality:7.2308707237243652e-01,
                      le:1.2925170361995697e-01 }
                  - { var:42, quality:6.1458414793014526e-01,
                      le:3.6281179636716843e-02 }
                  - { var:40, quality:6.0839283466339111e-01,
                      gt:3.5054349899291992e-01 }
                  - { var:33, quality:5.6947088241577148e-01,
                      le:3.6531984806060791e-02 }
                  - { var:50, quality:5.6705707311630249e-01,
                      le:4.5472973585128784e-01 }
                  - { var:5, quality:5.3860658407211304e-01,
                      gt:5.0148814916610718e-01 }
                  - { var:43, quality:5.2872473001480103e-01,
                      le:1.3513514772057533e-02 }
                  - { var:14, quality:5.1886802911758423e-01,
                      gt:3.0883812904357910e-01 }
                  - { var:32, quality:5.0226801633834839e-01,
                      gt:4.3284994363784790e-01 }
                  - { var:4, quality:4.9906972050666809e-01,
                      gt:2.6138719916343689e-01 }
                  - { var:52, quality:4.9715372920036316e-01,
                      le:6.2661506235599518e-02 }
                  - { var:41, quality:4.9025863409042358e-01,
                      le:1.3922515511512756e-01 }
                  - { var:49, quality:4.9016252160072327e-01,
                      gt:8.7500005960464478e-02 }
                  - { var:22, quality:4.8787370324134827e-01,
                      le:4.2853105068206787e-01 }
                  - { var:24, quality:4.8649328947067261e-01,
                      gt:4.2665109038352966e-02 }
                  - { var:23, quality:4.8501974344253540e-01,
                      gt:3.8196283578872681e-01 }
                  - { var:34, quality:4.7366887331008911e-01,
                      le:2.4193549528717995e-02 }
                  - { var:61, quality:4.7036686539649963e-01,
                      gt:1.4705879613757133e-02 }
                  - { var:59, quality:4.6832072734832764e-01,
                      gt:2.6965725421905518e-01 }
                  - { var:70, quality:4.6487063169479370e-01,
                      le:5.7189546525478363e-02 }
                  - { var:67, quality:4.5738410949707031e-01,
                      le:3.5460320115089417e-01 }
                  - { var:15, quality:4.5460501313209534e-01,
                      le:3.7315875291824341e-01 }
                  - { var:60, quality:4.5456546545028687e-01,
                      gt:4.6296294778585434e-02 }
                  - { var:16, quality:4.5316499471664429e-01,
                      le:6.2679424881935120e-02 }
                  - { var:58, quality:4.4998821616172791e-01,
                      le:5.0806450843811035e-01 }
                  - { var:21, quality:4.4631353020668030e-01,
                      le:1.9638039171695709e-02 }
                  - { var:17, quality:4.3998262286186218e-01,
                      le:4.7169808298349380e-02 }
                  - { var:31, quality:4.3528780341148376e-01,
                      gt:3.8856305181980133e-02 }
                  - { var:48, quality:4.3205580115318298e-01,
                      gt:2.4127904325723648e-02 }
                  - { var:57, quality:4.3079841136932373e-01,
                      le:7.6949149370193481e-02 }
                  - { var:12, quality:4.3079841136932373e-01,
                      le:1.5870602428913116e-01 }
                  - { var:68, quality:4.2825672030448914e-01,
                      le:4.4711536169052124e-01 }
                  - { var:13, quality:4.2729321122169495e-01,
                      gt:1.8957769870758057e-01 }
                  - { var:69, quality:4.2248168587684631e-01,
                      le:2.0032050088047981e-02 }
                  - { var:8, quality:4.2194646596908569e-01,
                      le:9.2592602595686913e-03 }
                  - { var:51, quality:4.2192336916923523e-01,
                      le:5.2272731065750122e-01 }
                  - { var:44, quality:4.1884401440620422e-01,
                      le:3.5545952618122101e-02 }
                  - { var:66, quality:4.1636443138122559e-01,
                      le:1.0416665114462376e-02 }
                  - { var:71, quality:4.1488537192344666e-01,
                      le:2.9615383595228195e-02 }
                  - { var:39, quality:4.1346934437751770e-01,
                      le:2.2108839824795723e-02 }
                  - { var:62, quality:4.1328510642051697e-01,
                      le:8.3974376320838928e-02 }
                  - { var:30, quality:4.1319552063941956e-01,
                      gt:1.0783860087394714e-01 }
                  - { var:29, quality:4.1319552063941956e-01,
                      gt:1.1363635212182999e-01 }
                  - { var:3, quality:4.1319552063941956e-01,
                      gt:2.2108839824795723e-02 }
                  - { var:25, quality:4.0104538202285767e-01,
                      le:1.3157894834876060e-02 }
            -
               depth: 1
               sample_count: 13
               value: 1.0428980104001451e+00
               norm_class_idx: 1
               Tn: 2147483647
               complexity: 1
               alpha: 0.
               node_risk: 0.
               tree_risk: 0.
               tree_error: 0.
            -
               depth: 1
               sample_count: 15
               value: -1.0428980104001451e+00
               norm_class_idx: 0
               Tn: 2147483647
               complexity: 1
               alpha: 0.
               node_risk: 0.
               tree_risk: 0.
               tree_error: 0.
      -
         best_tree_idx: -1
         nodes:
            -
               depth: 0
               sample_count: 29
               value: -1.2746310654274962e+00
               norm_class_idx: 0
               Tn: 0
               complexity: 2
               alpha: 0.
               node_risk: 0.
               tree_risk: 0.
               tree_error: 0.
               splits:
                  - { var:50, quality:7.4341118335723877e-01,
                      le:6.2934780120849609e-01 }
                  - { var:33, quality:7.2081440687179565e-01,
                      le:7.2741937637329102e-01 }
                  - { var:31, quality:7.2081440687179565e-01,
                      gt:3.8856305181980133e-02 }
                  - { var:24, quality:7.2081440687179565e-01,
                      le:6.9297659397125244e-01 }
                  - { var:15, quality:7.2081440687179565e-01,
                      le:6.0942250490188599e-01 }
                  - { var:40, quality:7.1005272865295410e-01,
                      gt:4.6428576111793518e-02 }
                  - { var:34, quality:6.9419229030609131e-01,
                      le:3.9345063269138336e-02 }
                  - { var:49, quality:6.8601560592651367e-01,
                      gt:8.7500005960464478e-02 }
                  - { var:42, quality:6.8601560592651367e-01,
                      le:4.0999999642372131e-01 }
                  - { var:32, quality:6.6637194156646729e-01,
                      le:7.8676474094390869e-01 }
                  - { var:43, quality:6.6359162330627441e-01,
                      le:2.6226013898849487e-01 }
                  - { var:14, quality:6.6078227758407593e-01,
                      gt:7.7200576663017273e-02 }
                  - { var:7, quality:6.5598839521408081e-01,
                      le:1.2454545497894287e-01 }
                  - { var:23, quality:6.5353864431381226e-01,
                      gt:1.0429862886667252e-01 }
                  - { var:41, quality:6.4703261852264404e-01,
                      le:6.2407028675079346e-01 }
                  - { var:67, quality:6.4464116096496582e-01,
                      le:9.8809516429901123e-01 }
            -
               depth: 1
               sample_count: 27
               value: -1.2746310654274962e+00
               norm_class_idx: 0
               Tn: 2147483647
               complexity: 1
               alpha: 0.
               node_risk: 0.
               tree_risk: 0.
               tree_error: 0.
            -
               depth: 1
               sample_count: 2
               value: 1.2746310654274962e+00
               norm_class_idx: 1
               Tn: 2147483647
               complexity: 1
               alpha: 0.
               node_risk: 0.
               tree_risk: 0.
               tree_error: 0.
      -
         best_tree_idx: -1
         nodes:
            -
               depth: 0
               sample_count: 26
               value: 1.1891667937304473e+00
               norm_class_idx: 1
               Tn: 0
               complexity: 2
               alpha: 0.
               node_risk: 0.
               tree_risk: 0.
               tree_error: 0.
               splits:
                  - { var:69, quality:7.6525199413299561e-01,
                      le:4.2919582128524780e-01 }
                  - { var:67, quality:7.4510294198989868e-01,
                      gt:4.2735047638416290e-02 }
                  - { var:51, quality:7.3797184228897095e-01,
                      le:3.9639639854431152e-01 }
                  - { var:60, quality:7.2917509078979492e-01,
                      le:6.1600381135940552e-01 }
                  - { var:58, quality:7.2917509078979492e-01,
                      gt:6.9711536169052124e-02 }
                  - { var:30, quality:7.2917509078979492e-01,
                      le:8.1818200647830963e-02 }
                  - { var:29, quality:7.2917509078979492e-01,
                      le:1.1363635212182999e-01 }
                  - { var:22, quality:7.2917509078979492e-01,
                      gt:2.6254180818796158e-02 }
                  - { var:13, quality:7.2917509078979492e-01,
                      gt:4.3015725910663605e-02 }
                  - { var:3, quality:7.2917509078979492e-01,
                      le:1.1904760263860226e-02 }
                  - { var:39, quality:7.1831768751144409e-01,
                      le:2.0007999613881111e-02 }
                  - { var:49, quality:6.9413667917251587e-01,
                      gt:1.9302324950695038e-01 }
                  - { var:31, quality:6.9405412673950195e-01,
                      gt:1.1680673062801361e-01 }
                  - { var:40, quality:6.8205392360687256e-01,
                      le:8.7097895145416260e-01 }
                  - { var:32, quality:6.8083482980728149e-01,
                      le:6.0311448574066162e-01 }
                  - { var:24, quality:6.7812633514404297e-01,
                      le:4.0579712390899658e-01 }
                  - { var:15, quality:6.7812633514404297e-01,
                      le:3.5190370678901672e-01 }
                  - { var:48, quality:6.5637248754501343e-01,
                      le:1.1627905070781708e-02 }
                  - { var:41, quality:6.4119696617126465e-01,
                      gt:1.1136524379253387e-01 }
                  - { var:17, quality:6.3683909177780151e-01,
                      le:4.7169808298349380e-02 }
                  - { var:16, quality:6.3683909177780151e-01,
                      le:1.0240139067173004e-01 }
                  - { var:57, quality:6.3261783123016357e-01,
                      le:7.6949149370193481e-02 }
                  - { var:12, quality:6.3261783123016357e-01,
                      le:1.5870602428913116e-01 }
                  - { var:4, quality:6.3261783123016357e-01,
                      gt:3.1944446265697479e-02 }
                  - { var:6, quality:6.2970805168151855e-01,
                      le:4.1203704476356506e-01 }
                  - { var:42, quality:6.2548679113388062e-01,
                      le:5.6428575515747070e-01 }
                  - { var:21, quality:6.2548679113388062e-01,
                      le:1.9638039171695709e-02 }
            -
               depth: 1
               sample_count: 23
               value: 1.1891667937304473e+00
               norm_class_idx: 1
               Tn: 2147483647
               complexity: 1
               alpha: 0.
               node_risk: 0.
               tree_risk: 0.
               tree_error: 0.
            -
               depth: 1
               sample_count: 3
               value: -1.1891667937304473e+00
               norm_class_idx: 0
               Tn: 2147483647
               complexity: 1
               alpha: 0.
               node_risk: 0.
               tree_risk: 0.
               tree_error: 0.
      -
         best_tree_idx: -1
         nodes:
            -
               depth: 0
               sample_count: 30
               value: -8.8259556733650446e-01
               norm_class_idx: 0
               Tn: 0
               complexity: 2
               alpha: 0.
               node_risk: 0.
               tree_risk: 0.
               tree_error: 0.
               splits:
                  - { var:50, quality:6.7785710096359253e-01,
                      le:3.8749998807907104e-01 }
                  - { var:6, quality:5.3216826915740967e-01,
                      le:3.3119659870862961e-02 }
                  - { var:41, quality:5.0699174404144287e-01,
                      le:1.6071425378322601e-01 }
                  - { var:42, quality:4.9728029966354370e-01,
                      le:7.7376566827297211e-02 }
                  - { var:40, quality:4.9300989508628845e-01,
                      gt:4.2386364936828613e-01 }
                  - { var:70, quality:4.9108436703681946e-01,
                      le:7.4866309762001038e-02 }
                  - { var:33, quality:4.8655024170875549e-01,
                      le:1.5641024708747864e-01 }
                  - { var:67, quality:4.8504123091697693e-01,
                      le:2.1267360448837280e-01 }
                  - { var:16, quality:4.8206174373626709e-01,
                      le:7.9365102574229240e-03 }
                  - { var:49, quality:4.7954446077346802e-01,
                      gt:6.3383841514587402e-01 }
                  - { var:68, quality:4.7117912769317627e-01,
                      gt:2.6535087823867798e-01 }
                  - { var:7, quality:4.6880432963371277e-01,
                      le:6.9444447755813599e-02 }
                  - { var:15, quality:4.6049642562866211e-01,
                      le:1.0227274894714355e-01 }
