%YAML:1.0
my_boost_tree: !!opencv-ml-boost-tree
   boosting_type: DiscreteAdaboost
   splitting_criteria: 3
   ntrees: 30
   weight_trimming_rate: 9.4999998807907104e-01
   is_classifier: 1
   var_all: 72
   var_count: 72
   ord_var_count: 72
   cat_var_count: 0
   training_params:
      use_surrogates: 1
      max_categories: 10
      max_depth: 1
      min_sample_count: 10
      cross_validation_folds: 3
      use_1se_rule: 1
      truncate_pruned_tree: 1
      priors: !!opencv-matrix
         rows: 1
         cols: 2
         dt: d
         data: [ 1., 1. ]
   var_type: [ 0, 0, 0, 0, 0, 0, 0, 0, 0, 0, 0, 0, 0, 0, 0, 0, 0, 0, 0,
       0, 0, 0, 0, 0, 0, 0, 0, 0, 0, 0, 0, 0, 0, 0, 0, 0, 0, 0, 0, 0, 0,
       0, 0, 0, 0, 0, 0, 0, 0, 0, 0, 0, 0, 0, 0, 0, 0, 0, 0, 0, 0, 0, 0,
       0, 0, 0, 0, 0, 0, 0, 0, 0 ]
   cat_count: !!opencv-matrix
      rows: 1
      cols: 1
      dt: i
      data: [ 2 ]
   cat_map: !!opencv-matrix
      rows: 1
      cols: 2
      dt: i
      data: [ 0, 1 ]
   trees:
      -
         best_tree_idx: -1
         nodes:
            -
               depth: 0
               sample_count: 32
               value: -1.9459101490553135e+00
               norm_class_idx: 0
               Tn: 0
               complexity: 2
               alpha: 0.
               node_risk: 0.
               tree_risk: 0.
               tree_error: 0.
               splits:
                  - { var:24, quality:8.7500000000000000e-01,
                      le:1.0639879852533340e-01 }
                  - { var:22, quality:8.2031250000000000e-01,
                      gt:6.2165176868438721e-01 }
                  - { var:58, quality:7.6562500000000000e-01,
                      gt:3.4013605117797852e-01 }
                  - { var:23, quality:7.6562500000000000e-01,
                      le:2.7194941043853760e-01 }
                  - { var:60, quality:7.3828125000000000e-01,
                      le:1.1024305224418640e-01 }
                  - { var:59, quality:6.8359375000000000e-01,
                      le:9.9802345037460327e-02 }
                  - { var:69, quality:6.5625000000000000e-01,
                      le:8.4692046046257019e-02 }
                  - { var:67, quality:6.5625000000000000e-01,
                      gt:3.0082255601882935e-01 }
                  - { var:41, quality:6.2890625000000000e-01,
                      le:4.1165414452552795e-01 }
                  - { var:15, quality:6.2890625000000000e-01,
                      le:1.3360530138015747e-01 }
                  - { var:13, quality:6.2890625000000000e-01,
                      gt:5.5357146263122559e-01 }
                  - { var:68, quality:6.0156250000000000e-01,
                      le:8.1168830394744873e-02 }
                  - { var:51, quality:6.0156250000000000e-01,
                      le:7.6436787843704224e-02 }
                  - { var:50, quality:6.0156250000000000e-01,
                      le:5.5495884269475937e-02 }
                  - { var:33, quality:6.0156250000000000e-01,
                      le:2.3913043737411499e-01 }
                  - { var:16, quality:6.0156250000000000e-01,
                      le:2.2817458957433701e-02 }
                  - { var:4, quality:6.0156250000000000e-01,
                      gt:3.7853103876113892e-01 }
                  - { var:61, quality:5.7421875000000000e-01,
                      le:2.3437500000000000e-01 }
                  - { var:49, quality:5.7421875000000000e-01,
                      gt:3.8055223226547241e-01 }
                  - { var:31, quality:5.7421875000000000e-01,
                      gt:2.9858300089836121e-01 }
                  - { var:5, quality:5.7421875000000000e-01,
                      le:9.8214283585548401e-02 }
                  - { var:70, quality:5.4687500000000000e-01,
                      le:3.5628020763397217e-02 }
                  - { var:52, quality:5.4687500000000000e-01,
                      le:8.6206896230578423e-03 }
                  - { var:42, quality:5.4687500000000000e-01,
                      le:1.1282704770565033e-01 }
                  - { var:40, quality:5.4687500000000000e-01,
                      gt:4.3648099899291992e-01 }
                  - { var:39, quality:5.4687500000000000e-01,
                      le:1.7543859779834747e-02 }
                  - { var:32, quality:5.4687500000000000e-01,
                      le:5.5087719112634659e-02 }
                  - { var:25, quality:5.4687500000000000e-01,
                      le:1.3513514772057533e-02 }
                  - { var:14, quality:5.4687500000000000e-01,
                      le:3.1746033579111099e-02 }
                  - { var:6, quality:5.4687500000000000e-01,
                      le:6.1174258589744568e-02 }
                  - { var:53, quality:5.1953125000000000e-01,
                      gt:5.8946490287780762e-02 }
                  - { var:7, quality:5.1953125000000000e-01,
                      le:5.9027779847383499e-02 }
                  - { var:62, quality:4.9218750000000000e-01,
                      gt:5.4729215800762177e-02 }
                  - { var:48, quality:4.9218750000000000e-01,
                      le:3.0364375561475754e-02 }
                  - { var:43, quality:4.9218750000000000e-01,
                      le:8.5714280605316162e-02 }
                  - { var:34, quality:4.9218750000000000e-01,
                      le:4.2727276682853699e-02 }
                  - { var:12, quality:4.9218750000000000e-01,
                      le:9.6153849735856056e-03 }
            -
               depth: 1
               sample_count: 17
               value: -1.9459101490553135e+00
               norm_class_idx: 0
               Tn: 2147483647
               complexity: 1
               alpha: 0.
               node_risk: 0.
               tree_risk: 0.
               tree_error: 0.
            -
               depth: 1
               sample_count: 15
               value: 1.9459101490553135e+00
               norm_class_idx: 1
               Tn: 2147483647
               complexity: 1
               alpha: 0.
               node_risk: 0.
               tree_risk: 0.
               tree_error: 0.
      -
         best_tree_idx: -1
         nodes:
            -
               depth: 0
               sample_count: 32
               value: -1.6529230243738400e+00
               norm_class_idx: 0
               Tn: 0
               complexity: 2
               alpha: 0.
               node_risk: 0.
               tree_risk: 0.
               tree_error: 0.
               splits:
                  - { var:70, quality:8.3928573131561279e-01,
                      le:1.0101009905338287e-01 }
                  - { var:61, quality:7.3437500000000000e-01,
                      le:1.9134220480918884e-01 }
                  - { var:14, quality:6.8941330909729004e-01,
                      le:5.5416667461395264e-01 }
                  - { var:7, quality:6.8941330909729004e-01,
                      le:9.5108695328235626e-02 }
                  - { var:52, quality:6.7442601919174194e-01,
                      le:1.4682537317276001e-01 }
                  - { var:48, quality:6.7442601919174194e-01,
                      le:3.0364375561475754e-02 }
                  - { var:40, quality:6.7442601919174194e-01,
                      le:5.6349205970764160e-01 }
                  - { var:23, quality:6.7442601919174194e-01,
                      le:5.5360364913940430e-01 }
                  - { var:16, quality:6.7442601919174194e-01,
                      le:9.4414889812469482e-02 }
                  - { var:67, quality:6.5943878889083862e-01,
                      gt:2.0244565606117249e-01 }
                  - { var:58, quality:6.5943878889083862e-01,
                      gt:1.5144230425357819e-01 }
                  - { var:43, quality:6.5943878889083862e-01,
                      le:2.3437500000000000e-01 }
                  - { var:30, quality:6.5943878889083862e-01,
                      le:1.7543859779834747e-02 }
                  - { var:8, quality:6.5943878889083862e-01,
                      le:9.2719778418540955e-02 }
                  - { var:5, quality:6.5943878889083862e-01,
                      le:5.7980227470397949e-01 }
            -
               depth: 1
               sample_count: 26
               value: -1.6529230243738400e+00
               norm_class_idx: 0
               Tn: 2147483647
               complexity: 1
               alpha: 0.
               node_risk: 0.
               tree_risk: 0.
               tree_error: 0.
            -
               depth: 1
               sample_count: 6
               value: 1.6529230243738400e+00
               norm_class_idx: 1
               Tn: 2147483647
               complexity: 1
               alpha: 0.
               node_risk: 0.
               tree_risk: 0.
               tree_error: 0.
      -
         best_tree_idx: -1
         nodes:
            -
               depth: 0
               sample_count: 32
               value: 1.6438746007040022e+00
               norm_class_idx: 1
               Tn: 0
               complexity: 2
               alpha: 0.
               node_risk: 0.
               tree_risk: 0.
               tree_error: 0.
               splits:
                  - { var:24, quality:8.3806145191192627e-01,
                      le:2.3161765933036804e-01 }
                  - { var:58, quality:7.3107486963272095e-01,
                      gt:2.8753754496574402e-01 }
                  - { var:22, quality:7.2711241245269775e-01,
                      gt:2.7799230813980103e-01 }
                  - { var:68, quality:6.9145023822784424e-01,
                      le:4.3533998727798462e-01 }
                  - { var:60, quality:6.5578806400299072e-01,
                      le:3.0082255601882935e-01 }
                  - { var:14, quality:6.3597571849822998e-01,
                      le:4.5652174949645996e-01 }
                  - { var:32, quality:6.3399451971054077e-01,
                      le:5.1923084259033203e-01 }
                  - { var:41, quality:6.2706017494201660e-01,
                      gt:1.0555554926395416e-01 }
                  - { var:4, quality:6.2507891654968262e-01,
                      gt:1.9157609343528748e-01 }
                  - { var:15, quality:6.2210708856582642e-01,
                      le:1.3360530138015747e-01 }
                  - { var:31, quality:6.0922908782958984e-01,
                      gt:2.8223687410354614e-01 }
                  - { var:39, quality:6.0526657104492188e-01,
                      le:1.7543859779834747e-02 }
                  - { var:49, quality:6.0427600145339966e-01,
                      gt:3.8055223226547241e-01 }
                  - { var:13, quality:6.0427600145339966e-01,
                      gt:3.8333332538604736e-01 }
                  - { var:40, quality:5.9833228588104248e-01,
                      le:7.8736841678619385e-01 }
                  - { var:25, quality:5.9635102748870850e-01,
                      le:3.5252645611763000e-02 }
                  - { var:51, quality:5.9536045789718628e-01,
                      le:7.6436787843704224e-02 }
                  - { var:67, quality:5.8743548393249512e-01,
                      gt:1.5144230425357819e-01 }
                  - { var:59, quality:5.8743548393249512e-01,
                      le:5.4423081874847412e-01 }
                  - { var:33, quality:5.8743548393249512e-01,
                      le:3.5909092426300049e-01 }
                  - { var:12, quality:5.8743548393249512e-01,
                      le:9.6153849735856056e-03 }
                  - { var:42, quality:5.7851994037628174e-01,
                      le:3.8366013765335083e-01 }
                  - { var:23, quality:5.7752937078475952e-01,
                      gt:4.7987121343612671e-01 }
                  - { var:43, quality:5.6960439682006836e-01,
                      le:8.5714280605316162e-02 }
                  - { var:69, quality:5.4979211091995239e-01,
                      le:5.5347591638565063e-01 }
                  - { var:50, quality:5.4979211091995239e-01,
                      le:6.4854115247726440e-01 }
                  - { var:30, quality:5.4979211091995239e-01,
                      le:5.2631579339504242e-02 }
                  - { var:6, quality:5.4979211091995239e-01,
                      le:5.0833332538604736e-01 }
                  - { var:5, quality:5.4979211091995239e-01,
                      le:7.8676474094390869e-01 }
                  - { var:61, quality:5.4285776615142822e-01,
                      le:4.1739128530025482e-02 }
                  - { var:34, quality:5.4087656736373901e-01,
                      le:1.3289678096771240e-01 }
                  - { var:7, quality:5.4087656736373901e-01,
                      le:1.7363384366035461e-01 }
                  - { var:44, quality:5.3196102380752563e-01,
                      le:3.0718956142663956e-02 }
            -
               depth: 1
               sample_count: 24
               value: -1.6438746007040022e+00
               norm_class_idx: 0
               Tn: 2147483647
               complexity: 1
               alpha: 0.
               node_risk: 0.
               tree_risk: 0.
               tree_error: 0.
            -
               depth: 1
               sample_count: 8
               value: 1.6438746007040022e+00
               norm_class_idx: 1
               Tn: 2147483647
               complexity: 1
               alpha: 0.
               node_risk: 0.
               tree_risk: 0.
               tree_error: 0.
      -
         best_tree_idx: -1
         nodes:
            -
               depth: 0
               sample_count: 32
               value: 2.1647391221917305e+00
               norm_class_idx: 1
               Tn: 0
               complexity: 2
               alpha: 0.
               node_risk: 0.
               tree_risk: 0.
               tree_error: 0.
               splits:
                  - { var:67, quality:8.9703810214996338e-01,
                      le:3.2731553912162781e-01 }
                  - { var:68, quality:8.7995767593383789e-01,
                      gt:1.0101009905338287e-01 }
                  - { var:32, quality:8.5022509098052979e-01,
                      gt:5.5087719112634659e-02 }
                  - { var:31, quality:8.4453165531158447e-01,
                      le:9.4736838340759277e-01 }
                  - { var:69, quality:8.4010338783264160e-01,
                      gt:8.4692046046257019e-02 }
                  - { var:16, quality:7.7521258592605591e-01,
                      le:8.9285699650645256e-03 }
                  - { var:58, quality:7.5912958383560181e-01,
                      le:4.8272728919982910e-01 }
                  - { var:15, quality:7.5117349624633789e-01,
                      le:2.6630434393882751e-01 }
                  - { var:13, quality:7.4548000097274780e-01,
                      gt:3.0249479413032532e-01 }
                  - { var:59, quality:7.4078392982482910e-01,
                      le:5.3453689813613892e-01 }
                  - { var:22, quality:7.4078392982482910e-01,
                      le:8.5645931959152222e-01 }
                  - { var:23, quality:7.3509043455123901e-01,
                      gt:2.6315789669752121e-02 }
                  - { var:14, quality:7.3066222667694092e-01,
                      le:6.2862324714660645e-01 }
                  - { var:60, quality:7.2966480255126953e-01,
                      gt:1.1024305224418640e-01 }
                  - { var:51, quality:7.2713434696197510e-01,
                      le:3.0341053009033203e-01 }
                  - { var:70, quality:7.2496873140335083e-01,
                      le:4.5111107826232910e-01 }
                  - { var:53, quality:7.1801006793975830e-01,
                      le:5.8946490287780762e-02 }
                  - { var:62, quality:7.1231657266616821e-01,
                      le:1.4807692170143127e-01 }
                  - { var:6, quality:7.1131914854049683e-01,
                      le:2.8884536027908325e-01 }
                  - { var:49, quality:7.1005398035049438e-01,
                      gt:2.9107829928398132e-01 }
                  - { var:71, quality:7.0662313699722290e-01,
                      le:5.5753968656063080e-02 }
                  - { var:44, quality:7.0662313699722290e-01,
                      le:1.1960785090923309e-01 }
                  - { var:35, quality:7.0662313699722290e-01,
                      le:7.3529398068785667e-03 }
                  - { var:21, quality:7.0662313699722290e-01,
                      le:1.7543859779834747e-02 }
                  - { var:7, quality:7.0562571287155151e-01,
                      le:4.9011856317520142e-02 }
                  - { var:43, quality:7.0092958211898804e-01,
                      le:3.3611109852790833e-01 }
                  - { var:40, quality:7.0092958211898804e-01,
                      gt:3.0330879613757133e-02 }
                  - { var:34, quality:7.0092958211898804e-01,
                      le:2.3516950011253357e-01 }
                  - { var:8, quality:7.0092958211898804e-01,
                      le:2.2080418467521667e-01 }
            -
               depth: 1
               sample_count: 17
               value: 2.1647391221917305e+00
               norm_class_idx: 1
               Tn: 2147483647
               complexity: 1
               alpha: 0.
               node_risk: 0.
               tree_risk: 0.
               tree_error: 0.
            -
               depth: 1
               sample_count: 15
               value: -2.1647391221917305e+00
               norm_class_idx: 0
               Tn: 2147483647
               complexity: 1
               alpha: 0.
               node_risk: 0.
               tree_risk: 0.
               tree_error: 0.
      -
         best_tree_idx: -1
         nodes:
            -
               depth: 0
               sample_count: 20
               value: 2.0451010177757780e+00
               norm_class_idx: 1
               Tn: 0
               complexity: 2
               alpha: 0.
               node_risk: 0.
               tree_risk: 0.
               tree_error: 0.
               splits:
                  - { var:42, quality:8.7130069732666016e-01,
                      le:1.8438914418220520e-01 }
                  - { var:33, quality:7.7014189958572388e-01,
                      le:3.1698566675186157e-01 }
                  - { var:40, quality:7.4790662527084351e-01,
                      gt:2.5749999284744263e-01 }
                  - { var:31, quality:7.3652023077011108e-01,
                      gt:2.0279720425605774e-01 }
                  - { var:68, quality:7.3109585046768188e-01,
                      le:3.7049549818038940e-01 }
                  - { var:4, quality:7.2567141056060791e-01,
                      gt:2.8753754496574402e-01 }
                  - { var:32, quality:7.1413362026214600e-01,
                      le:4.6428570151329041e-01 }
                  - { var:41, quality:7.0847445726394653e-01,
                      le:5.5500000715255737e-01 }
                  - { var:5, quality:6.9753789901733398e-01,
                      le:4.6794870495796204e-01 }
                  - { var:67, quality:6.6957986354827881e-01,
                      gt:2.2966340184211731e-01 }
                  - { var:58, quality:6.6505956649780273e-01,
                      le:3.1531530618667603e-01 }
                  - { var:14, quality:6.3828623294830322e-01,
                      gt:1.0317458212375641e-01 }
                  - { var:23, quality:6.3292109966278076e-01,
                      le:4.3746089935302734e-01 }
                  - { var:60, quality:6.2571507692337036e-01,
                      gt:1.7083334922790527e-01 }
                  - { var:50, quality:6.2147545814514160e-01,
                      gt:2.0408164709806442e-02 }
                  - { var:49, quality:6.2147545814514160e-01,
                      le:9.4736838340759277e-01 }
                  - { var:13, quality:6.2147545814514160e-01,
                      le:8.3333337306976318e-01 }
                  - { var:70, quality:6.0701674222946167e-01,
                      gt:4.8766158521175385e-02 }
                  - { var:59, quality:5.9578180313110352e-01,
                      le:4.7727274894714355e-01 }
                  - { var:22, quality:5.8116137981414795e-01,
                      le:3.2882881164550781e-01 }
                  - { var:51, quality:5.7969564199447632e-01,
                      le:3.1698566675186157e-01 }
                  - { var:7, quality:5.7411980628967285e-01,
                      le:3.5628020763397217e-02 }
                  - { var:6, quality:5.7411980628967285e-01,
                      le:3.0082255601882935e-01 }
                  - { var:24, quality:5.7345885038375854e-01,
                      le:1.5685325860977173e-01 }
                  - { var:15, quality:5.5149841308593750e-01,
                      le:3.3237490057945251e-01 }
                  - { var:69, quality:5.5001473426818848e-01,
                      le:2.9923275113105774e-01 }
                  - { var:12, quality:5.4019975662231445e-01,
                      le:1.9791665673255920e-01 }
                  - { var:52, quality:5.2947831153869629e-01,
                      le:2.2906403988599777e-02 }
                  - { var:44, quality:5.2896481752395630e-01,
                      le:2.6960786432027817e-02 }
                  - { var:25, quality:5.2896481752395630e-01,
                      le:5.8324493467807770e-02 }
                  - { var:16, quality:5.1802825927734375e-01,
                      le:5.8941923081874847e-02 }
            -
               depth: 1
               sample_count: 12
               value: 2.0451010177757780e+00
               norm_class_idx: 1
               Tn: 2147483647
               complexity: 1
               alpha: 0.
               node_risk: 0.
               tree_risk: 0.
               tree_error: 0.
            -
               depth: 1
               sample_count: 8
               value: -2.0451010177757780e+00
               norm_class_idx: 0
               Tn: 2147483647
               complexity: 1
               alpha: 0.
               node_risk: 0.
               tree_risk: 0.
               tree_error: 0.
      -
         best_tree_idx: -1
         nodes:
            -
               depth: 0
               sample_count: 25
               value: -1.8544786704569256e+00
               norm_class_idx: 0
               Tn: 0
               complexity: 2
               alpha: 0.
               node_risk: 0.
               tree_risk: 0.
               tree_error: 0.
               splits:
                  - { var:22, quality:8.6065667867660522e-01,
                      le:3.2882881164550781e-01 }
                  - { var:24, quality:7.9978007078170776e-01,
                      gt:1.9675925374031067e-01 }
                  - { var:15, quality:7.7803015708923340e-01,
                      gt:1.8543955683708191e-01 }
                  - { var:51, quality:7.6868695020675659e-01,
                      gt:2.4480250477790833e-01 }
                  - { var:60, quality:7.5738871097564697e-01,
                      gt:2.9618966579437256e-01 }
                  - { var:49, quality:7.5619852542877197e-01,
                      le:3.8055223226547241e-01 }
                  - { var:58, quality:7.2764301300048828e-01,
                      le:3.1531530618667603e-01 }
                  - { var:13, quality:6.9331938028335571e-01,
                      le:3.9308175444602966e-01 }
                  - { var:40, quality:6.7675292491912842e-01,
                      le:4.3648099899291992e-01 }
                  - { var:6, quality:6.6835337877273560e-01,
                      gt:2.9618966579437256e-01 }
                  - { var:42, quality:6.6740977764129639e-01,
                      gt:1.2225504964590073e-01 }
                  - { var:33, quality:6.5289509296417236e-01,
                      gt:3.5909092426300049e-01 }
                  - { var:32, quality:6.4158803224563599e-01,
                      le:4.0491557121276855e-01 }
                  - { var:16, quality:6.3048654794692993e-01,
                      gt:3.0667699873447418e-02 }
                  - { var:50, quality:6.2850618362426758e-01,
                      gt:7.9231709241867065e-02 }
                  - { var:59, quality:6.2730592489242554e-01,
                      gt:5.3453689813613892e-01 }
                  - { var:23, quality:6.0710012912750244e-01,
                      gt:3.1989020109176636e-01 }
                  - { var:25, quality:6.0560339689254761e-01,
                      gt:2.1739130839705467e-02 }
                  - { var:4, quality:5.9935915470123291e-01,
                      le:1.9693094491958618e-01 }
                  - { var:34, quality:5.9626019001007080e-01,
                      gt:1.3289678096771240e-01 }
                  - { var:31, quality:5.9626019001007080e-01,
                      le:2.3180454969406128e-02 }
                  - { var:7, quality:5.9626019001007080e-01,
                      gt:1.7363384366035461e-01 }
                  - { var:5, quality:5.7246470451354980e-01,
                      le:5.2777779102325439e-01 }
                  - { var:67, quality:5.7129985094070435e-01,
                      gt:2.8174602985382080e-01 }
                  - { var:41, quality:5.6654673814773560e-01,
                      gt:4.8913043737411499e-01 }
                  - { var:61, quality:5.5855464935302734e-01,
                      le:8.7719298899173737e-03 }
                  - { var:68, quality:5.5109173059463501e-01,
                      gt:4.8958334326744080e-01 }
                  - { var:43, quality:5.4799276590347290e-01,
                      gt:7.1739129722118378e-02 }
                  - { var:69, quality:5.4604446887969971e-01,
                      gt:1.0079049319028854e-01 }
                  - { var:52, quality:5.4538083076477051e-01,
                      gt:2.5396825745701790e-02 }
                  - { var:14, quality:5.4275965690612793e-01,
                      gt:4.2989128828048706e-01 }
                  - { var:39, quality:5.4272431135177612e-01,
                      gt:4.6296294778585434e-02 }
                  - { var:12, quality:5.2713686227798462e-01,
                      gt:9.6153849735856056e-03 }
            -
               depth: 1
               sample_count: 10
               value: 1.8544786704569256e+00
               norm_class_idx: 1
               Tn: 2147483647
               complexity: 1
               alpha: 0.
               node_risk: 0.
               tree_risk: 0.
               tree_error: 0.
            -
               depth: 1
               sample_count: 15
               value: -1.8544786704569256e+00
               norm_class_idx: 0
               Tn: 2147483647
               complexity: 1
               alpha: 0.
               node_risk: 0.
               tree_risk: 0.
               tree_error: 0.
      -
         best_tree_idx: -1
         nodes:
            -
               depth: 0
               sample_count: 24
               value: 1.3231288752642818e+00
               norm_class_idx: 1
               Tn: 0
               complexity: 2
               alpha: 0.
               node_risk: 0.
               tree_risk: 0.
               tree_error: 0.
               splits:
                  - { var:32, quality:7.7397876977920532e-01,
                      le:4.0491557121276855e-01 }
                  - { var:5, quality:6.8113148212432861e-01,
                      le:5.2777779102325439e-01 }
                  - { var:68, quality:6.6321486234664917e-01,
                      le:6.8181818723678589e-01 }
                  - { var:52, quality:6.6321486234664917e-01,
                      le:4.5141971111297607e-01 }
                  - { var:41, quality:6.5728455781936646e-01,
                      le:5.5500000715255737e-01 }
                  - { var:70, quality:6.3805693387985229e-01,
                      le:4.5111107826232910e-01 }
                  - { var:23, quality:6.3805693387985229e-01,
                      le:5.5360364913940430e-01 }
                  - { var:14, quality:6.3805693387985229e-01,
                      le:6.6666662693023682e-01 }
                  - { var:50, quality:6.3721686601638794e-01,
                      gt:5.5495884269475937e-02 }
                  - { var:31, quality:6.3453435897827148e-01,
                      gt:6.1904764175415039e-01 }
                  - { var:43, quality:6.3238465785980225e-01,
                      le:1.9761028885841370e-01 }
                  - { var:34, quality:6.1964082717895508e-01,
                      le:4.2727276682853699e-02 }
                  - { var:61, quality:6.0836797952651978e-01,
                      le:1.1457589268684387e-01 }
                  - { var:58, quality:6.0384726524353027e-01,
                      le:5.4616481065750122e-01 }
                  - { var:4, quality:6.0374861955642700e-01,
                      gt:2.8753754496574402e-01 }
            -
               depth: 1
               sample_count: 19
               value: 1.3231288752642818e+00
               norm_class_idx: 1
               Tn: 2147483647
               complexity: 1
               alpha: 0.
               node_risk: 0.
               tree_risk: 0.
               tree_error: 0.
            -
               depth: 1
               sample_count: 5
               value: -1.3231288752642818e+00
               norm_class_idx: 0
               Tn: 2147483647
               complexity: 1
               alpha: 0.
               node_risk: 0.
               tree_risk: 0.
               tree_error: 0.
      -
         best_tree_idx: -1
         nodes:
            -
               depth: 0
               sample_count: 26
               value: -1.6301029884754321e+00
               norm_class_idx: 0
               Tn: 0
               complexity: 2
               alpha: 0.
               node_risk: 0.
               tree_risk: 0.
               tree_error: 0.
               splits:
                  - { var:67, quality:8.2622867822647095e-01,
                      le:3.2731553912162781e-01 }
                  - { var:68, quality:8.1139481067657471e-01,
                      gt:1.0101009905338287e-01 }
                  - { var:32, quality:7.8643333911895752e-01,
                      gt:5.5087719112634659e-02 }
                  - { var:31, quality:7.6848423480987549e-01,
                      le:9.4736838340759277e-01 }
                  - { var:69, quality:6.8074762821197510e-01,
                      gt:8.4692046046257019e-02 }
                  - { var:61, quality:6.5362846851348877e-01,
                      gt:2.6262626051902771e-02 }
                  - { var:16, quality:6.4034640789031982e-01,
                      le:8.9285699650645256e-03 }
                  - { var:23, quality:6.3779067993164062e-01,
                      le:4.9468085169792175e-01 }
                  - { var:13, quality:6.1700105667114258e-01,
                      gt:3.0249479413032532e-01 }
                  - { var:59, quality:6.1357533931732178e-01,
                      gt:2.8907105326652527e-01 }
                  - { var:15, quality:6.1226981878280640e-01,
                      le:2.3913043737411499e-01 }
                  - { var:33, quality:6.0059416294097900e-01,
                      gt:1.5353775024414062e-01 }
                  - { var:70, quality:5.9866935014724731e-01,
                      gt:1.0101009905338287e-01 }
                  - { var:49, quality:5.9203958511352539e-01,
                      gt:2.9338550567626953e-01 }
                  - { var:41, quality:5.7629179954528809e-01,
                      le:4.5971870422363281e-01 }
                  - { var:58, quality:5.7558619976043701e-01,
                      le:4.8272728919982910e-01 }
                  - { var:22, quality:5.7137346267700195e-01,
                      gt:3.1600829958915710e-01 }
                  - { var:51, quality:5.6707817316055298e-01,
                      le:3.0341053009033203e-01 }
                  - { var:40, quality:5.6150805950164795e-01,
                      le:3.0384615063667297e-01 }
                  - { var:6, quality:5.5045205354690552e-01,
                      le:1.5277779102325439e-01 }
                  - { var:52, quality:5.4311317205429077e-01,
                      le:3.4285716712474823e-02 }
                  - { var:5, quality:5.3922498226165771e-01,
                      gt:5.2777779102325439e-01 }
                  - { var:60, quality:5.3491258621215820e-01,
                      gt:1.3044509291648865e-01 }
                  - { var:43, quality:5.3120642900466919e-01,
                      gt:7.0000000298023224e-02 }
                  - { var:4, quality:5.3000867366790771e-01,
                      gt:3.7853103876113892e-01 }
                  - { var:42, quality:5.2167659997940063e-01,
                      le:1.8438914418220520e-01 }
                  - { var:24, quality:5.1882833242416382e-01,
                      le:1.5685325860977173e-01 }
                  - { var:7, quality:5.0837522745132446e-01,
                      le:4.1161615401506424e-02 }
                  - { var:14, quality:5.0185793638229370e-01,
                      gt:4.5652174949645996e-01 }
                  - { var:50, quality:4.9874350428581238e-01,
                      le:4.6875000000000000e-01 }
                  - { var:34, quality:4.8186910152435303e-01,
                      gt:4.2727276682853699e-02 }
                  - { var:71, quality:4.6087941527366638e-01,
                      le:5.5753968656063080e-02 }
                  - { var:62, quality:4.6087941527366638e-01,
                      le:1.4807692170143127e-01 }
                  - { var:53, quality:4.6087941527366638e-01,
                      le:1.1086956411600113e-01 }
                  - { var:44, quality:4.4293037056922913e-01,
                      le:1.1960785090923309e-01 }
                  - { var:30, quality:4.3963989615440369e-01,
                      gt:1.7543859779834747e-02 }
                  - { var:57, quality:4.3942663073539734e-01,
                      gt:7.4045017361640930e-02 }
                  - { var:35, quality:4.2498126626014709e-01,
                      le:1.0000000149011612e-01 }
                  - { var:17, quality:4.2498126626014709e-01,
                      le:4.4642858207225800e-02 }
                  - { var:8, quality:4.2498126626014709e-01,
                      le:2.2080418467521667e-01 }
                  - { var:66, quality:4.2186611890792847e-01,
                      le:6.1224501579999924e-02 }
                  - { var:21, quality:4.2186611890792847e-01,
                      le:1.3541665673255920e-01 }
            -
               depth: 1
               sample_count: 13
               value: 1.6301029884754321e+00
               norm_class_idx: 1
               Tn: 2147483647
               complexity: 1
               alpha: 0.
               node_risk: 0.
               tree_risk: 0.
               tree_error: 0.
            -
               depth: 1
               sample_count: 13
               value: -1.6301029884754321e+00
               norm_class_idx: 0
               Tn: 2147483647
               complexity: 1
               alpha: 0.
               node_risk: 0.
               tree_risk: 0.
               tree_error: 0.
      -
         best_tree_idx: -1
         nodes:
            -
               depth: 0
               sample_count: 23
               value: -1.6851570599328511e+00
               norm_class_idx: 0
               Tn: 0
               complexity: 2
               alpha: 0.
               node_risk: 0.
               tree_risk: 0.
               tree_error: 0.
               splits:
                  - { var:24, quality:8.0141174793243408e-01,
                      le:2.3237180709838867e-01 }
                  - { var:59, quality:7.7149891853332520e-01,
                      le:5.4423081874847412e-01 }
                  - { var:15, quality:7.2423791885375977e-01,
                      le:3.2287645339965820e-01 }
                  - { var:22, quality:7.1536570787429810e-01,
                      gt:2.2822299599647522e-01 }
                  - { var:60, quality:7.0040935277938843e-01,
                      le:4.7611659765243530e-01 }
                  - { var:51, quality:7.0040935277938843e-01,
                      le:4.6606335043907166e-01 }
                  - { var:34, quality:7.0040935277938843e-01,
                      le:1.3289678096771240e-01 }
                  - { var:33, quality:7.0040935277938843e-01,
                      le:6.3933199644088745e-01 }
                  - { var:31, quality:7.0040935277938843e-01,
                      gt:2.3180454969406128e-02 }
                  - { var:25, quality:7.0040935277938843e-01,
                      le:5.0098881125450134e-02 }
                  - { var:13, quality:7.0040935277938843e-01,
                      gt:1.0962301492691040e-01 }
                  - { var:6, quality:7.0040935277938843e-01,
                      le:5.0833332538604736e-01 }
                  - { var:16, quality:6.9703215360641479e-01,
                      le:4.8766158521175385e-02 }
                  - { var:7, quality:6.8816000223159790e-01,
                      le:1.7363384366035461e-01 }
            -
               depth: 1
               sample_count: 20
               value: -1.6851570599328511e+00
               norm_class_idx: 0
               Tn: 2147483647
               complexity: 1
               alpha: 0.
               node_risk: 0.
               tree_risk: 0.
               tree_error: 0.
            -
               depth: 1
               sample_count: 3
               value: 1.6851570599328511e+00
               norm_class_idx: 1
               Tn: 2147483647
               complexity: 1
               alpha: 0.
               node_risk: 0.
               tree_risk: 0.
               tree_error: 0.
      -
         best_tree_idx: -1
         nodes:
            -
               depth: 0
               sample_count: 24
               value: 1.7664639019480575e+00
               norm_class_idx: 1
               Tn: 0
               complexity: 2
               alpha: 0.
               node_risk: 0.
               tree_risk: 0.
               tree_error: 0.
               splits:
                  - { var:70, quality:8.4562432765960693e-01,
                      le:1.0101009905338287e-01 }
                  - { var:40, quality:7.5985383987426758e-01,
                      le:5.6349205970764160e-01 }
                  - { var:61, quality:7.4621045589447021e-01,
                      le:2.6262626051902771e-02 }
                  - { var:42, quality:7.1721607446670532e-01,
                      gt:1.9999999552965164e-02 }
                  - { var:4, quality:6.9508832693099976e-01,
                      le:4.4797551631927490e-01 }
                  - { var:58, quality:6.9324308633804321e-01,
                      le:3.5528761148452759e-01 }
                  - { var:5, quality:6.8742430210113525e-01,
                      gt:3.8325825333595276e-01 }
                  - { var:69, quality:6.8107336759567261e-01,
                      le:3.2882881164550781e-01 }
                  - { var:22, quality:6.5858817100524902e-01,
                      le:3.8333332538604736e-01 }
                  - { var:50, quality:6.5853363275527954e-01,
                      le:4.3669870495796204e-01 }
                  - { var:6, quality:6.5789037942886353e-01,
                      gt:1.5277779102325439e-01 }
                  - { var:60, quality:6.5569794178009033e-01,
                      gt:1.5909095108509064e-01 }
                  - { var:49, quality:6.5056937932968140e-01,
                      le:4.6970665454864502e-01 }
                  - { var:41, quality:6.5043520927429199e-01,
                      gt:4.5971870422363281e-01 }
                  - { var:32, quality:6.4754354953765869e-01,
                      gt:2.5238096714019775e-01 }
                  - { var:67, quality:6.4265388250350952e-01,
                      gt:2.7222225069999695e-01 }
                  - { var:23, quality:6.4043688774108887e-01,
                      gt:4.2948716878890991e-01 }
                  - { var:68, quality:6.2560677528381348e-01,
                      gt:3.1538796424865723e-01 }
                  - { var:51, quality:6.2353330850601196e-01,
                      gt:3.5624999552965164e-02 }
                  - { var:24, quality:6.1850005388259888e-01,
                      gt:1.3487525284290314e-01 }
                  - { var:31, quality:6.1653107404708862e-01,
                      le:6.1904764175415039e-01 }
                  - { var:15, quality:6.1302435398101807e-01,
                      gt:1.1812110245227814e-01 }
                  - { var:59, quality:6.0745769739151001e-01,
                      gt:4.7727274894714355e-01 }
                  - { var:13, quality:6.0140556097030640e-01,
                      le:4.9427226185798645e-01 }
                  - { var:14, quality:5.8612489700317383e-01,
                      le:3.2882881164550781e-01 }
                  - { var:33, quality:5.6841224431991577e-01,
                      gt:3.1306713819503784e-01 }
                  - { var:62, quality:4.8973906040191650e-01,
                      le:7.4626849964261055e-03 }
                  - { var:52, quality:4.8724356293678284e-01,
                      gt:4.5141971111297607e-01 }
                  - { var:48, quality:4.7575503587722778e-01,
                      le:3.0364375561475754e-02 }
                  - { var:43, quality:4.7575503587722778e-01,
                      le:2.3437500000000000e-01 }
                  - { var:30, quality:4.7575503587722778e-01,
                      le:1.7543859779834747e-02 }
                  - { var:16, quality:4.7575503587722778e-01,
                      le:9.4414889812469482e-02 }
                  - { var:7, quality:4.7575503587722778e-01,
                      le:1.1321719735860825e-01 }
                  - { var:8, quality:4.6922901272773743e-01,
                      le:9.2719778418540955e-02 }
                  - { var:25, quality:4.6667939424514771e-01,
                      le:1.3513514772057533e-02 }
                  - { var:71, quality:4.5617690682411194e-01,
                      le:1.1111110448837280e-02 }
                  - { var:53, quality:4.5617690682411194e-01,
                      le:1.0869565419852734e-02 }
                  - { var:44, quality:4.5362731814384460e-01,
                      le:7.3529398068785667e-03 }
            -
               depth: 1
               sample_count: 19
               value: -1.7664639019480575e+00
               norm_class_idx: 0
               Tn: 2147483647
               complexity: 1
               alpha: 0.
               node_risk: 0.
               tree_risk: 0.
               tree_error: 0.
            -
               depth: 1
               sample_count: 5
               value: 1.7664639019480575e+00
               norm_class_idx: 1
               Tn: 2147483647
               complexity: 1
               alpha: 0.
               node_risk: 0.
               tree_risk: 0.
               tree_error: 0.
      -
         best_tree_idx: -1
         nodes:
            -
               depth: 0
               sample_count: 19
               value: 1.7902790570760563e+00
               norm_class_idx: 1
               Tn: 0
               complexity: 2
               alpha: 0.
               node_risk: 0.
               tree_risk: 0.
               tree_error: 0.
               splits:
                  - { var:5, quality:8.5332071781158447e-01,
                      le:4.6794870495796204e-01 }
                  - { var:68, quality:7.4153196811676025e-01,
                      le:6.8181818723678589e-01 }
                  - { var:52, quality:7.4153196811676025e-01,
                      le:1.4682537317276001e-01 }
                  - { var:41, quality:7.3713088035583496e-01,
                      le:5.5500000715255737e-01 }
                  - { var:60, quality:7.2968256473541260e-01,
                      gt:8.4687501192092896e-02 }
                  - { var:32, quality:7.2501689195632935e-01,
                      le:4.2183285951614380e-01 }
                  - { var:67, quality:7.2004330158233643e-01,
                      gt:2.4596774578094482e-01 }
                  - { var:61, quality:7.1910005807876587e-01,
                      le:3.6686563491821289e-01 }
                  - { var:57, quality:7.1756643056869507e-01,
                      le:6.1224501579999924e-02 }
                  - { var:49, quality:7.1756643056869507e-01,
                      gt:9.2809334397315979e-02 }
                  - { var:42, quality:7.1756643056869507e-01,
                      le:5.7812500000000000e-01 }
                  - { var:40, quality:7.1756643056869507e-01,
                      gt:4.5036762952804565e-02 }
                  - { var:12, quality:7.1756643056869507e-01,
                      le:1.9791665673255920e-01 }
                  - { var:4, quality:7.1756643056869507e-01,
                      gt:6.0200668871402740e-02 }
                  - { var:43, quality:7.1735715866088867e-01,
                      le:1.9761028885841370e-01 }
                  - { var:31, quality:7.1220040321350098e-01,
                      gt:2.0279720425605774e-01 }
                  - { var:59, quality:7.0704132318496704e-01,
                      gt:8.2499995827674866e-02 }
                  - { var:34, quality:7.0511317253112793e-01,
                      le:2.2727275267243385e-02 }
                  - { var:69, quality:7.0201247930526733e-01,
                      le:4.5643940567970276e-01 }
                  - { var:33, quality:6.9573670625686646e-01,
                      le:3.1698566675186157e-01 }
            -
               depth: 1
               sample_count: 14
               value: 1.7902790570760563e+00
               norm_class_idx: 1
               Tn: 2147483647
               complexity: 1
               alpha: 0.
               node_risk: 0.
               tree_risk: 0.
               tree_error: 0.
            -
               depth: 1
               sample_count: 5
               value: -1.7902790570760563e+00
               norm_class_idx: 0
               Tn: 2147483647
               complexity: 1
               alpha: 0.
               node_risk: 0.
               tree_risk: 0.
               tree_error: 0.
      -
         best_tree_idx: -1
         nodes:
            -
               depth: 0
               sample_count: 24
               value: 1.5167957456068233e+00
               norm_class_idx: 1
               Tn: 0
               complexity: 2
               alpha: 0.
               node_risk: 0.
               tree_risk: 0.
               tree_error: 0.
               splits:
                  - { var:58, quality:7.8620111942291260e-01,
                      le:4.8272728919982910e-01 }
                  - { var:40, quality:7.2086822986602783e-01,
                      le:6.6091954708099365e-01 }
                  - { var:60, quality:7.0776504278182983e-01,
                      gt:1.1024305224418640e-01 }
                  - { var:59, quality:7.0776504278182983e-01,
                      gt:1.2980771064758301e-01 }
                  - { var:24, quality:6.9455677270889282e-01,
                      gt:4.6875000000000000e-02 }
                  - { var:41, quality:6.9105738401412964e-01,
                      gt:2.7021038532257080e-01 }
                  - { var:23, quality:6.8231844902038574e-01,
                      gt:2.6315789669752121e-02 }
                  - { var:22, quality:6.8231844902038574e-01,
                      le:9.0909087657928467e-01 }
                  - { var:49, quality:6.4851790666580200e-01,
                      le:5.4256862401962280e-01 }
                  - { var:70, quality:6.4492571353912354e-01,
                      le:4.5111107826232910e-01 }
                  - { var:14, quality:6.4492571353912354e-01,
                      le:6.6666662693023682e-01 }
                  - { var:32, quality:6.3595378398895264e-01,
                      le:4.0491557121276855e-01 }
                  - { var:68, quality:6.3499063253402710e-01,
                      gt:8.1168830394744873e-02 }
                  - { var:67, quality:6.3499063253402710e-01,
                      le:3.9181819558143616e-01 }
                  - { var:51, quality:6.2298035621643066e-01,
                      gt:2.4715909734368324e-02 }
                  - { var:4, quality:6.2061780691146851e-01,
                      gt:2.3975411057472229e-01 }
                  - { var:7, quality:6.1449426412582397e-01,
                      le:1.1321719735860825e-01 }
                  - { var:69, quality:6.0975039005279541e-01,
                      gt:8.4692046046257019e-02 }
                  - { var:71, quality:5.7934945821762085e-01,
                      le:5.5753968656063080e-02 }
                  - { var:62, quality:5.7934945821762085e-01,
                      le:1.4807692170143127e-01 }
                  - { var:53, quality:5.7934945821762085e-01,
                      le:1.1086956411600113e-01 }
                  - { var:50, quality:5.6672912836074829e-01,
                      le:5.1829266548156738e-01 }
                  - { var:44, quality:5.6658065319061279e-01,
                      le:1.1960785090923309e-01 }
                  - { var:31, quality:5.6390583515167236e-01,
                      gt:5.0227713584899902e-01 }
                  - { var:42, quality:5.6355655193328857e-01,
                      gt:1.0230654478073120e-01 }
                  - { var:13, quality:5.5772733688354492e-01,
                      le:7.3511904478073120e-01 }
                  - { var:35, quality:5.5381178855895996e-01,
                      le:1.0000000149011612e-01 }
                  - { var:17, quality:5.5381178855895996e-01,
                      le:4.4642858207225800e-02 }
                  - { var:8, quality:5.5381178855895996e-01,
                      le:2.2080418467521667e-01 }
                  - { var:5, quality:5.5335438251495361e-01,
                      gt:3.4722220897674561e-01 }
                  - { var:33, quality:5.5081379413604736e-01,
                      le:1.1365680396556854e-01 }
            -
               depth: 1
               sample_count: 13
               value: 1.5167957456068233e+00
               norm_class_idx: 1
               Tn: 2147483647
               complexity: 1
               alpha: 0.
               node_risk: 0.
               tree_risk: 0.
               tree_error: 0.
            -
               depth: 1
               sample_count: 11
               value: -1.5167957456068233e+00
               norm_class_idx: 0
               Tn: 2147483647
               complexity: 1
               alpha: 0.
               node_risk: 0.
               tree_risk: 0.
               tree_error: 0.
      -
         best_tree_idx: -1
         nodes:
            -
               depth: 0
               sample_count: 25
               value: -1.4477219369725620e+00
               norm_class_idx: 0
               Tn: 0
               complexity: 2
               alpha: 0.
               node_risk: 0.
               tree_risk: 0.
               tree_error: 0.
               splits:
                  - { var:24, quality:7.8014862537384033e-01,
                      le:2.3161765933036804e-01 }
                  - { var:59, quality:7.5965040922164917e-01,
                      le:5.4423081874847412e-01 }
                  - { var:22, quality:7.1324074268341064e-01,
                      gt:2.2822299599647522e-01 }
                  - { var:60, quality:7.0299160480499268e-01,
                      le:4.7611659765243530e-01 }
                  - { var:51, quality:7.0299160480499268e-01,
                      le:4.6606335043907166e-01 }
                  - { var:34, quality:7.0299160480499268e-01,
                      le:1.3289678096771240e-01 }
                  - { var:33, quality:7.0299160480499268e-01,
                      le:6.3933199644088745e-01 }
                  - { var:31, quality:7.0299160480499268e-01,
                      gt:2.3180454969406128e-02 }
                  - { var:25, quality:7.0299160480499268e-01,
                      le:5.0098881125450134e-02 }
                  - { var:15, quality:7.0299160480499268e-01,
                      le:6.2259370088577271e-01 }
                  - { var:13, quality:7.0299160480499268e-01,
                      gt:1.0962301492691040e-01 }
                  - { var:6, quality:7.0299160480499268e-01,
                      le:5.0833332538604736e-01 }
                  - { var:58, quality:7.0068609714508057e-01,
                      gt:8.0016583204269409e-02 }
                  - { var:50, quality:7.0068609714508057e-01,
                      le:6.4854115247726440e-01 }
                  - { var:39, quality:7.0068609714508057e-01,
                      le:4.6296294778585434e-02 }
                  - { var:30, quality:7.0068609714508057e-01,
                      le:5.2631579339504242e-02 }
                  - { var:5, quality:7.0068609714508057e-01,
                      le:7.8676474094390869e-01 }
                  - { var:7, quality:6.9525301456451416e-01,
                      le:1.7363384366035461e-01 }
            -
               depth: 1
               sample_count: 21
               value: -1.4477219369725620e+00
               norm_class_idx: 0
               Tn: 2147483647
               complexity: 1
               alpha: 0.
               node_risk: 0.
               tree_risk: 0.
               tree_error: 0.
            -
               depth: 1
               sample_count: 4
               value: 1.4477219369725620e+00
               norm_class_idx: 1
               Tn: 2147483647
               complexity: 1
               alpha: 0.
               node_risk: 0.
               tree_risk: 0.
               tree_error: 0.
      -
         best_tree_idx: -1
         nodes:
            -
               depth: 0
               sample_count: 25
               value: 1.6468009959376921e+00
               norm_class_idx: 1
               Tn: 0
               complexity: 2
               alpha: 0.
               node_risk: 0.
               tree_risk: 0.
               tree_error: 0.
               splits:
                  - { var:42, quality:8.2024109363555908e-01,
                      le:1.8438914418220520e-01 }
                  - { var:22, quality:7.4467688798904419e-01,
                      gt:2.9967948794364929e-01 }
                  - { var:24, quality:7.4125385284423828e-01,
                      le:1.5685325860977173e-01 }
                  - { var:49, quality:7.4049663543701172e-01,
                      gt:2.7935224771499634e-01 }
                  - { var:13, quality:7.3817354440689087e-01,
                      gt:2.3958334326744080e-01 }
                  - { var:69, quality:7.3140263557434082e-01,
                      le:4.0505054593086243e-01 }
                  - { var:51, quality:7.2174984216690063e-01,
                      le:1.4092139899730682e-01 }
                  - { var:15, quality:7.1678006649017334e-01,
                      le:3.3237490057945251e-01 }
                  - { var:6, quality:7.1678006649017334e-01,
                      le:4.5192307233810425e-01 }
                  - { var:60, quality:7.0223230123519897e-01,
                      le:3.2256168127059937e-01 }
                  - { var:16, quality:6.8907600641250610e-01,
                      le:5.8941923081874847e-02 }
                  - { var:7, quality:6.6624248027801514e-01,
                      le:3.5628020763397217e-02 }
                  - { var:40, quality:6.6024106740951538e-01,
                      gt:4.3648099899291992e-01 }
                  - { var:31, quality:6.5976637601852417e-01,
                      le:9.4736838340759277e-01 }
                  - { var:33, quality:6.5635669231414795e-01,
                      le:3.1698566675186157e-01 }
                  - { var:32, quality:6.4037442207336426e-01,
                      gt:1.1981295049190521e-01 }
                  - { var:41, quality:6.3958835601806641e-01,
                      le:4.5971870422363281e-01 }
                  - { var:23, quality:6.3717931509017944e-01,
                      le:4.3746089935302734e-01 }
                  - { var:34, quality:6.2857782840728760e-01,
                      le:4.2727276682853699e-02 }
                  - { var:67, quality:6.2293308973312378e-01,
                      le:3.0082255601882935e-01 }
                  - { var:59, quality:6.2157565355300903e-01,
                      le:4.7727274894714355e-01 }
                  - { var:68, quality:6.1551153659820557e-01,
                      gt:1.0101009905338287e-01 }
                  - { var:50, quality:6.1354255676269531e-01,
                      le:4.6875000000000000e-01 }
                  - { var:12, quality:6.0368001461029053e-01,
                      le:1.4503204822540283e-01 }
                  - { var:4, quality:6.0368001461029053e-01,
                      gt:7.9431429505348206e-02 }
                  - { var:70, quality:5.9387373924255371e-01,
                      gt:1.0101009905338287e-01 }
                  - { var:25, quality:5.8905744552612305e-01,
                      le:5.0098881125450134e-02 }
            -
               depth: 1
               sample_count: 17
               value: 1.6468009959376921e+00
               norm_class_idx: 1
               Tn: 2147483647
               complexity: 1
               alpha: 0.
               node_risk: 0.
               tree_risk: 0.
               tree_error: 0.
            -
               depth: 1
               sample_count: 8
               value: -1.6468009959376921e+00
               norm_class_idx: 0
               Tn: 2147483647
               complexity: 1
               alpha: 0.
               node_risk: 0.
               tree_risk: 0.
               tree_error: 0.
      -
         best_tree_idx: -1
         nodes:
            -
               depth: 0
               sample_count: 20
               value: -1.4094928236545152e+00
               norm_class_idx: 0
               Tn: 0
               complexity: 2
               alpha: 0.
               node_risk: 0.
               tree_risk: 0.
               tree_error: 0.
               splits:
                  - { var:41, quality:7.8578287363052368e-01,
                      le:3.1311273574829102e-01 }
                  - { var:69, quality:7.1780246496200562e-01,
                      le:1.0079049319028854e-01 }
                  - { var:24, quality:6.7771899700164795e-01,
                      le:1.1418270319700241e-01 }
                  - { var:58, quality:6.1845004558563232e-01,
                      gt:4.8272728919982910e-01 }
                  - { var:32, quality:6.1004960536956787e-01,
                      gt:4.0491557121276855e-01 }
                  - { var:61, quality:6.0849493741989136e-01,
                      gt:3.5151515156030655e-02 }
                  - { var:40, quality:6.0352319478988647e-01,
                      gt:6.6091954708099365e-01 }
                  - { var:22, quality:6.0257846117019653e-01,
                      gt:3.8333332538604736e-01 }
                  - { var:59, quality:6.0195982456207275e-01,
                      le:3.9835485816001892e-01 }
                  - { var:70, quality:5.9402233362197876e-01,
                      le:3.2608695328235626e-02 }
                  - { var:42, quality:5.8999204635620117e-01,
                      le:1.2225504964590073e-01 }
                  - { var:68, quality:5.8332592248916626e-01,
                      le:8.1168830394744873e-02 }
                  - { var:67, quality:5.8332592248916626e-01,
                      gt:3.9181819558143616e-01 }
                  - { var:51, quality:5.8169150352478027e-01,
                      le:8.8888883590698242e-02 }
                  - { var:14, quality:5.7857125997543335e-01,
                      gt:3.9903649687767029e-01 }
                  - { var:50, quality:5.6831568479537964e-01,
                      le:1.2231560051441193e-01 }
                  - { var:4, quality:5.6396287679672241e-01,
                      gt:3.7853103876113892e-01 }
                  - { var:31, quality:5.6265723705291748e-01,
                      le:6.1904764175415039e-01 }
                  - { var:60, quality:5.5589580535888672e-01,
                      le:1.3044509291648865e-01 }
                  - { var:15, quality:5.3940719366073608e-01,
                      le:2.5000000000000000e-01 }
                  - { var:23, quality:5.3600943088531494e-01,
                      le:3.2872593402862549e-01 }
                  - { var:49, quality:5.3500890731811523e-01,
                      gt:5.4256862401962280e-01 }
                  - { var:6, quality:5.2675086259841919e-01,
                      le:2.9618966579437256e-01 }
                  - { var:16, quality:5.1913732290267944e-01,
                      le:3.0667699873447418e-02 }
                  - { var:13, quality:5.1693952083587646e-01,
                      gt:2.2327899932861328e-01 }
                  - { var:52, quality:5.1207232475280762e-01,
                      gt:3.5600903630256653e-01 }
                  - { var:43, quality:5.1207232475280762e-01,
                      gt:1.9761028885841370e-01 }
                  - { var:5, quality:4.8332774639129639e-01,
                      le:7.1195656061172485e-01 }
                  - { var:33, quality:4.7904184460639954e-01,
                      le:2.2393250465393066e-01 }
                  - { var:7, quality:4.7876548767089844e-01,
                      gt:1.1321719735860825e-01 }
                  - { var:34, quality:4.5191943645477295e-01,
                      le:4.2727276682853699e-02 }
                  - { var:3, quality:4.2845708131790161e-01,
                      le:8.3333346992731094e-03 }
                  - { var:71, quality:4.2237621545791626e-01,
                      gt:4.4642858207225800e-02 }
            -
               depth: 1
               sample_count: 12
               value: -1.4094928236545152e+00
               norm_class_idx: 0
               Tn: 2147483647
               complexity: 1
               alpha: 0.
               node_risk: 0.
               tree_risk: 0.
               tree_error: 0.
            -
               depth: 1
               sample_count: 8
               value: 1.4094928236545152e+00
               norm_class_idx: 1
               Tn: 2147483647
               complexity: 1
               alpha: 0.
               node_risk: 0.
               tree_risk: 0.
               tree_error: 0.
      -
         best_tree_idx: -1
         nodes:
            -
               depth: 0
               sample_count: 22
               value: -1.2902828554482635e+00
               norm_class_idx: 0
               Tn: 0
               complexity: 2
               alpha: 0.
               node_risk: 0.
               tree_risk: 0.
               tree_error: 0.
               splits:
                  - { var:59, quality:7.6773416996002197e-01,
                      le:3.5138985514640808e-01 }
                  - { var:33, quality:6.5747535228729248e-01,
                      le:2.5132623314857483e-01 }
                  - { var:40, quality:6.4953041076660156e-01,
                      gt:3.2520565390586853e-01 }
                  - { var:41, quality:6.3342356681823730e-01,
                      le:4.8913043737411499e-01 }
                  - { var:31, quality:6.0461455583572388e-01,
                      gt:3.9308175444602966e-01 }
                  - { var:52, quality:5.8802634477615356e-01,
                      gt:6.5126046538352966e-02 }
                  - { var:67, quality:5.8328741788864136e-01,
                      gt:2.2966340184211731e-01 }
                  - { var:51, quality:5.7699686288833618e-01,
                      le:3.1265664100646973e-01 }
                  - { var:58, quality:5.7538473606109619e-01,
                      gt:2.1258020401000977e-01 }
                  - { var:25, quality:5.7538473606109619e-01,
                      le:1.3513514772057533e-02 }
                  - { var:49, quality:5.7442575693130493e-01,
                      le:7.8736841678619385e-01 }
                  - { var:14, quality:5.7071667909622192e-01,
                      gt:3.5815602540969849e-01 }
                  - { var:13, quality:5.6938767433166504e-01,
                      le:5.5974841117858887e-01 }
                  - { var:42, quality:5.6834721565246582e-01,
                      le:1.9782610237598419e-01 }
                  - { var:22, quality:5.6341129541397095e-01,
                      gt:2.8869050741195679e-01 }
                  - { var:68, quality:5.6199872493743896e-01,
                      le:1.0101009905338287e-01 }
                  - { var:50, quality:5.5676347017288208e-01,
                      le:4.3303570151329041e-01 }
                  - { var:7, quality:5.5578303337097168e-01,
                      gt:8.9285699650645256e-03 }
                  - { var:24, quality:5.4566663503646851e-01,
                      le:2.3237180709838867e-01 }
                  - { var:4, quality:5.4326921701431274e-01,
                      le:9.0178573131561279e-01 }
                  - { var:34, quality:5.3998380899429321e-01,
                      le:4.2727276682853699e-02 }
                  - { var:32, quality:5.3042668104171753e-01,
                      le:4.6428570151329041e-01 }
                  - { var:16, quality:5.2520757913589478e-01,
                      le:9.4414889812469482e-02 }
                  - { var:6, quality:5.2414584159851074e-01,
                      gt:2.7574616670608521e-01 }
                  - { var:8, quality:5.1618176698684692e-01,
                      le:9.2719778418540955e-02 }
                  - { var:70, quality:5.0503581762313843e-01,
                      gt:5.4299756884574890e-02 }
                  - { var:5, quality:4.9576744437217712e-01,
                      le:3.6936935782432556e-01 }
            -
               depth: 1
               sample_count: 15
               value: -1.2902828554482635e+00
               norm_class_idx: 0
               Tn: 2147483647
               complexity: 1
               alpha: 0.
               node_risk: 0.
               tree_risk: 0.
               tree_error: 0.
            -
               depth: 1
               sample_count: 7
               value: 1.2902828554482635e+00
               norm_class_idx: 1
               Tn: 2147483647
               complexity: 1
               alpha: 0.
               node_risk: 0.
               tree_risk: 0.
               tree_error: 0.
      -
         best_tree_idx: -1
         nodes:
            -
               depth: 0
               sample_count: 26
               value: -1.5011381513495998e+00
               norm_class_idx: 0
               Tn: 0
               complexity: 2
               alpha: 0.
               node_risk: 0.
               tree_risk: 0.
               tree_error: 0.
               splits:
                  - { var:61, quality:8.1158947944641113e-01,
                      le:2.3437500000000000e-01 }
                  - { var:5, quality:7.7334666252136230e-01,
                      le:7.1195656061172485e-01 }
                  - { var:70, quality:7.6367199420928955e-01,
                      le:1.1805555224418640e-01 }
                  - { var:52, quality:7.3826807737350464e-01,
                      le:1.4682537317276001e-01 }
                  - { var:14, quality:7.3507577180862427e-01,
                      le:5.5360364913940430e-01 }
                  - { var:59, quality:7.1788346767425537e-01,
                      gt:5.5087719112634659e-02 }
                  - { var:60, quality:6.9983679056167603e-01,
                      gt:6.3333332538604736e-02 }
                  - { var:58, quality:6.9323784112930298e-01,
                      gt:1.5551839768886566e-01 }
                  - { var:48, quality:6.8586790561676025e-01,
                      le:3.0364375561475754e-02 }
                  - { var:16, quality:6.8586790561676025e-01,
                      le:9.4414889812469482e-02 }
                  - { var:7, quality:6.8586790561676025e-01,
                      le:2.1666663885116577e-01 }
                  - { var:67, quality:6.8580424785614014e-01,
                      gt:2.0244565606117249e-01 }
                  - { var:43, quality:6.8359118700027466e-01,
                      le:2.3437500000000000e-01 }
                  - { var:30, quality:6.8359118700027466e-01,
                      le:1.7543859779834747e-02 }
                  - { var:4, quality:6.8084824085235596e-01,
                      gt:2.5462967157363892e-01 }
                  - { var:62, quality:6.8029177188873291e-01,
                      le:7.4626849964261055e-03 }
                  - { var:8, quality:6.7997813224792480e-01,
                      le:9.2719778418540955e-02 }
                  - { var:71, quality:6.6819852590560913e-01,
                      le:1.1111110448837280e-02 }
                  - { var:53, quality:6.6592180728912354e-01,
                      le:1.0869565419852734e-02 }
            -
               depth: 1
               sample_count: 23
               value: -1.5011381513495998e+00
               norm_class_idx: 0
               Tn: 2147483647
               complexity: 1
               alpha: 0.
               node_risk: 0.
               tree_risk: 0.
               tree_error: 0.
            -
               depth: 1
               sample_count: 3
               value: 1.5011381513495998e+00
               norm_class_idx: 1
               Tn: 2147483647
               complexity: 1
               alpha: 0.
               node_risk: 0.
               tree_risk: 0.
               tree_error: 0.
      -
         best_tree_idx: -1
         nodes:
            -
               depth: 0
               sample_count: 18
               value: 1.4735469511143766e+00
               norm_class_idx: 1
               Tn: 0
               complexity: 2
               alpha: 0.
               node_risk: 0.
               tree_risk: 0.
               tree_error: 0.
               splits:
                  - { var:23, quality:8.0300682783126831e-01,
                      le:4.7987121343612671e-01 }
                  - { var:41, quality:7.4782270193099976e-01,
                      le:4.5971870422363281e-01 }
                  - { var:6, quality:6.7181122303009033e-01,
                      le:1.5277779102325439e-01 }
                  - { var:51, quality:6.6642922163009644e-01,
                      gt:1.5625000000000000e-02 }
                  - { var:49, quality:6.6642922163009644e-01,
                      le:5.5555558204650879e-01 }
                  - { var:67, quality:6.5218752622604370e-01,
                      le:2.9448199272155762e-01 }
                  - { var:50, quality:6.4134442806243896e-01,
                      gt:2.0408164709806442e-02 }
                  - { var:14, quality:6.4134442806243896e-01,
                      gt:3.1746033579111099e-02 }
                  - { var:13, quality:6.4134442806243896e-01,
                      le:8.3333337306976318e-01 }
                  - { var:68, quality:6.1680948734283447e-01,
                      gt:1.0101009905338287e-01 }
                  - { var:32, quality:6.0569232702255249e-01,
                      le:3.7383902072906494e-01 }
                  - { var:69, quality:6.0418856143951416e-01,
                      le:2.9923275113105774e-01 }
                  - { var:4, quality:5.9020853042602539e-01,
                      gt:3.7853103876113892e-01 }
                  - { var:31, quality:5.8665591478347778e-01,
                      le:9.4736838340759277e-01 }
                  - { var:16, quality:5.7390683889389038e-01,
                      le:2.1739130839705467e-02 }
                  - { var:58, quality:5.7161313295364380e-01,
                      le:2.8753754496574402e-01 }
                  - { var:59, quality:5.7108205556869507e-01,
                      le:4.7727274894714355e-01 }
                  - { var:5, quality:5.6942552328109741e-01,
                      le:4.2065140604972839e-01 }
                  - { var:42, quality:5.6799197196960449e-01,
                      le:1.5506754815578461e-01 }
                  - { var:24, quality:5.6090754270553589e-01,
                      gt:2.3161765933036804e-01 }
                  - { var:70, quality:5.5890411138534546e-01,
                      le:2.1739130839705467e-02 }
                  - { var:40, quality:5.5064171552658081e-01,
                      gt:4.3648099899291992e-01 }
                  - { var:22, quality:5.4956769943237305e-01,
                      gt:4.3782049417495728e-01 }
                  - { var:43, quality:5.3436386585235596e-01,
                      gt:5.0000000745058060e-02 }
                  - { var:15, quality:5.0221544504165649e-01,
                      gt:5.2083350718021393e-02 }
                  - { var:33, quality:5.0101333856582642e-01,
                      gt:3.5909092426300049e-01 }
                  - { var:7, quality:5.0028115510940552e-01,
                      le:4.5138888061046600e-02 }
                  - { var:60, quality:4.9553847312927246e-01,
                      le:5.7419359683990479e-01 }
                  - { var:39, quality:4.9553847312927246e-01,
                      le:1.8171295523643494e-01 }
                  - { var:3, quality:4.9553847312927246e-01,
                      le:2.1153848618268967e-02 }
                  - { var:52, quality:4.9213799834251404e-01,
                      gt:8.6206896230578423e-03 }
            -
               depth: 1
               sample_count: 12
               value: 1.4735469511143766e+00
               norm_class_idx: 1
               Tn: 2147483647
               complexity: 1
               alpha: 0.
               node_risk: 0.
               tree_risk: 0.
               tree_error: 0.
            -
               depth: 1
               sample_count: 6
               value: -1.4735469511143766e+00
               norm_class_idx: 0
               Tn: 2147483647
               complexity: 1
               alpha: 0.
               node_risk: 0.
               tree_risk: 0.
               tree_error: 0.
      -
         best_tree_idx: -1
         nodes:
            -
               depth: 0
               sample_count: 24
               value: 1.2735479658955304e+00
               norm_class_idx: 1
               Tn: 0
               complexity: 2
               alpha: 0.
               node_risk: 0.
               tree_risk: 0.
               tree_error: 0.
               splits:
                  - { var:60, quality:7.6396626234054565e-01,
                      le:2.9618966579437256e-01 }
                  - { var:22, quality:7.2261720895767212e-01,
                      gt:3.2882881164550781e-01 }
                  - { var:24, quality:6.7269402742385864e-01,
                      le:1.3487525284290314e-01 }
                  - { var:33, quality:6.2982904911041260e-01,
                      le:1.5506754815578461e-01 }
                  - { var:31, quality:6.1856824159622192e-01,
                      gt:3.9308175444602966e-01 }
                  - { var:6, quality:6.0973650217056274e-01,
                      le:2.2079774737358093e-01 }
                  - { var:23, quality:6.0436087846755981e-01,
                      le:4.3746089935302734e-01 }
                  - { var:40, quality:6.0350728034973145e-01,
                      gt:4.3648099899291992e-01 }
                  - { var:42, quality:5.9861552715301514e-01,
                      le:1.5506754815578461e-01 }
                  - { var:58, quality:5.9426450729370117e-01,
                      gt:3.1531530618667603e-01 }
                  - { var:5, quality:5.7876479625701904e-01,
                      gt:4.6794870495796204e-01 }
                  - { var:69, quality:5.6757199764251709e-01,
                      le:1.0079049319028854e-01 }
                  - { var:67, quality:5.5285710096359253e-01,
                      le:2.8472223877906799e-01 }
                  - { var:41, quality:5.4279655218124390e-01,
                      le:4.5341616868972778e-01 }
                  - { var:59, quality:5.2651888132095337e-01,
                      gt:4.2997545003890991e-01 }
                  - { var:4, quality:5.2075880765914917e-01,
                      gt:3.2291665673255920e-01 }
                  - { var:68, quality:5.1530545949935913e-01,
                      le:3.1538796424865723e-01 }
                  - { var:14, quality:5.1373475790023804e-01,
                      gt:6.7460313439369202e-02 }
                  - { var:15, quality:5.1278120279312134e-01,
                      le:1.3360530138015747e-01 }
                  - { var:51, quality:5.0674980878829956e-01,
                      le:2.4480250477790833e-01 }
                  - { var:13, quality:5.0528496503829956e-01,
                      gt:2.1507865190505981e-01 }
                  - { var:49, quality:5.0441271066665649e-01,
                      le:7.3795914649963379e-01 }
                  - { var:70, quality:5.0393408536911011e-01,
                      le:4.8766158521175385e-02 }
                  - { var:61, quality:4.9072811007499695e-01,
                      gt:1.1457589268684387e-01 }
                  - { var:7, quality:4.8791518807411194e-01,
                      le:5.9027779847383499e-02 }
                  - { var:32, quality:4.8669561743736267e-01,
                      gt:4.0491557121276855e-01 }
                  - { var:50, quality:4.8469841480255127e-01,
                      gt:4.3223440647125244e-01 }
                  - { var:52, quality:4.7335836291313171e-01,
                      gt:1.4682537317276001e-01 }
                  - { var:25, quality:4.6686923503875732e-01,
                      le:3.6585364490747452e-02 }
                  - { var:34, quality:4.6088454127311707e-01,
                      le:1.3289678096771240e-01 }
                  - { var:16, quality:4.5801511406898499e-01,
                      le:5.8941923081874847e-02 }
                  - { var:43, quality:4.3430390954017639e-01,
                      gt:1.9761028885841370e-01 }
                  - { var:39, quality:4.3292513489723206e-01,
                      le:1.3541665673255920e-01 }
            -
               depth: 1
               sample_count: 18
               value: -1.2735479658955304e+00
               norm_class_idx: 0
               Tn: 2147483647
               complexity: 1
               alpha: 0.
               node_risk: 0.
               tree_risk: 0.
               tree_error: 0.
            -
               depth: 1
               sample_count: 6
               value: 1.2735479658955304e+00
               norm_class_idx: 1
               Tn: 2147483647
               complexity: 1
               alpha: 0.
               node_risk: 0.
               tree_risk: 0.
               tree_error: 0.
      -
         best_tree_idx: -1
         nodes:
            -
               depth: 0
               sample_count: 27
               value: 1.4526268570497811e+00
               norm_class_idx: 1
               Tn: 0
               complexity: 2
               alpha: 0.
               node_risk: 0.
               tree_risk: 0.
               tree_error: 0.
               splits:
                  - { var:67, quality:7.9597204923629761e-01,
                      le:3.2731553912162781e-01 }
                  - { var:68, quality:7.8706991672515869e-01,
                      gt:1.0101009905338287e-01 }
                  - { var:32, quality:7.7582257986068726e-01,
                      gt:7.0847451686859131e-02 }
                  - { var:31, quality:7.6978844404220581e-01,
                      le:9.1935485601425171e-01 }
                  - { var:16, quality:7.1659034490585327e-01,
                      le:8.9285699650645256e-03 }
                  - { var:15, quality:7.0584356784820557e-01,
                      le:2.6630434393882751e-01 }
                  - { var:49, quality:6.6166216135025024e-01,
                      gt:2.9107829928398132e-01 }
                  - { var:13, quality:6.5591585636138916e-01,
                      gt:3.1081080436706543e-01 }
                  - { var:6, quality:6.5557199716567993e-01,
                      le:2.8884536027908325e-01 }
                  - { var:51, quality:6.5287119150161743e-01,
                      le:3.0341053009033203e-01 }
                  - { var:22, quality:6.4712774753570557e-01,
                      gt:3.1070888042449951e-01 }
                  - { var:69, quality:6.4575493335723877e-01,
                      le:4.0505054593086243e-01 }
                  - { var:60, quality:6.4253741502761841e-01,
                      le:3.7391304969787598e-01 }
                  - { var:7, quality:6.4039301872253418e-01,
                      le:5.9027779847383499e-02 }
                  - { var:58, quality:6.1894464492797852e-01,
                      le:4.8272728919982910e-01 }
                  - { var:23, quality:6.0769730806350708e-01,
                      gt:2.6315789669752121e-02 }
                  - { var:59, quality:6.0640901327133179e-01,
                      le:5.3453689813613892e-01 }
                  - { var:24, quality:6.0238641500473022e-01,
                      le:1.9675925374031067e-01 }
                  - { var:40, quality:5.9848421812057495e-01,
                      le:9.5370370149612427e-01 }
                  - { var:62, quality:5.9814423322677612e-01,
                      le:5.1322333514690399e-02 }
                  - { var:14, quality:5.9415745735168457e-01,
                      le:6.2862324714660645e-01 }
                  - { var:41, quality:5.9215128421783447e-01,
                      gt:7.0000000298023224e-02 }
                  - { var:71, quality:5.9211015701293945e-01,
                      le:5.5753968656063080e-02 }
                  - { var:53, quality:5.9211015701293945e-01,
                      le:1.0000000149011612e-01 }
                  - { var:44, quality:5.8607614040374756e-01,
                      le:1.1960785090923309e-01 }
                  - { var:70, quality:5.8525532484054565e-01,
                      le:4.5111107826232910e-01 }
                  - { var:66, quality:5.8291012048721313e-01,
                      le:6.1224501579999924e-02 }
                  - { var:21, quality:5.8291012048721313e-01,
                      le:1.3541665673255920e-01 }
                  - { var:33, quality:5.8158987760543823e-01,
                      gt:6.7619048058986664e-02 }
                  - { var:35, quality:5.8004206418991089e-01,
                      le:1.0000000149011612e-01 }
                  - { var:17, quality:5.8004206418991089e-01,
                      le:4.4642858207225800e-02 }
                  - { var:8, quality:5.8004206418991089e-01,
                      le:2.2080418467521667e-01 }
            -
               depth: 1
               sample_count: 14
               value: 1.4526268570497811e+00
               norm_class_idx: 1
               Tn: 2147483647
               complexity: 1
               alpha: 0.
               node_risk: 0.
               tree_risk: 0.
               tree_error: 0.
            -
               depth: 1
               sample_count: 13
               value: -1.4526268570497811e+00
               norm_class_idx: 0
               Tn: 2147483647
               complexity: 1
               alpha: 0.
               node_risk: 0.
               tree_risk: 0.
               tree_error: 0.
      -
         best_tree_idx: -1
         nodes:
            -
               depth: 0
               sample_count: 18
               value: -1.2842008538680993e+00
               norm_class_idx: 0
               Tn: 0
               complexity: 2
               alpha: 0.
               node_risk: 0.
               tree_risk: 0.
               tree_error: 0.
               splits:
                  - { var:32, quality:7.7672642469406128e-01,
                      le:4.0491557121276855e-01 }
                  - { var:68, quality:6.6006386280059814e-01,
                      le:3.7049549818038940e-01 }
                  - { var:50, quality:6.4733195304870605e-01,
                      gt:5.5495884269475937e-02 }
                  - { var:52, quality:6.2892657518386841e-01,
                      le:3.5600903630256653e-01 }
                  - { var:43, quality:6.2892657518386841e-01,
                      le:1.9761028885841370e-01 }
                  - { var:41, quality:6.1019426584243774e-01,
                      gt:2.7021038532257080e-01 }
                  - { var:31, quality:6.0768729448318481e-01,
                      gt:6.1027568578720093e-01 }
                  - { var:5, quality:5.9784728288650513e-01,
                      le:5.2777779102325439e-01 }
                  - { var:58, quality:5.9299272298812866e-01,
                      gt:2.4378636479377747e-01 }
                  - { var:51, quality:5.6991171836853027e-01,
                      gt:7.3715694248676300e-02 }
                  - { var:61, quality:5.6872880458831787e-01,
                      le:1.1457589268684387e-01 }
                  - { var:70, quality:5.6765699386596680e-01,
                      gt:4.8766158521175385e-02 }
                  - { var:13, quality:5.6567931175231934e-01,
                      le:4.4308173656463623e-01 }
                  - { var:22, quality:5.6316012144088745e-01,
                      le:3.2882881164550781e-01 }
                  - { var:69, quality:5.5976599454879761e-01,
                      gt:3.1493997573852539e-01 }
                  - { var:59, quality:5.5007201433181763e-01,
                      gt:3.6708074808120728e-01 }
                  - { var:24, quality:5.4386305809020996e-01,
                      gt:1.1418270319700241e-01 }
                  - { var:6, quality:5.4051613807678223e-01,
                      gt:2.2079774737358093e-01 }
                  - { var:4, quality:5.3302204608917236e-01,
                      le:3.7853103876113892e-01 }
                  - { var:14, quality:5.2940696477890015e-01,
                      le:3.9903649687767029e-01 }
                  - { var:40, quality:5.2862507104873657e-01,
                      gt:2.5749999284744263e-01 }
                  - { var:23, quality:5.2243959903717041e-01,
                      gt:2.6315789669752121e-02 }
                  - { var:42, quality:5.1871639490127563e-01,
                      le:1.9782610237598419e-01 }
                  - { var:49, quality:5.1858091354370117e-01,
                      le:2.9107829928398132e-01 }
                  - { var:67, quality:5.1373243331909180e-01,
                      gt:2.8472223877906799e-01 }
                  - { var:60, quality:4.9123114347457886e-01,
                      le:5.7419359683990479e-01 }
                  - { var:39, quality:4.9123114347457886e-01,
                      le:1.8171295523643494e-01 }
                  - { var:3, quality:4.9123114347457886e-01,
                      le:2.1153848618268967e-02 }
                  - { var:15, quality:4.9068331718444824e-01,
                      gt:1.8711179494857788e-01 }
            -
               depth: 1
               sample_count: 11
               value: 1.2842008538680993e+00
               norm_class_idx: 1
               Tn: 2147483647
               complexity: 1
               alpha: 0.
               node_risk: 0.
               tree_risk: 0.
               tree_error: 0.
            -
               depth: 1
               sample_count: 7
               value: -1.2842008538680993e+00
               norm_class_idx: 0
               Tn: 2147483647
               complexity: 1
               alpha: 0.
               node_risk: 0.
               tree_risk: 0.
               tree_error: 0.
      -
         best_tree_idx: -1
         nodes:
            -
               depth: 0
               sample_count: 24
               value: -1.5780849863744568e+00
               norm_class_idx: 0
               Tn: 0
               complexity: 2
               alpha: 0.
               node_risk: 0.
               tree_risk: 0.
               tree_error: 0.
               splits:
                  - { var:24, quality:8.0673605203628540e-01,
                      le:2.3237180709838867e-01 }
                  - { var:59, quality:7.4466782808303833e-01,
                      le:5.4423081874847412e-01 }
                  - { var:22, quality:7.3566007614135742e-01,
                      gt:2.7799230813980103e-01 }
                  - { var:32, quality:7.2226351499557495e-01,
                      le:5.4527026414871216e-01 }
                  - { var:60, quality:7.1748423576354980e-01,
                      le:5.0496280193328857e-01 }
                  - { var:58, quality:7.0598375797271729e-01,
                      gt:2.1258020401000977e-01 }
                  - { var:69, quality:7.0503574609756470e-01,
                      le:5.4734849929809570e-01 }
                  - { var:67, quality:7.0503574609756470e-01,
                      gt:6.1553031206130981e-02 }
                  - { var:39, quality:7.0503574609756470e-01,
                      le:1.3541665673255920e-01 }
                  - { var:25, quality:7.0069295167922974e-01,
                      le:3.6585364490747452e-02 }
                  - { var:34, quality:6.9911688566207886e-01,
                      le:1.3289678096771240e-01 }
                  - { var:33, quality:6.9911688566207886e-01,
                      le:6.3933199644088745e-01 }
                  - { var:31, quality:6.9911688566207886e-01,
                      gt:2.3180454969406128e-02 }
                  - { var:15, quality:6.9911688566207886e-01,
                      le:6.2259370088577271e-01 }
                  - { var:13, quality:6.9911688566207886e-01,
                      gt:3.7612147629261017e-02 }
                  - { var:7, quality:6.9911688566207886e-01,
                      le:1.2291664630174637e-01 }
                  - { var:6, quality:6.9911688566207886e-01,
                      le:5.0833332538604736e-01 }
                  - { var:51, quality:6.8761640787124634e-01,
                      le:4.6606335043907166e-01 }
            -
               depth: 1
               sample_count: 19
               value: -1.5780849863744568e+00
               norm_class_idx: 0
               Tn: 2147483647
               complexity: 1
               alpha: 0.
               node_risk: 0.
               tree_risk: 0.
               tree_error: 0.
            -
               depth: 1
               sample_count: 5
               value: 1.5780849863744568e+00
               norm_class_idx: 1
               Tn: 2147483647
               complexity: 1
               alpha: 0.
               node_risk: 0.
               tree_risk: 0.
               tree_error: 0.
      -
         best_tree_idx: -1
         nodes:
            -
               depth: 0
               sample_count: 25
               value: 1.7978960204376080e+00
               norm_class_idx: 1
               Tn: 0
               complexity: 2
               alpha: 0.
               node_risk: 0.
               tree_risk: 0.
               tree_error: 0.
               splits:
                  - { var:42, quality:8.4179526567459106e-01,
                      le:1.8365384638309479e-01 }
                  - { var:49, quality:7.9031974077224731e-01,
                      gt:2.7935224771499634e-01 }
                  - { var:13, quality:7.6952350139617920e-01,
                      gt:2.9150581359863281e-01 }
                  - { var:51, quality:7.6018607616424561e-01,
                      le:1.4092139899730682e-01 }
                  - { var:69, quality:7.3928683996200562e-01,
                      le:4.0505054593086243e-01 }
                  - { var:6, quality:7.1406733989715576e-01,
                      le:2.6950949430465698e-01 }
                  - { var:33, quality:7.0831298828125000e-01,
                      le:3.1698566675186157e-01 }
                  - { var:40, quality:7.0418989658355713e-01,
                      gt:2.5749999284744263e-01 }
                  - { var:15, quality:6.9879961013793945e-01,
                      le:1.5685325860977173e-01 }
                  - { var:22, quality:6.9696968793869019e-01,
                      gt:2.9967948794364929e-01 }
                  - { var:60, quality:6.9176149368286133e-01,
                      le:3.4057968854904175e-01 }
                  - { var:31, quality:6.8819868564605713e-01,
                      gt:2.0568180084228516e-01 }
                  - { var:24, quality:6.8772959709167480e-01,
                      le:1.5685325860977173e-01 }
                  - { var:7, quality:6.7578017711639404e-01,
                      le:3.0667699873447418e-02 }
                  - { var:59, quality:6.7176449298858643e-01,
                      le:4.7727274894714355e-01 }
                  - { var:4, quality:6.6509848833084106e-01,
                      gt:6.9711536169052124e-02 }
                  - { var:68, quality:6.6279590129852295e-01,
                      le:3.7049549818038940e-01 }
                  - { var:67, quality:6.5967237949371338e-01,
                      gt:2.2966340184211731e-01 }
                  - { var:16, quality:6.5781176090240479e-01,
                      le:5.8941923081874847e-02 }
                  - { var:12, quality:6.5697842836380005e-01,
                      le:1.9791665673255920e-01 }
                  - { var:50, quality:6.3052576780319214e-01,
                      le:4.1698840260505676e-01 }
                  - { var:34, quality:6.2751990556716919e-01,
                      le:4.2727276682853699e-02 }
                  - { var:32, quality:6.2219673395156860e-01,
                      gt:1.1981295049190521e-01 }
                  - { var:41, quality:6.1978977918624878e-01,
                      le:5.5500000715255737e-01 }
                  - { var:23, quality:6.0170352458953857e-01,
                      le:4.3746089935302734e-01 }
                  - { var:25, quality:5.9360289573669434e-01,
                      le:5.0098881125450134e-02 }
                  - { var:14, quality:5.9301424026489258e-01,
                      le:6.2862324714660645e-01 }
                  - { var:70, quality:5.9275299310684204e-01,
                      gt:4.8766158521175385e-02 }
            -
               depth: 1
               sample_count: 16
               value: 1.7978960204376080e+00
               norm_class_idx: 1
               Tn: 2147483647
               complexity: 1
               alpha: 0.
               node_risk: 0.
               tree_risk: 0.
               tree_error: 0.
            -
               depth: 1
               sample_count: 9
               value: -1.7978960204376080e+00
               norm_class_idx: 0
               Tn: 2147483647
               complexity: 1
               alpha: 0.
               node_risk: 0.
               tree_risk: 0.
               tree_error: 0.
      -
         best_tree_idx: -1
         nodes:
            -
               depth: 0
               sample_count: 20
               value: -1.5357600558093081e+00
               norm_class_idx: 0
               Tn: 0
               complexity: 2
               alpha: 0.
               node_risk: 0.
               tree_risk: 0.
               tree_error: 0.
               splits:
                  - { var:41, quality:8.1148332357406616e-01,
                      le:3.1311273574829102e-01 }
                  - { var:70, quality:7.2212880849838257e-01,
                      le:3.2608695328235626e-02 }
                  - { var:69, quality:7.0952051877975464e-01,
                      le:2.4932795763015747e-01 }
                  - { var:22, quality:6.7832982540130615e-01,
                      gt:4.6439710259437561e-01 }
                  - { var:24, quality:6.7621093988418579e-01,
                      le:1.1418270319700241e-01 }
                  - { var:50, quality:6.6207367181777954e-01,
                      le:1.2231560051441193e-01 }
                  - { var:4, quality:6.5492081642150879e-01,
                      gt:3.6811441183090210e-01 }
                  - { var:23, quality:6.5122711658477783e-01,
                      le:3.8721415400505066e-01 }
                  - { var:59, quality:6.1178165674209595e-01,
                      le:3.9835485816001892e-01 }
                  - { var:68, quality:6.0796272754669189e-01,
                      gt:4.5697462558746338e-01 }
                  - { var:58, quality:6.0527837276458740e-01,
                      le:2.4378636479377747e-01 }
                  - { var:14, quality:5.9287363290786743e-01,
                      gt:3.9903649687767029e-01 }
                  - { var:6, quality:5.9069192409515381e-01,
                      le:1.0168350487947464e-01 }
                  - { var:61, quality:5.8960378170013428e-01,
                      gt:3.5151515156030655e-02 }
                  - { var:60, quality:5.8287620544433594e-01,
                      le:2.9618966579437256e-01 }
                  - { var:42, quality:5.8219498395919800e-01,
                      le:1.2570710480213165e-01 }
                  - { var:40, quality:5.8219498395919800e-01,
                      gt:4.3648099899291992e-01 }
                  - { var:52, quality:5.6266635656356812e-01,
                      gt:3.5600903630256653e-01 }
                  - { var:43, quality:5.6266635656356812e-01,
                      gt:1.9761028885841370e-01 }
                  - { var:15, quality:5.5700856447219849e-01,
                      le:2.5998824834823608e-01 }
                  - { var:32, quality:5.5235880613327026e-01,
                      gt:4.0491557121276855e-01 }
                  - { var:33, quality:5.4904264211654663e-01,
                      le:6.7619048058986664e-02 }
                  - { var:51, quality:5.4883843660354614e-01,
                      le:8.8888883590698242e-02 }
                  - { var:5, quality:5.4030245542526245e-01,
                      gt:5.6591337919235229e-01 }
                  - { var:31, quality:5.3738486766815186e-01,
                      gt:3.1140351295471191e-01 }
                  - { var:49, quality:5.3261858224868774e-01,
                      le:4.6970665454864502e-01 }
                  - { var:13, quality:5.2680134773254395e-01,
                      gt:4.4308173656463623e-01 }
                  - { var:16, quality:5.1782792806625366e-01,
                      le:3.5955600440502167e-02 }
                  - { var:7, quality:5.1405435800552368e-01,
                      le:5.8522723615169525e-02 }
                  - { var:34, quality:5.0193107128143311e-01,
                      le:4.2727276682853699e-02 }
                  - { var:67, quality:5.0034433603286743e-01,
                      gt:3.9181819558143616e-01 }
                  - { var:3, quality:4.8166444897651672e-01,
                      le:8.3333346992731094e-03 }
            -
               depth: 1
               sample_count: 13
               value: -1.5357600558093081e+00
               norm_class_idx: 0
               Tn: 2147483647
               complexity: 1
               alpha: 0.
               node_risk: 0.
               tree_risk: 0.
               tree_error: 0.
            -
               depth: 1
               sample_count: 7
               value: 1.5357600558093081e+00
               norm_class_idx: 1
               Tn: 2147483647
               complexity: 1
               alpha: 0.
               node_risk: 0.
               tree_risk: 0.
