%YAML:1.0
my_svm: !!opencv-ml-svm
   svm_type: C_SVC
   kernel: { type:RBF, gamma:2.2500000000000003e-03 }
   C: 3.1250000000000000e+02
   term_criteria: { epsilon:1.0000000133514320e-10, iterations:10000 }
   var_all: 72
   var_count: 72
   class_count: 2
   class_labels: !!opencv-matrix
      rows: 1
      cols: 2
      dt: i
      data: [ 0, 1 ]
   class_weights: !!opencv-matrix
      rows: 2
      cols: 1
      dt: d
      data: [ 2.6315789669752121e+02, 3.8461539894342422e+02 ]
   sv_total: 23
   support_vectors:
      - [ 0., 0., 0., 0., 4.34782617e-02, 6.73913121e-01, 2.82608688e-01,
          0., 0., 0., 0., 0., 2.70833313e-01, 2.29166701e-01,
          5.00000000e-01, 0., 0., 0., 0., 0., 0., 0., 7.95918286e-01,
          2.04081595e-01, 0., 0., 0., 0., 0., 0., 0., 2.94117592e-02,
          3.52941185e-01, 6.17647111e-01, 0., 0., 0., 0., 0., 0.,
          3.12500000e-02, 3.12500000e-01, 6.56250000e-01, 0., 0., 0., 0.,
          0., 2.56410297e-02, 7.69230798e-02, 4.35897410e-01,
          4.61538494e-01, 0., 0., 0., 0., 0., 1.22449003e-01,
          3.46938789e-01, 5.30612171e-01, 0., 0., 0., 0., 0., 0., 0.,
          6.25000000e-02, 4.79166687e-01, 4.58333313e-01, 0., 0. ]
      - [ 0., 0., 0., 0., 3.12500000e-01, 1.25000000e-01, 5.00000000e-01,
          6.25000000e-02, 0., 0., 0., 0., 0., 2.12766007e-01,
          3.82978708e-01, 3.40425491e-01, 6.38297871e-02, 0., 0., 0., 0.,
          0., 2.91666687e-01, 5.00000000e-01, 2.08333299e-01, 0., 0., 0.,
          0., 0., 0., 1., 0., 0., 0., 0., 0., 0., 0., 0., 3.26086998e-01,
          4.78260905e-01, 1.95652202e-01, 0., 0., 0., 0., 0., 0.,
          1.90476194e-01, 4.28571403e-01, 3.09523791e-01, 7.14285672e-02,
          0., 0., 0., 0., 0., 3.33333313e-01, 2.66666710e-01,
          4.00000006e-01, 0., 0., 0., 0., 0., 0., 3.63636404e-01,
          9.09090936e-02, 4.54545498e-01, 9.09090936e-02, 0. ]
      - [ 0., 0., 0., 0., 5.45454621e-01, 3.63636389e-02, 1.81818195e-02,
          5.45454510e-02, 3.45454514e-01, 0., 0., 0., 0., 8.03571403e-01,
          7.14285672e-02, 1.78571399e-02, 1.78571399e-02, 8.92857164e-02,
          0., 0., 0., 0., 1., 0., 0., 0., 0., 0., 0., 0., 0., 1., 0., 0.,
          0., 0., 0., 0., 0., 0., 1., 0., 0., 0., 0., 0., 0., 0., 0., 1.,
          0., 0., 0., 0., 0., 0., 0., 0., 6.80000007e-01, 3.99999991e-02,
          3.99999991e-02, 3.99999991e-02, 2.00000003e-01, 0., 0., 0., 0.,
          5.65217376e-01, 0., 6.52173907e-02, 2.17391308e-02,
          3.47826093e-01 ]
      - [ 0., 0., 0., 0., 6.25000000e-02, 4.79166687e-01, 4.58333313e-01,
          0., 0., 0., 0., 0., 0., 4.34782617e-02, 6.73913121e-01,
          2.82608688e-01, 0., 0., 0., 0., 0., 2.70833313e-01,
          2.29166701e-01, 5.00000000e-01, 0., 0., 0., 0., 0., 0., 0.,
          7.91666687e-01, 2.08333299e-01, 0., 0., 0., 0., 0., 0., 0.,
          2.94117592e-02, 3.52941185e-01, 6.17647111e-01, 0., 0., 0., 0.,
          0., 0., 3.12500000e-02, 3.12500000e-01, 6.56250000e-01, 0., 0.,
          0., 0., 0., 2.56410297e-02, 7.69230798e-02, 4.35897410e-01,
          4.61538494e-01, 0., 0., 0., 0., 0., 1.22449003e-01,
          3.46938789e-01, 5.30612171e-01, 0., 0., 0. ]
      - [ 0., 0., 0., 0., 1.95652202e-01, 3.91304314e-01, 3.47826093e-01,
          6.52173907e-02, 0., 0., 0., 0., 0., 2.76595712e-01,
          5.10638297e-01, 2.12766007e-01, 0., 0., 0., 0., 0., 0., 1., 0.,
          0., 0., 0., 0., 0., 0., 0., 3.26086998e-01, 4.78260905e-01,
          1.95652202e-01, 0., 0., 0., 0., 0., 0., 1.90476194e-01,
          4.28571403e-01, 3.09523791e-01, 7.14285672e-02, 0., 0., 0., 0.,
          0., 3.33333313e-01, 2.66666710e-01, 4.00000006e-01, 0., 0., 0.,
          0., 0., 0., 3.63636404e-01, 9.09090936e-02, 4.54545498e-01,
          9.09090936e-02, 0., 0., 0., 0., 0., 3.52941185e-01,
          1.17647097e-01, 4.70588207e-01, 5.88235296e-02, 0. ]
      - [ 0., 0., 0., 0., 5.51724076e-01, 1.37931004e-01, 3.10344785e-01,
          0., 0., 0., 0., 0., 0., 5.71428597e-01, 3.09523791e-01,
          1.19047597e-01, 0., 0., 0., 0., 0., 3.50877196e-02,
          8.94736826e-01, 7.01754391e-02, 0., 0., 0., 0., 0., 0., 0.,
          1.17647097e-01, 4.41176504e-01, 1.76470593e-01, 2.50000000e-01,
          1.47058796e-02, 0., 0., 0., 0., 8.88888910e-02, 1.11111097e-01,
          3.55555594e-01, 4.22222197e-01, 2.22222209e-02, 0., 0., 0., 0.,
          1.15384601e-01, 1.34615406e-01, 4.03846115e-01, 2.50000000e-01,
          9.61538479e-02, 0., 0., 0., 0., 1.87500000e-01, 5.83333313e-01,
          1.04166701e-01, 1.25000000e-01, 0., 0., 0., 0., 0.,
          4.72222209e-01, 3.61111104e-01, 1.38888896e-01, 2.77777798e-02,
          0. ]
      - [ 0., 0., 0., 0., 2.59259313e-01, 5.55555582e-01, 1.85185194e-01,
          0., 0., 0., 0., 0., 0., 1., 0., 0., 0., 0., 0., 0., 0., 0.,
          3.33333313e-01, 4.81481493e-01, 1.85185194e-01, 0., 0., 0., 0.,
          0., 0., 1.36363596e-01, 5.00000000e-01, 3.18181813e-01,
          4.54545505e-02, 0., 0., 0., 0., 0., 2.39999995e-01,
          5.60000002e-01, 2.00000003e-01, 0., 0., 0., 0., 0., 0., 1., 0.,
          0., 0., 0., 0., 0., 0., 0., 3.33333313e-01, 5.00000000e-01,
          1.66666701e-01, 0., 0., 0., 0., 0., 0., 2.17391297e-01,
          4.34782594e-01, 3.04347813e-01, 4.34782617e-02, 0. ]
      - [ 0., 0., 0., 0., 4.23728794e-01, 5.76271176e-01, 0., 0., 0., 0.,
          0., 0., 0., 4.52830195e-01, 4.15094286e-01, 1.32075503e-01, 0.,
          0., 0., 0., 0., 0., 6.71875000e-01, 2.34375000e-01,
          9.37500000e-02, 0., 0., 0., 0., 0., 0., 5.71428597e-01,
          4.28571403e-01, 0., 0., 0., 0., 0., 0., 0., 5.46875000e-01,
          1.25000000e-01, 1.09375000e-01, 2.18750000e-01, 0., 0., 0., 0.,
          0., 4.08163309e-01, 4.08163294e-02, 6.12244904e-02,
          4.89795893e-01, 0., 0., 0., 0., 0., 2.29508206e-01,
          3.11475396e-01, 2.95082003e-01, 1.63934395e-01, 0., 0., 0., 0.,
          0., 2.50000000e-01, 7.50000000e-01, 0., 0., 0. ]
      - [ 0., 0., 0., 0., 2.29508206e-01, 3.11475396e-01, 2.95082003e-01,
          1.63934395e-01, 0., 0., 0., 0., 0., 2.50000000e-01,
          7.50000000e-01, 0., 0., 0., 0., 0., 0., 0., 4.33333308e-01,
          5.66666722e-01, 0., 0., 0., 0., 0., 0., 0., 4.52830195e-01,
          4.15094286e-01, 1.32075503e-01, 0., 0., 0., 0., 0., 0.,
          6.66666687e-01, 2.38095194e-01, 9.52380970e-02, 0., 0., 0., 0.,
          0., 0., 5.71428597e-01, 4.28571403e-01, 0., 0., 0., 0., 0., 0.,
          0., 5.46875000e-01, 1.25000000e-01, 1.09375000e-01,
          2.18750000e-01, 0., 0., 0., 0., 0., 4.19999987e-01,
          3.99999991e-02, 5.99999987e-02, 4.79999989e-01, 0. ]
      - [ 0., 0., 0., 0., 1., 0., 0., 0., 0., 0., 0., 0., 0., 1., 0., 0.,
          0., 0., 0., 0., 0., 0., 1., 0., 0., 0., 0., 0., 0., 0., 0., 1.,
          0., 0., 0., 0., 0., 0., 0., 0., 6.80000007e-01, 3.99999991e-02,
          3.99999991e-02, 3.99999991e-02, 2.00000003e-01, 0., 0., 0., 0.,
          5.55555582e-01, 0., 6.66666701e-02, 2.22222209e-02,
          3.55555594e-01, 0., 0., 0., 0., 5.45454621e-01, 3.63636389e-02,
          1.81818195e-02, 5.45454510e-02, 3.45454514e-01, 0., 0., 0., 0.,
          8.03571403e-01, 7.14285672e-02, 1.78571399e-02, 1.78571399e-02,
          8.92857164e-02 ]
      - [ 0., 0., 0., 0., 3.33333313e-01, 5.00000000e-01, 1.66666701e-01,
          0., 0., 0., 0., 0., 0., 2.17391297e-01, 4.34782594e-01,
          3.04347813e-01, 4.34782617e-02, 0., 0., 0., 0., 0.,
          2.85714298e-01, 5.35714328e-01, 1.78571403e-01, 0., 0., 0., 0.,
          0., 0., 1., 0., 0., 0., 0., 0., 0., 0., 0., 3.07692289e-01,
          5.00000000e-01, 1.92307696e-01, 0., 0., 0., 0., 0., 0.,
          1.36363596e-01, 5.00000000e-01, 3.18181813e-01, 4.54545505e-02,
          0., 0., 0., 0., 0., 2.69230813e-01, 5.38461626e-01,
          1.92307696e-01, 0., 0., 0., 0., 0., 0., 1., 0., 0., 0., 0. ]
      - [ 0., 0., 0., 0., 8.03571403e-01, 7.14285672e-02, 1.78571399e-02,
          1.78571399e-02, 8.92857164e-02, 0., 0., 0., 0., 1., 0., 0., 0.,
          0., 0., 0., 0., 0., 1., 0., 0., 0., 0., 0., 0., 0., 0., 1., 0.,
          0., 0., 0., 0., 0., 0., 0., 1., 0., 0., 0., 0., 0., 0., 0., 0.,
          6.80000007e-01, 3.99999991e-02, 3.99999991e-02, 3.99999991e-02,
          2.00000003e-01, 0., 0., 0., 0., 5.55555582e-01, 0.,
          6.66666701e-02, 2.22222209e-02, 3.55555594e-01, 0., 0., 0., 0.,
          5.45454621e-01, 3.63636389e-02, 1.81818195e-02, 5.45454510e-02,
          3.45454514e-01 ]
      - [ 0., 0., 0., 0., 3.07692289e-01, 4.35897410e-01, 2.56410301e-01,
          0., 0., 0., 0., 0., 0., 1., 0., 0., 0., 0., 0., 0., 0., 0.,
          3.24324310e-01, 5.40540516e-01, 1.35135099e-01, 0., 0., 0., 0.,
          0., 0., 2.89473712e-01, 3.94736886e-01, 3.15789491e-01, 0., 0.,
          0., 0., 0., 0., 2.75000006e-01, 5.50000012e-01, 1.74999997e-01,
          0., 0., 0., 0., 0., 0., 1., 0., 0., 0., 0., 0., 0., 0., 0.,
          2.97297299e-01, 4.05405402e-01, 2.97297299e-01, 0., 0., 0., 0.,
          0., 0., 2.97297299e-01, 3.24324310e-01, 3.24324310e-01,
          5.40540591e-02, 0. ]
      - [ 0., 0., 0., 0., 1., 0., 0., 0., 0., 0., 0., 0., 0.,
          6.66666687e-01, 3.33333313e-01, 0., 0., 0., 0., 0., 0., 0.,
          8.18181813e-01, 1.81818202e-01, 0., 0., 0., 0., 0., 0., 0.,
          8.38709712e-01, 1.61290303e-01, 0., 0., 0., 0., 0., 0., 0.,
          6.55172408e-01, 3.44827592e-01, 0., 0., 0., 0., 0., 0., 0.,
          5.31250000e-01, 4.37500000e-01, 3.12500000e-02, 0., 0., 0., 0.,
          0., 0., 3.63636404e-01, 4.54545498e-01, 1.51515201e-01,
          3.03030293e-02, 0., 0., 0., 0., 0., 2.66666710e-01,
          2.88888901e-01, 3.33333313e-01, 1.11111097e-01, 0. ]
      - [ 0., 0., 0., 0., 2.97297299e-01, 4.05405402e-01, 2.97297299e-01,
          0., 0., 0., 0., 0., 0., 2.97297299e-01, 3.24324310e-01,
          3.24324310e-01, 5.40540591e-02, 0., 0., 0., 0., 0.,
          3.07692289e-01, 4.35897410e-01, 2.56410301e-01, 0., 0., 0., 0.,
          0., 0., 1., 0., 0., 0., 0., 0., 0., 0., 0., 3.24324310e-01,
          5.40540516e-01, 1.35135099e-01, 0., 0., 0., 0., 0., 0.,
          2.89473712e-01, 3.94736886e-01, 3.15789491e-01, 0., 0., 0., 0.,
          0., 0., 2.75000006e-01, 5.50000012e-01, 1.74999997e-01, 0., 0.,
          0., 0., 0., 0., 1., 0., 0., 0., 0. ]
      - [ 0., 0., 0., 0., 1., 0., 0., 0., 0., 0., 0., 0., 0.,
          3.26086998e-01, 4.78260905e-01, 1.95652202e-01, 0., 0., 0., 0.,
          0., 0., 1.70731694e-01, 4.39024389e-01, 3.17073196e-01,
          7.31707290e-02, 0., 0., 0., 0., 0., 3.33333313e-01,
          2.66666710e-01, 4.00000006e-01, 0., 0., 0., 0., 0., 0.,
          3.00000012e-01, 1.00000001e-01, 5.00000000e-01, 1.00000001e-01,
          0., 0., 0., 0., 0., 3.52941185e-01, 1.17647097e-01,
          4.70588207e-01, 5.88235296e-02, 0., 0., 0., 0., 0.,
          1.95652202e-01, 3.91304314e-01, 3.47826093e-01, 6.52173907e-02,
          0., 0., 0., 0., 0., 2.91666687e-01, 5.00000000e-01,
          2.08333299e-01, 0., 0. ]
      - [ 0., 0., 0., 0., 1.87500000e-01, 5.83333313e-01, 1.04166701e-01,
          1.25000000e-01, 0., 0., 0., 0., 0., 4.72222209e-01,
          3.61111104e-01, 1.38888896e-01, 2.77777798e-02, 0., 0., 0., 0.,
          0., 5.35714328e-01, 1.42857105e-01, 3.21428597e-01, 0., 0., 0.,
          0., 0., 0., 5.81395328e-01, 3.02325606e-01, 1.16279103e-01, 0.,
          0., 0., 0., 0., 3.50877196e-02, 8.94736826e-01, 7.01754391e-02,
          0., 0., 0., 0., 0., 0., 0., 1.17647097e-01, 4.41176504e-01,
          1.76470593e-01, 2.50000000e-01, 1.47058796e-02, 0., 0., 0., 0.,
          1.08695596e-01, 1.08695596e-01, 3.47826093e-01, 4.13043499e-01,
          2.17391308e-02, 0., 0., 0., 0., 1.15384601e-01, 1.34615406e-01,
          4.03846115e-01, 2.50000000e-01, 9.61538479e-02 ]
      - [ 0., 0., 0., 0., 4.72222209e-01, 3.61111104e-01, 1.38888896e-01,
          2.77777798e-02, 0., 0., 0., 0., 0., 5.35714328e-01,
          1.42857105e-01, 3.21428597e-01, 0., 0., 0., 0., 0., 0.,
          5.71428597e-01, 3.09523791e-01, 1.19047597e-01, 0., 0., 0., 0.,
          0., 3.50877196e-02, 8.94736826e-01, 7.01754391e-02, 0., 0., 0.,
          0., 0., 0., 0., 1.17647097e-01, 4.41176504e-01, 1.76470593e-01,
          2.50000000e-01, 1.47058796e-02, 0., 0., 0., 0., 1.08695596e-01,
          1.08695596e-01, 3.47826093e-01, 4.13043499e-01, 2.17391308e-02,
          0., 0., 0., 0., 1.15384601e-01, 1.34615406e-01, 4.03846115e-01,
          2.50000000e-01, 9.61538479e-02, 0., 0., 0., 0., 1.87500000e-01,
          5.83333313e-01, 1.04166701e-01, 1.25000000e-01, 0. ]
      - [ 0., 0., 0., 0., 1., 0., 0., 0., 0., 0., 0., 0., 0.,
          3.24324310e-01, 5.40540516e-01, 1.35135099e-01, 0., 0., 0., 0.,
          0., 0., 2.70270288e-01, 4.05405402e-01, 3.24324310e-01, 0., 0.,
          0., 0., 0., 0., 2.75000006e-01, 5.50000012e-01, 1.74999997e-01,
          0., 0., 0., 0., 0., 0., 1., 0., 0., 0., 0., 0., 0., 0., 0.,
          2.97297299e-01, 4.05405402e-01, 2.97297299e-01, 0., 0., 0., 0.,
          0., 0., 2.77777791e-01, 3.33333313e-01, 3.33333313e-01,
          5.55555597e-02, 0., 0., 0., 0., 0., 3.07692289e-01,
          4.35897410e-01, 2.56410301e-01, 0., 0. ]
      - [ 0., 0., 0., 0., 2.50000000e-01, 7.50000000e-01, 0., 0., 0., 0.,
          0., 0., 0., 4.33333308e-01, 5.66666722e-01, 0., 0., 0., 0., 0.,
          0., 0., 4.42307711e-01, 4.23076898e-01, 1.34615406e-01, 0., 0.,
          0., 0., 0., 0., 6.66666687e-01, 2.38095194e-01, 9.52380970e-02,
          0., 0., 0., 0., 0., 0., 5.71428597e-01, 4.28571403e-01, 0., 0.,
          0., 0., 0., 0., 0., 5.39682627e-01, 1.26984105e-01,
          1.11111097e-01, 2.22222194e-01, 0., 0., 0., 0., 0.,
          4.19999987e-01, 3.99999991e-02, 5.99999987e-02, 4.79999989e-01,
          0., 0., 0., 0., 0., 2.41935506e-01, 3.06451589e-01,
          2.90322602e-01, 1.61290303e-01, 0. ]
      - [ 0., 0., 0., 0., 1.15384601e-01, 1.34615406e-01, 4.03846115e-01,
          2.50000000e-01, 9.61538479e-02, 0., 0., 0., 0., 1.87500000e-01,
          5.83333313e-01, 1.04166701e-01, 1.25000000e-01, 0., 0., 0., 0.,
          0., 4.86486495e-01, 3.51351410e-01, 1.35135099e-01,
          2.70270295e-02, 0., 0., 0., 0., 0., 5.51724076e-01,
          1.37931004e-01, 3.10344785e-01, 0., 0., 0., 0., 0., 0.,
          5.81395328e-01, 3.02325606e-01, 1.16279103e-01, 0., 0., 0., 0.,
          0., 3.50877196e-02, 8.94736826e-01, 7.01754391e-02, 0., 0., 0.,
          0., 0., 0., 0., 1.04477599e-01, 4.47761208e-01, 1.79104507e-01,
          2.53731310e-01, 1.49253700e-02, 0., 0., 0., 0., 8.88888910e-02,
          1.11111097e-01, 3.55555594e-01, 4.22222197e-01, 2.22222209e-02 ]
      - [ 0., 0., 0., 1.66666694e-02, 1.50000006e-01, 1.33333296e-01,
          5.16666710e-01, 1.83333293e-01, 0., 0., 0., 0., 0.,
          3.17460299e-02, 6.34920672e-02, 9.04761910e-01, 0., 0., 0., 0.,
          0., 0., 1.75438598e-02, 5.26315793e-02, 9.29824591e-01, 0., 0.,
          0., 0., 0., 0., 1.69491507e-02, 1.01694897e-01, 6.61016881e-01,
          2.20339000e-01, 0., 0., 0., 0., 0., 5.88235296e-02,
          3.13725501e-01, 4.11764711e-01, 1.76470593e-01, 3.92156914e-02,
          0., 0., 0., 0., 1.42857105e-01, 4.28571403e-01, 4.00000006e-01,
          2.85714306e-02, 0., 0., 0., 0., 0., 2.58064508e-01,
          1.93548396e-01, 5.48387110e-01, 0., 0., 0., 0., 0., 0.,
          2.50000000e-01, 6.13636374e-01, 1.36363596e-01, 0., 0. ]
      - [ 0., 0., 0., 0., 1.76470593e-01, 8.23529422e-01, 0., 0., 0., 0.,
          0., 0., 1.92307699e-02, 2.50000000e-01, 5.00000000e-01,
          2.30769202e-01, 0., 0., 0., 0., 0., 0., 3.13725501e-01,
          4.31372613e-01, 2.54902005e-01, 0., 0., 0., 0., 0.,
          7.01754391e-02, 6.49122775e-01, 2.80701786e-01, 0., 0., 0., 0.,
          0., 0., 9.25925896e-02, 9.07407403e-01, 0., 0., 0., 0., 0., 0.,
          0., 0., 1.37931004e-01, 7.58620679e-01, 8.62068981e-02,
          1.72413792e-02, 0., 0., 0., 0., 0., 5.55555597e-02,
          8.33333313e-01, 1.11111097e-01, 0., 0., 0., 0., 0., 0.,
          9.80392173e-02, 6.07843220e-01, 2.94117689e-01, 0., 0. ]
   decision_functions:
      -
         sv_count: 23
         rho: -1.7561185325921045e+00
         alpha: [ 9.0687102980817627e+01, 2.6315789669752121e+02,
             4.8725168181457875e+01, 2.6315789669752121e+02,
             7.8292420750824505e+01, 1.0105686536290969e+02,
             2.6315789669752121e+02, 2.6315789669752121e+02,
             2.6315789669752121e+02, 1.3368756162812971e+02,
             2.6315789669752121e+02, 2.6315789669752121e+02,
             -2.8038787537731355e+02, -3.8461539894342422e+02,
             -3.8461539894342422e+02, -1.5571770468863929e+02,
             -1.4172119610665530e+02, -3.5420937899520476e+02,
             -1.2211519253452064e+01, -3.0620304211112222e+02,
             -1.8165521182777871e+02, -4.7305351294613594e+01,
             -4.5912318245159845e+01 ]
         index: [ 0, 1, 2, 3, 4, 5, 6, 7, 8, 9, 10, 11, 12, 13, 14, 15,
             16, 17, 18, 19, 20, 21, 22 ]
