%YAML:1.0
my_svm: !!opencv-ml-svm
   svm_type: C_SVC
   kernel: { type:RBF, gamma:3.3750000000000002e-02 }
   C: 1.2500000000000000e+01
   term_criteria: { epsilon:1.0000000133514320e-10, iterations:10000 }
   var_all: 72
   var_count: 72
   class_count: 2
   class_labels: !!opencv-matrix
      rows: 1
      cols: 2
      dt: i
      data: [ 0, 1 ]
   class_weights: !!opencv-matrix
      rows: 2
      cols: 1
      dt: d
      data: [ 9.7074471414089203e+00, 1.7548076808452606e+01 ]
   sv_total: 44
   support_vectors:
      - [ 0., 0., 0., 0., 8.05555582e-01, 5.55555597e-02, 2.77777798e-02,
          5.55555597e-02, 5.55555597e-02, 0., 0., 0., 0., 8.40909123e-01,
          9.09090936e-02, 2.27272697e-02, 0., 4.54545505e-02, 0., 0., 0.,
          0., 1., 0., 0., 0., 0., 0., 0., 0., 0., 1., 0., 0., 0., 0., 0.,
          0., 0., 0., 1., 0., 0., 0., 0., 0., 0., 0., 0., 1., 0., 0., 0.,
          0., 0., 0., 0., 0., 8.18181813e-01, 6.81818202e-02, 0.,
          4.54545505e-02, 6.81818202e-02, 0., 0., 0., 0., 8.23529422e-01,
          2.94117592e-02, 5.88235296e-02, 2.94117592e-02, 5.88235296e-02 ]
      - [ 0., 0., 0., 0., 8.03571403e-01, 7.14285672e-02, 1.78571399e-02,
          1.78571399e-02, 8.92857164e-02, 0., 0., 0., 0., 1., 0., 0., 0.,
          0., 0., 0., 0., 0., 1., 0., 0., 0., 0., 0., 0., 0., 0., 1., 0.,
          0., 0., 0., 0., 0., 0., 0., 1., 0., 0., 0., 0., 0., 0., 0., 0.,
          6.80000007e-01, 3.99999991e-02, 3.99999991e-02, 3.99999991e-02,
          2.00000003e-01, 0., 0., 0., 0., 5.55555582e-01, 0.,
          6.66666701e-02, 2.22222209e-02, 3.55555594e-01, 0., 0., 0., 0.,
          5.45454621e-01, 3.63636389e-02, 1.81818195e-02, 5.45454510e-02,
          3.45454514e-01 ]
      - [ 0., 0., 0., 0., 2.59259313e-01, 5.55555582e-01, 1.85185194e-01,
          0., 0., 0., 0., 0., 0., 1., 0., 0., 0., 0., 0., 0., 0., 0.,
          3.33333313e-01, 4.81481493e-01, 1.85185194e-01, 0., 0., 0., 0.,
          0., 0., 1.36363596e-01, 5.00000000e-01, 3.18181813e-01,
          4.54545505e-02, 0., 0., 0., 0., 0., 2.39999995e-01,
          5.60000002e-01, 2.00000003e-01, 0., 0., 0., 0., 0., 0., 1., 0.,
          0., 0., 0., 0., 0., 0., 0., 3.33333313e-01, 5.00000000e-01,
          1.66666701e-01, 0., 0., 0., 0., 0., 0., 2.17391297e-01,
          4.34782594e-01, 3.04347813e-01, 4.34782617e-02, 0. ]
      - [ 0., 0., 0., 0., 5.71428612e-02, 4.28571403e-01, 5.14285684e-01,
          0., 0., 0., 0., 0., 9.09090936e-02, 6.59090877e-01,
          2.50000000e-01, 0., 0., 0., 0., 0., 0., 0., 4.54545505e-02,
          5.22727311e-01, 4.31818187e-01, 0., 0., 0., 0., 0., 0.,
          4.16666716e-02, 5.41666687e-01, 4.16666687e-01, 0., 0., 0., 0.,
          8.33333433e-02, 2.50000000e-01, 1.04166701e-01, 5.62500000e-01,
          0., 0., 0., 0., 0., 0., 4.25531901e-02, 8.93616974e-01,
          6.38297871e-02, 0., 0., 0., 0., 0., 0., 2.56410297e-02,
          7.69230798e-02, 3.33333313e-01, 5.64102590e-01, 0., 0., 0., 0.,
          0., 0., 6.45161271e-02, 2.90322602e-01, 6.45161271e-01, 0., 0. ]
      - [ 0., 0., 0., 0., 1., 0., 0., 0., 0., 0., 0., 0., 0., 1., 0., 0.,
          0., 0., 0., 0., 0., 0., 1., 0., 0., 0., 0., 0., 0., 0., 0., 1.,
          0., 0., 0., 0., 0., 0., 0., 0., 6.80000007e-01, 3.99999991e-02,
          3.99999991e-02, 3.99999991e-02, 2.00000003e-01, 0., 0., 0., 0.,
          5.55555582e-01, 0., 6.66666701e-02, 2.22222209e-02,
          3.55555594e-01, 0., 0., 0., 0., 5.45454621e-01, 3.63636389e-02,
          1.81818195e-02, 5.45454510e-02, 3.45454514e-01, 0., 0., 0., 0.,
          8.03571403e-01, 7.14285672e-02, 1.78571399e-02, 1.78571399e-02,
          8.92857164e-02 ]
      - [ 0., 0., 0., 2.04081591e-02, 8.16326514e-02, 7.34693885e-01,
          1.63265303e-01, 0., 0., 0., 0., 0., 0., 2.17391308e-02,
          5.21739125e-01, 4.56521690e-01, 0., 0., 0., 0., 2.82608688e-01,
          0., 2.17391308e-02, 6.95652187e-01, 0., 0., 0., 0., 0., 0.,
          1.02040797e-01, 5.30612171e-01, 3.67346913e-01, 0., 0., 0., 0.,
          0., 0., 2.43902393e-02, 1.95121899e-01, 3.90243888e-01,
          3.90243888e-01, 0., 0., 0., 0., 0., 0., 3.12500000e-02,
          2.81250000e-01, 6.87500000e-01, 0., 0., 0., 0., 0., 0.,
          6.25000000e-02, 3.75000000e-01, 5.62500000e-01, 0., 0., 0., 0.,
          0., 2.43902393e-02, 9.75609720e-02, 7.80487776e-01,
          9.75609720e-02, 0., 0. ]
      - [ 0., 0., 0., 0., 4.13793087e-01, 5.86206913e-01, 0., 0., 0., 0.,
          0., 0., 0., 4.90565985e-01, 4.52830195e-01, 5.66037707e-02, 0.,
          0., 0., 0., 0., 0., 6.16666675e-01, 3.16666692e-01,
          6.66666701e-02, 0., 0., 0., 0., 0., 0., 5.57376981e-01,
          4.42622989e-01, 0., 0., 0., 0., 0., 0., 0., 5.08474588e-01,
          8.47457573e-02, 6.77966103e-02, 3.38983089e-01, 0., 0., 0., 0.,
          0., 3.39285702e-01, 1.07142903e-01, 7.14285672e-02,
          4.82142895e-01, 0., 0., 0., 0., 0., 2.25806400e-01,
          3.54838699e-01, 3.87096792e-01, 3.22580598e-02, 0., 0., 0., 0.,
          0., 3.49206388e-01, 6.50793672e-01, 0., 0., 0. ]
      - [ 0., 0., 0., 0., 3.33333313e-01, 5.00000000e-01, 1.66666701e-01,
          0., 0., 0., 0., 0., 0., 2.17391297e-01, 4.34782594e-01,
          3.04347813e-01, 4.34782617e-02, 0., 0., 0., 0., 0.,
          2.85714298e-01, 5.35714328e-01, 1.78571403e-01, 0., 0., 0., 0.,
          0., 0., 1., 0., 0., 0., 0., 0., 0., 0., 0., 3.07692289e-01,
          5.00000000e-01, 1.92307696e-01, 0., 0., 0., 0., 0., 0.,
          1.36363596e-01, 5.00000000e-01, 3.18181813e-01, 4.54545505e-02,
          0., 0., 0., 0., 0., 2.69230813e-01, 5.38461626e-01,
          1.92307696e-01, 0., 0., 0., 0., 0., 0., 1., 0., 0., 0., 0. ]
      - [ 0., 0., 0., 0., 2.03703701e-01, 7.40740672e-02, 4.07407403e-01,
          2.96296299e-01, 1.85185205e-02, 0., 0., 0., 0., 2.72727311e-01,
          5.63636422e-01, 9.09090936e-02, 7.27272704e-02, 0., 0., 0., 0.,
          0., 4.73684192e-01, 3.68420988e-01, 1.31578997e-01,
          2.63157897e-02, 0., 0., 0., 0., 0., 5.76923072e-01,
          1.15384601e-01, 3.07692289e-01, 0., 0., 0., 0., 0., 0.,
          5.00000000e-01, 2.36842096e-01, 1.84210494e-01, 7.89473727e-02,
          0., 0., 0., 0., 0., 1., 0., 0., 0., 0., 0., 0., 0., 0.,
          2.15384603e-01, 4.76923108e-01, 3.07692289e-01, 0., 0., 0., 0.,
          0., 0., 1.42857105e-01, 2.14285702e-01, 2.67857105e-01,
          2.67857105e-01, 1.07142903e-01 ]
      - [ 0., 0., 0., 0., 3.33333313e-01, 8.33333433e-02, 4.16666687e-01,
          1.66666701e-01, 0., 0., 0., 0., 0., 1.88679203e-01,
          3.01886797e-01, 2.83018887e-01, 1.32075503e-01, 9.43396166e-02,
          0., 0., 0., 0., 2.50000000e-01, 4.37500000e-01, 3.12500000e-01,
          0., 0., 0., 0., 0., 0., 9.59183693e-01, 4.08163294e-02, 0., 0.,
          0., 0., 0., 0., 0., 3.26086998e-01, 5.86956501e-01,
          8.69565234e-02, 0., 0., 0., 0., 0., 2.32558101e-02,
          1.86046496e-01, 4.65116292e-01, 2.55813986e-01, 6.97674528e-02,
          0., 0., 0., 0., 0., 2.77777791e-01, 3.88888896e-01,
          3.33333313e-01, 0., 0., 0., 0., 0., 0., 3.63636404e-01,
          9.09090936e-02, 4.54545498e-01, 9.09090936e-02, 0. ]
      - [ 0., 0., 0., 0., 2.60869592e-01, 3.91304314e-01, 3.47826093e-01,
          0., 0., 0., 0., 0., 0., 4.61538494e-01, 5.38461626e-01, 0., 0.,
          0., 0., 0., 0., 0., 6.20689571e-01, 3.79310310e-01, 0., 0., 0.,
          0., 0., 0., 0., 1.92307696e-01, 4.23076898e-01, 3.84615391e-01,
          0., 0., 0., 0., 0., 0., 2.39999995e-01, 4.00000006e-01,
          3.19999993e-01, 3.99999991e-02, 0., 0., 0., 0., 0.,
          3.91304314e-01, 6.08695626e-01, 0., 0., 0., 0., 0., 0., 0.,
          6.53846085e-01, 3.46153885e-01, 0., 0., 0., 0., 0., 0., 0.,
          2.50000000e-01, 4.58333313e-01, 2.91666687e-01, 0., 0. ]
      - [ 0., 0., 0., 0., 3.54166687e-01, 5.62500000e-01, 8.33333433e-02,
          0., 0., 0., 0., 0., 2.08333302e-02, 9.37500000e-01,
          4.16666716e-02, 0., 0., 0., 0., 0., 0., 2.22222209e-02,
          2.66666710e-01, 4.44444388e-01, 2.66666710e-01, 0., 0., 0., 0.,
          0., 0., 1.52173907e-01, 3.04347813e-01, 2.82608688e-01,
          1.73913002e-01, 8.69565234e-02, 0., 0., 0., 0., 2.85714298e-01,
          1.42857105e-01, 5.71428597e-01, 0., 0., 0., 0., 0., 0.,
          3.33333313e-01, 8.33333433e-02, 4.16666687e-01, 1.66666701e-01,
          0., 0., 0., 0., 0., 4.11764711e-01, 5.88235296e-02,
          4.70588207e-01, 5.88235296e-02, 0., 0., 0., 0., 0.,
          2.39130393e-01, 3.69565189e-01, 3.47826093e-01, 4.34782617e-02,
          0. ]
      - [ 0., 0., 0., 0., 2.05128193e-01, 3.84615391e-01, 3.58974397e-01,
          5.12820482e-02, 0., 0., 0., 0., 0., 4.52381015e-01,
          5.47618985e-01, 0., 0., 0., 0., 0., 0., 0., 7.25000024e-01,
          2.75000006e-01, 0., 0., 0., 0., 0., 0., 0., 2.82051295e-01,
          4.10256386e-01, 3.07692289e-01, 0., 0., 0., 0., 0., 0.,
          2.43243203e-01, 4.32432413e-01, 3.24324310e-01, 0., 0., 0., 0.,
          0., 0., 4.87804890e-01, 5.12195110e-01, 0., 0., 0., 0., 0., 0.,
          0., 6.97674394e-01, 3.02325606e-01, 0., 0., 0., 0., 0., 0., 0.,
          2.30769202e-01, 3.84615391e-01, 3.84615391e-01, 0., 0. ]
      - [ 0., 0., 0., 0., 7.54716992e-02, 9.05660391e-01, 1.88679192e-02,
          0., 0., 0., 0., 0., 0., 1.15384601e-01, 8.84615421e-01, 0., 0.,
          0., 0., 0., 0., 1.88679192e-02, 2.45282993e-01, 7.35849082e-01,
          0., 0., 0., 0., 0., 0., 0., 2.50000000e-01, 7.50000000e-01, 0.,
          0., 0., 0., 0., 0., 0., 4.72727299e-01, 5.27272701e-01, 0., 0.,
          0., 0., 0., 0., 0., 1., 0., 0., 0., 0., 0., 0., 0.,
          3.38983089e-02, 4.23728794e-01, 5.42372882e-01, 0., 0., 0., 0.,
          0., 0., 0., 9.25925896e-02, 7.22222209e-01, 1.29629597e-01,
          5.55555597e-02, 0. ]
      - [ 0., 0., 0., 0., 2.54237294e-01, 2.54237294e-01, 2.20339000e-01,
          2.71186411e-01, 0., 0., 0., 0., 0., 2.25806400e-01,
          7.74193525e-01, 0., 0., 0., 0., 0., 0., 0., 4.33333308e-01,
          5.66666722e-01, 0., 0., 0., 0., 0., 0., 0., 4.18181807e-01,
          5.27272701e-01, 5.45454510e-02, 0., 0., 0., 0., 0., 0.,
          7.41379321e-01, 1.20689698e-01, 1.37931004e-01, 0., 0., 0., 0.,
          0., 0., 4.83871013e-01, 5.16129017e-01, 0., 0., 0., 0., 0., 0.,
          0., 5.16129017e-01, 2.58064508e-01, 9.67741907e-02,
          1.29032299e-01, 0., 0., 0., 0., 0., 4.28571403e-01,
          5.35714291e-02, 3.57142910e-02, 4.82142895e-01, 0. ]
      - [ 0., 0., 0., 0., 5.35714328e-01, 2.50000000e-01, 2.14285702e-01,
          0., 0., 0., 0., 0., 0., 5.71428597e-01, 1.42857105e-01,
          2.85714298e-01, 0., 0., 0., 0., 0., 0., 5.31914890e-01,
          2.76595712e-01, 1.91489398e-01, 0., 0., 0., 0., 0.,
          5.00000007e-02, 6.00000024e-01, 3.49999994e-01, 0., 0., 0., 0.,
          0., 0., 0., 1.64179102e-01, 2.98507512e-01, 2.53731310e-01,
          2.38805994e-01, 4.47761193e-02, 0., 0., 0., 0., 1.66666701e-01,
          1.25000000e-01, 3.33333313e-01, 3.33333313e-01, 4.16666716e-02,
          0., 0., 0., 0., 1.83333293e-01, 1.33333296e-01, 4.00000006e-01,
          1.66666701e-01, 1.16666697e-01, 0., 0., 0., 0., 4.70588207e-01,
          2.94117689e-01, 1.76470593e-01, 5.88235296e-02, 0. ]
      - [ 0., 0., 0., 0., 2.29508206e-01, 3.11475396e-01, 2.95082003e-01,
          1.63934395e-01, 0., 0., 0., 0., 0., 2.50000000e-01,
          7.50000000e-01, 0., 0., 0., 0., 0., 0., 0., 4.33333308e-01,
          5.66666722e-01, 0., 0., 0., 0., 0., 0., 0., 4.52830195e-01,
          4.15094286e-01, 1.32075503e-01, 0., 0., 0., 0., 0., 0.,
          6.66666687e-01, 2.38095194e-01, 9.52380970e-02, 0., 0., 0., 0.,
          0., 0., 5.71428597e-01, 4.28571403e-01, 0., 0., 0., 0., 0., 0.,
          0., 5.46875000e-01, 1.25000000e-01, 1.09375000e-01,
          2.18750000e-01, 0., 0., 0., 0., 0., 4.19999987e-01,
          3.99999991e-02, 5.99999987e-02, 4.79999989e-01, 0. ]
      - [ 0., 0., 0., 0., 2.50000000e-01, 3.05555612e-01, 2.77777791e-01,
          8.33333433e-02, 8.33333433e-02, 0., 0., 0., 0., 2.50000000e-01,
          4.16666687e-01, 3.33333313e-01, 0., 0., 0., 0., 0., 0.,
          6.45833313e-01, 3.54166687e-01, 0., 0., 0., 0., 0., 0., 0.,
          4.25531894e-01, 5.74468076e-01, 0., 0., 0., 0., 0., 0.,
          2.38095205e-02, 2.38095194e-01, 4.04761910e-01, 2.61904806e-01,
          7.14285672e-02, 0., 0., 0., 0., 0., 2.08333299e-01,
          4.16666687e-01, 2.50000000e-01, 8.33333433e-02, 4.16666716e-02,
          0., 0., 0., 0., 3.63636404e-01, 9.09090936e-02, 5.45454621e-01,
          0., 0., 0., 0., 0., 0., 3.84615391e-01, 7.69230798e-02,
          3.84615391e-01, 1.53846204e-01, 0. ]
      - [ 0., 0., 0., 0., 2.22222209e-02, 6.88888907e-01, 2.88888901e-01,
          0., 0., 0., 0., 0., 2.76595712e-01, 1.70212805e-01,
          5.53191483e-01, 0., 0., 0., 0., 0., 0., 2.04081591e-02,
          8.16326618e-01, 1.63265303e-01, 0., 0., 0., 0., 0., 0., 0.,
          5.71428612e-02, 3.42857212e-01, 6.00000024e-01, 0., 0., 0., 0.,
          0., 0., 5.71428612e-02, 3.14285696e-01, 6.28571510e-01, 0., 0.,
          0., 0., 0., 2.70270295e-02, 5.40540591e-02, 4.59459513e-01,
          4.59459513e-01, 0., 0., 0., 0., 0., 1.19999997e-01,
          3.40000004e-01, 5.40000021e-01, 0., 0., 0., 0., 0., 0., 0.,
          2.08333302e-02, 5.00000000e-01, 4.79166687e-01, 0., 0. ]
      - [ 0., 0., 0., 0., 6.20000005e-01, 2.00000003e-01, 1.80000007e-01,
          0., 0., 0., 0., 0., 0., 8.85245919e-01, 1.14754103e-01, 0., 0.,
          0., 0., 0., 0., 0., 7.24137902e-01, 2.41379306e-01,
          3.44827585e-02, 0., 0., 0., 0., 0., 0., 2.90909111e-01,
          1.27272695e-01, 1.09090902e-01, 4.72727299e-01, 0., 0., 0., 0.,
          0., 2.24489793e-01, 1.42857105e-01, 4.08163294e-02,
          5.91836810e-01, 0., 0., 0., 0., 0., 2.69841313e-01,
          2.69841313e-01, 6.34920672e-02, 3.96825403e-01, 0., 0., 0., 0.,
          0., 3.16666692e-01, 6.83333278e-01, 0., 0., 0., 0., 0., 0., 0.,
          7.19298184e-01, 2.80701786e-01, 0., 0., 0. ]
      - [ 0., 0., 0., 0., 6.25000000e-02, 4.79166687e-01, 4.58333313e-01,
          0., 0., 0., 0., 0., 0., 4.34782617e-02, 6.73913121e-01,
          2.82608688e-01, 0., 0., 0., 0., 0., 2.70833313e-01,
          2.29166701e-01, 5.00000000e-01, 0., 0., 0., 0., 0., 0., 0.,
          7.91666687e-01, 2.08333299e-01, 0., 0., 0., 0., 0., 0., 0.,
          2.94117592e-02, 3.52941185e-01, 6.17647111e-01, 0., 0., 0., 0.,
          0., 0., 3.12500000e-02, 3.12500000e-01, 6.56250000e-01, 0., 0.,
          0., 0., 0., 2.56410297e-02, 7.69230798e-02, 4.35897410e-01,
          4.61538494e-01, 0., 0., 0., 0., 0., 1.22449003e-01,
          3.46938789e-01, 5.30612171e-01, 0., 0., 0. ]
      - [ 0., 0., 0., 0., 4.23728794e-01, 5.76271176e-01, 0., 0., 0., 0.,
          0., 0., 0., 4.52830195e-01, 4.15094286e-01, 1.32075503e-01, 0.,
          0., 0., 0., 0., 0., 6.71875000e-01, 2.34375000e-01,
          9.37500000e-02, 0., 0., 0., 0., 0., 0., 5.71428597e-01,
          4.28571403e-01, 0., 0., 0., 0., 0., 0., 0., 5.46875000e-01,
          1.25000000e-01, 1.09375000e-01, 2.18750000e-01, 0., 0., 0., 0.,
          0., 4.08163309e-01, 4.08163294e-02, 6.12244904e-02,
          4.89795893e-01, 0., 0., 0., 0., 0., 2.29508206e-01,
          3.11475396e-01, 2.95082003e-01, 1.63934395e-01, 0., 0., 0., 0.,
          0., 2.50000000e-01, 7.50000000e-01, 0., 0., 0. ]
      - [ 0., 0., 0., 0., 2.34042600e-01, 3.82978708e-01, 3.40425491e-01,
          4.25531901e-02, 0., 0., 0., 0., 0., 4.48979586e-01,
          5.51020384e-01, 0., 0., 0., 0., 0., 0., 0., 5.41666687e-01,
          4.58333313e-01, 0., 0., 0., 0., 0., 0., 2.32558101e-02,
          2.55813986e-01, 4.18604612e-01, 3.02325606e-01, 0., 0., 0., 0.,
          0., 0., 1.71428606e-01, 3.71428609e-01, 2.28571400e-01,
          1.71428606e-01, 5.71428612e-02, 0., 0., 0., 0., 2.72727311e-01,
          1.81818202e-01, 5.45454621e-01, 0., 0., 0., 0., 0., 0.,
          3.63636404e-01, 9.09090936e-02, 3.63636404e-01, 1.81818202e-01,
          0., 0., 0., 0., 0., 3.60000014e-01, 2.39999995e-01,
          3.19999993e-01, 3.99999991e-02, 3.99999991e-02 ]
      - [ 0., 0., 0., 0., 7.54716992e-02, 7.16981113e-01, 2.07547203e-01,
          0., 0., 0., 0., 0., 0., 7.69230798e-02, 8.65384579e-01,
          5.76923117e-02, 0., 0., 0., 0., 0., 0., 1.53846204e-01,
          8.46153915e-01, 0., 0., 0., 0., 0., 0., 0., 2.39999995e-01,
          6.99999988e-01, 5.99999987e-02, 0., 0., 0., 0., 0., 0.,
          2.74509788e-01, 7.25490212e-01, 0., 0., 0., 0., 0., 0., 0.,
          5.27272701e-01, 4.72727299e-01, 0., 0., 0., 0., 0., 0., 0., 1.,
          0., 0., 0., 0., 0., 0., 0., 0., 2.71186411e-01, 7.28813589e-01,
          0., 0., 0. ]
      - [ 0., 0., 0., 0., 1., 0., 0., 0., 0., 0., 0., 0., 0., 1., 0., 0.,
          0., 0., 0., 0., 0., 0., 1., 0., 0., 0., 0., 0., 0., 0., 0.,
          9.24528301e-01, 0., 5.66037707e-02, 0., 1.88679192e-02, 0., 0.,
          0., 0., 8.42105329e-01, 2.63157897e-02, 2.63157897e-02,
          7.89473727e-02, 2.63157897e-02, 0., 0., 0., 0., 7.22222209e-01,
          5.55555597e-02, 5.55555597e-02, 5.55555597e-02, 1.11111097e-01,
          0., 0., 0., 0., 7.69230783e-01, 1.02564096e-01, 0.,
          7.69230798e-02, 5.12820482e-02, 0., 0., 0., 0., 8.84615421e-01,
          5.76923117e-02, 1.92307699e-02, 1.92307699e-02, 1.92307699e-02 ]
      - [ 0., 0., 0., 0., 3.12500000e-01, 1.25000000e-01, 5.00000000e-01,
          6.25000000e-02, 0., 0., 0., 0., 0., 2.12766007e-01,
          3.82978708e-01, 3.40425491e-01, 6.38297871e-02, 0., 0., 0., 0.,
          0., 2.91666687e-01, 5.00000000e-01, 2.08333299e-01, 0., 0., 0.,
          0., 0., 0., 1., 0., 0., 0., 0., 0., 0., 0., 0., 3.26086998e-01,
          4.78260905e-01, 1.95652202e-01, 0., 0., 0., 0., 0., 0.,
          1.90476194e-01, 4.28571403e-01, 3.09523791e-01, 7.14285672e-02,
          0., 0., 0., 0., 0., 3.33333313e-01, 2.66666710e-01,
          4.00000006e-01, 0., 0., 0., 0., 0., 0., 3.63636404e-01,
          9.09090936e-02, 4.54545498e-01, 9.09090936e-02, 0. ]
      - [ 0., 0., 0., 2.38095205e-02, 2.61904806e-01, 7.14285672e-01, 0.,
          0., 0., 0., 0., 0., 0., 4.25531901e-02, 5.95744729e-01,
          3.61702114e-01, 0., 0., 0., 0., 0., 0., 2.17391308e-02,
          5.00000000e-01, 4.78260905e-01, 0., 0., 0., 0., 2.27272704e-01,
          1.13636397e-01, 4.54545505e-02, 6.13636374e-01, 0., 0., 0., 0.,
          0., 0., 2.04081591e-02, 8.77551019e-01, 1.02040797e-01, 0., 0.,
          0., 0., 0., 0., 2.50000004e-02, 1.00000001e-01, 3.75000000e-01,
          5.00000000e-01, 0., 0., 0., 0., 0., 0., 6.25000000e-02,
          2.81250000e-01, 6.56250000e-01, 0., 0., 0., 0., 0., 0.,
          2.77777798e-02, 3.88888896e-01, 5.83333313e-01, 0., 0. ]
      - [ 0., 0., 0., 0., 1., 0., 0., 0., 0., 0., 0., 0., 0.,
          6.84210479e-01, 3.15789491e-01, 0., 0., 0., 0., 0., 0., 0.,
          8.52941215e-01, 1.47058800e-01, 0., 0., 0., 0., 0., 0., 0.,
          8.38709712e-01, 1.61290303e-01, 0., 0., 0., 0., 0., 0., 0.,
          6.55172408e-01, 3.44827592e-01, 0., 0., 0., 0., 0., 0., 0.,
          5.45454621e-01, 4.24242407e-01, 3.03030293e-02, 0., 0., 0., 0.,
          0., 0., 3.82352889e-01, 4.41176504e-01, 1.47058800e-01,
          2.94117592e-02, 0., 0., 0., 0., 0., 2.72727311e-01,
          2.50000000e-01, 3.63636404e-01, 1.13636397e-01, 0. ]
      - [ 0., 0., 0., 0., 8.33333433e-02, 8.95833313e-01, 2.08333302e-02,
          0., 0., 0., 0., 0., 4.08163294e-02, 2.04081595e-01,
          7.55101979e-01, 0., 0., 0., 0., 0., 0., 0., 2.44898006e-01,
          7.55101979e-01, 0., 0., 0., 0., 0., 0., 0., 3.88888896e-01,
          5.92592597e-01, 1.85185205e-02, 0., 0., 0., 0., 0., 0.,
          8.64406824e-01, 1.35593206e-01, 0., 0., 0., 0., 0., 0.,
          6.77966103e-02, 7.28813589e-01, 2.03389794e-01, 0., 0., 0., 0.,
          0., 0., 0., 9.25925896e-02, 7.59259284e-01, 9.25925896e-02,
          5.55555597e-02, 0., 0., 0., 0., 0., 5.76923117e-02,
          9.23076928e-01, 1.92307699e-02, 0., 0. ]
      - [ 0., 0., 0., 0., 2.06896603e-01, 7.93103516e-01, 0., 0., 0., 0.,
          0., 0., 0., 7.40740672e-02, 7.40740716e-01, 1.85185194e-01, 0.,
          0., 0., 0., 0., 0., 7.69230798e-02, 8.46153915e-01,
          7.69230798e-02, 0., 0., 0., 0., 0., 0., 1.76470593e-01,
          8.23529422e-01, 0., 0., 0., 0., 0., 0., 1.96078401e-02,
          2.54902005e-01, 6.27451003e-01, 9.80392173e-02, 0., 0., 0., 0.,
          0., 0., 2.69230813e-01, 7.30769217e-01, 0., 0., 0., 0., 0., 0.,
          0., 6.03448272e-01, 3.96551698e-01, 0., 0., 0., 0., 0., 0., 0.,
          1., 0., 0., 0., 0. ]
      - [ 0., 0., 0., 0., 2.00000003e-01, 8.00000012e-01, 0., 0., 0., 0.,
          0., 0., 1.92307699e-02, 2.50000000e-01, 7.11538374e-01,
          1.92307699e-02, 0., 0., 0., 0., 0., 0., 3.26923102e-01,
          6.53846085e-01, 1.92307699e-02, 0., 0., 0., 0., 0., 0.,
          7.24137902e-01, 2.75862098e-01, 0., 0., 0., 0., 0., 0.,
          1.92307699e-02, 9.80769217e-01, 0., 0., 0., 0., 0., 0., 0., 0.,
          1.69491500e-01, 7.28813589e-01, 1.01694897e-01, 0., 0., 0., 0.,
          0., 0., 7.40740672e-02, 8.14814806e-01, 1.11111097e-01, 0., 0.,
          0., 0., 0., 0., 9.43396166e-02, 8.49056602e-01, 5.66037707e-02,
          0., 0. ]
      - [ 0., 0., 0., 1.66666694e-02, 1.50000006e-01, 1.33333296e-01,
          5.16666710e-01, 1.83333293e-01, 0., 0., 0., 0., 0.,
          3.17460299e-02, 6.34920672e-02, 9.04761910e-01, 0., 0., 0., 0.,
          0., 0., 1.75438598e-02, 5.26315793e-02, 9.29824591e-01, 0., 0.,
          0., 0., 0., 0., 1.69491507e-02, 1.01694897e-01, 6.61016881e-01,
          2.20339000e-01, 0., 0., 0., 0., 0., 5.88235296e-02,
          3.13725501e-01, 4.11764711e-01, 1.76470593e-01, 3.92156914e-02,
          0., 0., 0., 0., 1.42857105e-01, 4.28571403e-01, 4.00000006e-01,
          2.85714306e-02, 0., 0., 0., 0., 0., 2.58064508e-01,
          1.93548396e-01, 5.48387110e-01, 0., 0., 0., 0., 0., 0.,
          2.50000000e-01, 6.13636374e-01, 1.36363596e-01, 0., 0. ]
      - [ 0., 0., 0., 0., 2.97297299e-01, 4.05405402e-01, 2.97297299e-01,
          0., 0., 0., 0., 0., 0., 2.97297299e-01, 3.24324310e-01,
          3.24324310e-01, 5.40540591e-02, 0., 0., 0., 0., 0.,
          3.07692289e-01, 4.35897410e-01, 2.56410301e-01, 0., 0., 0., 0.,
          0., 0., 1., 0., 0., 0., 0., 0., 0., 0., 0., 3.24324310e-01,
          5.40540516e-01, 1.35135099e-01, 0., 0., 0., 0., 0., 0.,
          2.89473712e-01, 3.94736886e-01, 3.15789491e-01, 0., 0., 0., 0.,
          0., 0., 2.75000006e-01, 5.50000012e-01, 1.74999997e-01, 0., 0.,
          0., 0., 0., 0., 1., 0., 0., 0., 0. ]
      - [ 0., 0., 0., 0., 2.15384603e-01, 6.92307711e-01, 9.23076868e-02,
          0., 0., 0., 0., 0., 1.66666694e-02, 5.00000000e-01,
          4.83333290e-01, 0., 0., 0., 0., 0., 0., 0., 4.23728794e-01,
          5.25423706e-01, 5.08474596e-02, 0., 0., 0., 0., 0., 0.,
          6.90909088e-01, 1.27272695e-01, 1.81818202e-01, 0., 0., 0., 0.,
          0., 0., 5.16129017e-01, 4.83871013e-01, 0., 0., 0., 0., 0., 0.,
          0., 5.08474588e-01, 4.23728794e-01, 6.77966103e-02, 0., 0., 0.,
          0., 0., 0., 5.00000000e-01, 5.35714291e-02, 0., 4.46428597e-01,
          0., 0., 0., 0., 0., 2.67857105e-01, 2.14285702e-01,
          1.78571403e-01, 3.39285702e-01, 0. ]
      - [ 0., 0., 0., 0., 1.15384601e-01, 1.34615406e-01, 4.03846115e-01,
          2.50000000e-01, 9.61538479e-02, 0., 0., 0., 0., 1.87500000e-01,
          5.83333313e-01, 1.04166701e-01, 1.25000000e-01, 0., 0., 0., 0.,
          0., 4.86486495e-01, 3.51351410e-01, 1.35135099e-01,
          2.70270295e-02, 0., 0., 0., 0., 0., 5.51724076e-01,
          1.37931004e-01, 3.10344785e-01, 0., 0., 0., 0., 0., 0.,
          5.81395328e-01, 3.02325606e-01, 1.16279103e-01, 0., 0., 0., 0.,
          0., 3.50877196e-02, 8.94736826e-01, 7.01754391e-02, 0., 0., 0.,
          0., 0., 0., 0., 1.04477599e-01, 4.47761208e-01, 1.79104507e-01,
          2.53731310e-01, 1.49253700e-02, 0., 0., 0., 0., 8.88888910e-02,
          1.11111097e-01, 3.55555594e-01, 4.22222197e-01, 2.22222209e-02 ]
      - [ 0., 0., 0., 0., 3.80952388e-01, 5.23809612e-01, 9.52380970e-02,
          0., 0., 0., 0., 0., 0., 2.36842096e-01, 3.68420988e-01,
          3.42105299e-01, 5.26315793e-02, 0., 0., 0., 0., 0.,
          2.82051295e-01, 3.84615391e-01, 3.33333313e-01, 0., 0., 0., 0.,
          0., 0., 1., 0., 0., 0., 0., 0., 0., 0., 0., 3.75000000e-01,
          6.00000024e-01, 2.50000004e-02, 0., 0., 0., 0., 0., 0.,
          2.57142901e-01, 4.00000006e-01, 3.14285696e-01, 2.85714306e-02,
          0., 0., 0., 0., 0., 2.82051295e-01, 4.61538494e-01,
          2.56410301e-01, 0., 0., 0., 0., 0., 0., 9.76190388e-01,
          2.38095205e-02, 0., 0., 0. ]
      - [ 0., 0., 0., 0., 6.25000000e-01, 3.75000000e-01, 0., 0., 0., 0.,
          0., 0., 0., 3.85964900e-01, 6.14035130e-01, 0., 0., 0., 0., 0.,
          0., 0., 5.78947425e-01, 2.98245609e-01, 1.22807004e-01, 0., 0.,
          0., 0., 0., 0., 5.34482777e-01, 4.65517312e-01, 0., 0., 0., 0.,
          0., 0., 0., 5.39682627e-01, 4.28571403e-01, 3.17460299e-02, 0.,
          0., 0., 0., 0., 0., 4.82758611e-01, 6.89655170e-02,
          3.44827585e-02, 4.13793087e-01, 0., 0., 0., 0., 0.,
          3.21428597e-01, 1.42857105e-01, 1.25000000e-01, 4.10714298e-01,
          0., 0., 0., 0., 0., 2.03125000e-01, 5.00000000e-01,
          2.96875000e-01, 0., 0. ]
      - [ 0., 0., 0., 0., 3.07692289e-01, 4.35897410e-01, 2.56410301e-01,
          0., 0., 0., 0., 0., 0., 1., 0., 0., 0., 0., 0., 0., 0., 0.,
          3.24324310e-01, 5.40540516e-01, 1.35135099e-01, 0., 0., 0., 0.,
          0., 0., 2.89473712e-01, 3.94736886e-01, 3.15789491e-01, 0., 0.,
          0., 0., 0., 0., 2.75000006e-01, 5.50000012e-01, 1.74999997e-01,
          0., 0., 0., 0., 0., 0., 1., 0., 0., 0., 0., 0., 0., 0., 0.,
          2.97297299e-01, 4.05405402e-01, 2.97297299e-01, 0., 0., 0., 0.,
          0., 0., 2.97297299e-01, 3.24324310e-01, 3.24324310e-01,
          5.40540591e-02, 0. ]
      - [ 0., 0., 0., 0., 1., 0., 0., 0., 0., 0., 0., 0., 0.,
          6.66666687e-01, 3.33333313e-01, 0., 0., 0., 0., 0., 0., 0.,
          8.18181813e-01, 1.81818202e-01, 0., 0., 0., 0., 0., 0., 0.,
          8.38709712e-01, 1.61290303e-01, 0., 0., 0., 0., 0., 0., 0.,
          6.55172408e-01, 3.44827592e-01, 0., 0., 0., 0., 0., 0., 0.,
          5.31250000e-01, 4.37500000e-01, 3.12500000e-02, 0., 0., 0., 0.,
          0., 0., 3.63636404e-01, 4.54545498e-01, 1.51515201e-01,
          3.03030293e-02, 0., 0., 0., 0., 0., 2.66666710e-01,
          2.88888901e-01, 3.33333313e-01, 1.11111097e-01, 0. ]
      - [ 0., 0., 0., 0., 1.87500000e-01, 5.83333313e-01, 1.04166701e-01,
          1.25000000e-01, 0., 0., 0., 0., 0., 4.72222209e-01,
          3.61111104e-01, 1.38888896e-01, 2.77777798e-02, 0., 0., 0., 0.,
          0., 5.35714328e-01, 1.42857105e-01, 3.21428597e-01, 0., 0., 0.,
          0., 0., 0., 5.81395328e-01, 3.02325606e-01, 1.16279103e-01, 0.,
          0., 0., 0., 0., 3.50877196e-02, 8.94736826e-01, 7.01754391e-02,
          0., 0., 0., 0., 0., 0., 0., 1.17647097e-01, 4.41176504e-01,
          1.76470593e-01, 2.50000000e-01, 1.47058796e-02, 0., 0., 0., 0.,
          1.08695596e-01, 1.08695596e-01, 3.47826093e-01, 4.13043499e-01,
          2.17391308e-02, 0., 0., 0., 0., 1.15384601e-01, 1.34615406e-01,
          4.03846115e-01, 2.50000000e-01, 9.61538479e-02 ]
      - [ 0., 0., 0., 0., 2.50000000e-01, 7.50000000e-01, 0., 0., 0., 0.,
          0., 0., 0., 4.33333308e-01, 5.66666722e-01, 0., 0., 0., 0., 0.,
          0., 0., 4.42307711e-01, 4.23076898e-01, 1.34615406e-01, 0., 0.,
          0., 0., 0., 0., 6.66666687e-01, 2.38095194e-01, 9.52380970e-02,
          0., 0., 0., 0., 0., 0., 5.71428597e-01, 4.28571403e-01, 0., 0.,
          0., 0., 0., 0., 0., 5.39682627e-01, 1.26984105e-01,
          1.11111097e-01, 2.22222194e-01, 0., 0., 0., 0., 0.,
          4.19999987e-01, 3.99999991e-02, 5.99999987e-02, 4.79999989e-01,
          0., 0., 0., 0., 0., 2.41935506e-01, 3.06451589e-01,
          2.90322602e-01, 1.61290303e-01, 0. ]
      - [ 0., 0., 0., 2.56410297e-02, 7.69230798e-02, 4.35897410e-01,
          4.61538494e-01, 0., 0., 0., 0., 0., 1.25000000e-01,
          3.33333313e-01, 5.41666687e-01, 0., 0., 0., 0., 0., 0., 0.,
          4.25531901e-02, 4.89361703e-01, 4.68085110e-01, 0., 0., 0., 0.,
          0., 0., 4.34782617e-02, 6.73913121e-01, 2.82608688e-01, 0., 0.,
          0., 0., 0., 2.70833313e-01, 2.29166701e-01, 5.00000000e-01, 0.,
          0., 0., 0., 0., 0., 0., 7.95918286e-01, 2.04081595e-01, 0., 0.,
          0., 0., 0., 0., 0., 5.71428612e-02, 3.42857212e-01,
          6.00000024e-01, 0., 0., 0., 0., 0., 0., 6.06060587e-02,
          3.03030312e-01, 6.36363626e-01, 0., 0. ]
      - [ 0., 0., 0., 0., 4.72222209e-01, 3.61111104e-01, 1.38888896e-01,
          2.77777798e-02, 0., 0., 0., 0., 0., 5.35714328e-01,
          1.42857105e-01, 3.21428597e-01, 0., 0., 0., 0., 0., 0.,
          5.71428597e-01, 3.09523791e-01, 1.19047597e-01, 0., 0., 0., 0.,
          0., 3.50877196e-02, 8.94736826e-01, 7.01754391e-02, 0., 0., 0.,
          0., 0., 0., 0., 1.17647097e-01, 4.41176504e-01, 1.76470593e-01,
          2.50000000e-01, 1.47058796e-02, 0., 0., 0., 0., 1.08695596e-01,
          1.08695596e-01, 3.47826093e-01, 4.13043499e-01, 2.17391308e-02,
          0., 0., 0., 0., 1.15384601e-01, 1.34615406e-01, 4.03846115e-01,
          2.50000000e-01, 9.61538479e-02, 0., 0., 0., 0., 1.87500000e-01,
          5.83333313e-01, 1.04166701e-01, 1.25000000e-01, 0. ]
      - [ 0., 0., 0., 0., 1., 0., 0., 0., 0., 0., 0., 0., 0.,
          3.26086998e-01, 4.78260905e-01, 1.95652202e-01, 0., 0., 0., 0.,
          0., 0., 1.70731694e-01, 4.39024389e-01, 3.17073196e-01,
          7.31707290e-02, 0., 0., 0., 0., 0., 3.33333313e-01,
          2.66666710e-01, 4.00000006e-01, 0., 0., 0., 0., 0., 0.,
          3.00000012e-01, 1.00000001e-01, 5.00000000e-01, 1.00000001e-01,
          0., 0., 0., 0., 0., 3.52941185e-01, 1.17647097e-01,
          4.70588207e-01, 5.88235296e-02, 0., 0., 0., 0., 0.,
          1.95652202e-01, 3.91304314e-01, 3.47826093e-01, 6.52173907e-02,
          0., 0., 0., 0., 0., 2.91666687e-01, 5.00000000e-01,
          2.08333299e-01, 0., 0. ]
   decision_functions:
      -
         sv_count: 44
         rho: -1.2177667548253600e-01
         alpha: [ 1.4312382185068309e+00, 9.7074471414089203e+00,
             9.7074471414089203e+00, 9.7074471414089203e+00,
             4.4613205667112901e+00, 9.7074471414089203e+00,
             9.7074471414089203e+00, 9.7074471414089203e+00,
             9.7074471414089203e+00, 9.7074471414089203e+00,
             9.7074471414089203e+00, 9.7074471414089203e+00,
             9.6792589315623960e+00, 9.7074471414089203e+00,
             9.7074471414089203e+00, 9.7074471414089203e+00,
             9.7074471414089203e+00, 4.9301136653256332e+00,
             4.5133281103438894e-01, 9.7074471414089203e+00,
             9.7074471414089203e+00, 9.7074471414089203e+00,
             8.5211928784750401e-01, 9.7074471414089203e+00,
             9.7074471414089203e+00, 9.7074471414089203e+00,
             9.7074471414089203e+00, -1.7548076808452606e+01,
             -1.7548076808452606e+01, -1.7548076808452606e+01,
             -3.1466326372967818e-01, -1.4816613039304503e+01,
             -1.7548076808452606e+01, -1.7548076808452606e+01,
             -1.0097918174405297e+01, -2.2797411587841281e+00,
             -1.0991489416604310e+01, -1.7548076808452606e+01,
             -1.4405396435182599e+01, -1.1108287286249693e+01,
             -8.6962570997878075e+00, -1.4157327697211713e+01,
             -1.7548076808452606e+01, -1.5957542220147412e+01 ]
         index: [ 0, 1, 2, 3, 4, 5, 6, 7, 8, 9, 10, 11, 12, 13, 14, 15,
             16, 17, 18, 19, 20, 21, 22, 23, 24, 25, 26, 27, 28, 29, 30,
             31, 32, 33, 34, 35, 36, 37, 38, 39, 40, 41, 42, 43 ]
