%YAML:1.0
my_boost_tree: !!opencv-ml-boost-tree
   boosting_type: DiscreteAdaboost
   splitting_criteria: 3
   ntrees: 30
   weight_trimming_rate: 9.4999998807907104e-01
   is_classifier: 1
   var_all: 72
   var_count: 72
   ord_var_count: 72
   cat_var_count: 0
   training_params:
      use_surrogates: 1
      max_categories: 10
      max_depth: 1
      min_sample_count: 10
      cross_validation_folds: 3
      use_1se_rule: 1
      truncate_pruned_tree: 1
      priors: !!opencv-matrix
         rows: 1
         cols: 2
         dt: d
         data: [ 1., 1. ]
   var_type: [ 0, 0, 0, 0, 0, 0, 0, 0, 0, 0, 0, 0, 0, 0, 0, 0, 0, 0, 0,
       0, 0, 0, 0, 0, 0, 0, 0, 0, 0, 0, 0, 0, 0, 0, 0, 0, 0, 0, 0, 0, 0,
       0, 0, 0, 0, 0, 0, 0, 0, 0, 0, 0, 0, 0, 0, 0, 0, 0, 0, 0, 0, 0, 0,
       0, 0, 0, 0, 0, 0, 0, 0, 0 ]
   cat_count: !!opencv-matrix
      rows: 1
      cols: 1
      dt: i
      data: [ 2 ]
   cat_map: !!opencv-matrix
      rows: 1
      cols: 2
      dt: i
      data: [ 0, 1 ]
   trees:
      -
         best_tree_idx: -1
         nodes:
            -
               depth: 0
               sample_count: 73
               value: -1.3523928094442117e+00
               norm_class_idx: 0
               Tn: 0
               complexity: 2
               alpha: 0.
               node_risk: 0.
               tree_risk: 0.
               tree_error: 0.
               splits:
                  - { var:24, quality:7.9452055692672729e-01,
                      le:2.2485630214214325e-01 }
                  - { var:22, quality:6.6391444206237793e-01,
                      gt:2.7343299984931946e-01 }
                  - { var:58, quality:6.4214676618576050e-01,
                      gt:2.8967428207397461e-01 }
                  - { var:39, quality:6.4214676618576050e-01,
                      le:2.9738979414105415e-02 }
                  - { var:60, quality:6.3126289844512939e-01,
                      le:5.6330132484436035e-01 }
                  - { var:31, quality:6.3126289844512939e-01,
                      gt:5.1298707723617554e-02 }
                  - { var:69, quality:6.2037909030914307e-01,
                      le:5.3125000000000000e-01 }
                  - { var:41, quality:6.2037909030914307e-01,
                      le:5.6124997138977051e-01 }
                  - { var:25, quality:6.2037909030914307e-01,
                      le:3.5252645611763000e-02 }
                  - { var:33, quality:6.0949522256851196e-01,
                      le:6.3933199644088745e-01 }
                  - { var:15, quality:6.0949522256851196e-01,
                      le:6.5683233737945557e-01 }
                  - { var:6, quality:6.0949522256851196e-01,
                      le:5.0714284181594849e-01 }
                  - { var:3, quality:6.0949522256851196e-01,
                      le:2.2108839824795723e-02 }
                  - { var:59, quality:5.9861135482788086e-01,
                      le:8.2407402992248535e-01 }
                  - { var:50, quality:5.9861135482788086e-01,
                      le:7.4469494819641113e-01 }
                  - { var:38, quality:5.9861135482788086e-01,
                      le:4.1666671633720398e-02 }
                  - { var:30, quality:5.9861135482788086e-01,
                      le:1.0783860087394714e-01 }
                  - { var:29, quality:5.9861135482788086e-01,
                      le:1.1363635212182999e-01 }
                  - { var:17, quality:5.9861135482788086e-01,
                      le:9.1812670230865479e-02 }
                  - { var:16, quality:5.9861135482788086e-01,
                      le:1.2853774428367615e-01 }
                  - { var:13, quality:5.9861135482788086e-01,
                      gt:4.3015725910663605e-02 }
                  - { var:7, quality:5.9861135482788086e-01,
                      le:9.6212118864059448e-02 }
                  - { var:61, quality:5.8772754669189453e-01,
                      le:2.7440667152404785e-01 }
                  - { var:48, quality:5.8772754669189453e-01,
                      le:3.8820452988147736e-02 }
                  - { var:42, quality:5.8772754669189453e-01,
                      le:4.0100431442260742e-01 }
                  - { var:35, quality:5.8772754669189453e-01,
                      le:6.6734075546264648e-02 }
                  - { var:34, quality:5.8772754669189453e-01,
                      le:4.7449365258216858e-02 }
                  - { var:12, quality:5.8772754669189453e-01,
                      le:1.7948720604181290e-02 }
            -
               depth: 1
               sample_count: 54
               value: -1.3523928094442117e+00
               norm_class_idx: 0
               Tn: 2147483647
               complexity: 1
               alpha: 0.
               node_risk: 0.
               tree_risk: 0.
               tree_error: 0.
            -
               depth: 1
               sample_count: 19
               value: 1.3523928094442117e+00
               norm_class_idx: 1
               Tn: 2147483647
               complexity: 1
               alpha: 0.
               node_risk: 0.
               tree_risk: 0.
               tree_error: 0.
      -
         best_tree_idx: -1
         nodes:
            -
               depth: 0
               sample_count: 73
               value: -9.8821714941161554e-01
               norm_class_idx: 0
               Tn: 0
               complexity: 2
               alpha: 0.
               node_risk: 0.
               tree_risk: 0.
               tree_error: 0.
               splits:
                  - { var:67, quality:7.2873562574386597e-01,
                      le:3.2731553912162781e-01 }
                  - { var:68, quality:6.5334916114807129e-01,
                      gt:1.0101009905338287e-01 }
                  - { var:32, quality:6.1649358272552490e-01,
                      gt:5.2666228264570236e-02 }
                  - { var:69, quality:6.1021137237548828e-01,
                      gt:1.8706295639276505e-02 }
                  - { var:31, quality:6.1021137237548828e-01,
                      le:9.0963256359100342e-01 }
                  - { var:58, quality:5.8508253097534180e-01,
                      le:5.0806450843811035e-01 }
                  - { var:22, quality:5.7335579395294189e-01,
                      le:8.7383902072906494e-01 }
                  - { var:23, quality:5.6707358360290527e-01,
                      gt:2.6315789669752121e-02 }
                  - { var:53, quality:5.3566259145736694e-01,
                      le:3.7226773798465729e-02 }
                  - { var:14, quality:5.2393579483032227e-01,
                      gt:2.0833335816860199e-02 }
                  - { var:13, quality:5.2393579483032227e-01,
                      le:9.6875000000000000e-01 }
                  - { var:60, quality:5.2309817075729370e-01,
                      gt:4.9999997019767761e-02 }
                  - { var:41, quality:5.2142286300659180e-01,
                      le:5.7472825050354004e-01 }
                  - { var:5, quality:5.1849120855331421e-01,
                      gt:3.2240435481071472e-01 }
                  - { var:59, quality:5.1681596040725708e-01,
                      gt:3.8181819021701813e-02 }
                  - { var:44, quality:5.1681596040725708e-01,
                      le:1.8464051187038422e-02 }
                  - { var:40, quality:5.1681596040725708e-01,
                      le:9.9038457870483398e-01 }
                  - { var:50, quality:5.0508916378021240e-01,
                      gt:4.0408164262771606e-02 }
                  - { var:62, quality:4.9796935915946960e-01,
                      le:1.0751368105411530e-01 }
                  - { var:43, quality:4.9796935915946960e-01,
                      le:3.1234869360923767e-01 }
                  - { var:16, quality:4.9796935915946960e-01,
                      le:1.6865080222487450e-02 }
                  - { var:33, quality:4.9587529897689819e-01,
                      gt:5.8301884680986404e-02 }
                  - { var:15, quality:4.9252477288246155e-01,
                      le:2.6630434393882751e-01 }
                  - { var:71, quality:4.9168714880943298e-01,
                      le:2.5816990062594414e-02 }
                  - { var:49, quality:4.8624256253242493e-01,
                      le:9.4736838340759277e-01 }
                  - { var:70, quality:4.8540496826171875e-01,
                      le:4.5111107826232910e-01 }
                  - { var:34, quality:4.8540496826171875e-01,
                      le:2.3516950011253357e-01 }
                  - { var:24, quality:4.8247325420379639e-01,
                      gt:8.5336536169052124e-02 }
                  - { var:4, quality:4.8247325420379639e-01,
                      le:3.1009614467620850e-01 }
                  - { var:8, quality:4.7996038198471069e-01,
                      le:3.3649504184722900e-02 }
                  - { var:66, quality:4.7912272810935974e-01,
                      le:7.3419623076915741e-02 }
                  - { var:35, quality:4.7912272810935974e-01,
                      le:1.4347825944423676e-01 }
                  - { var:21, quality:4.7912272810935974e-01,
                      le:2.8654970228672028e-02 }
                  - { var:7, quality:4.7912272810935974e-01,
                      le:5.1956813782453537e-02 }
            -
               depth: 1
               sample_count: 38
               value: 9.8821714941161554e-01
               norm_class_idx: 1
               Tn: 2147483647
               complexity: 1
               alpha: 0.
               node_risk: 0.
               tree_risk: 0.
               tree_error: 0.
            -
               depth: 1
               sample_count: 35
               value: -9.8821714941161554e-01
               norm_class_idx: 0
               Tn: 2147483647
               complexity: 1
               alpha: 0.
               node_risk: 0.
               tree_risk: 0.
               tree_error: 0.
      -
         best_tree_idx: -1
         nodes:
            -
               depth: 0
               sample_count: 73
               value: -9.9650464895189117e-01
               norm_class_idx: 0
               Tn: 0
               complexity: 2
               alpha: 0.
               node_risk: 0.
               tree_risk: 0.
               tree_error: 0.
               splits:
                  - { var:59, quality:7.3037081956863403e-01,
                      le:3.9009660482406616e-01 }
                  - { var:5, quality:5.3183066844940186e-01,
                      le:7.7155172824859619e-01 }
                  - { var:14, quality:5.2319061756134033e-01,
                      le:6.4397412538528442e-01 }
                  - { var:13, quality:5.2041798830032349e-01,
                      gt:3.1600829958915710e-01 }
                  - { var:23, quality:5.1668375730514526e-01,
                      le:5.3056901693344116e-01 }
                  - { var:60, quality:5.0830000638961792e-01,
                      gt:3.2575756311416626e-01 }
                  - { var:50, quality:5.0352114439010620e-01,
                      le:6.8940675258636475e-01 }
                  - { var:4, quality:4.9798563122749329e-01,
                      gt:2.1114060282707214e-01 }
                  - { var:41, quality:4.9410253763198853e-01,
                      le:5.9365081787109375e-01 }
                  - { var:32, quality:4.9410253763198853e-01,
                      le:7.2500002384185791e-01 }
                  - { var:69, quality:4.8727592825889587e-01,
                      gt:5.7713650166988373e-02 }
                  - { var:16, quality:4.8404443264007568e-01,
                      le:3.5628020763397217e-02 }
                  - { var:68, quality:4.8263615369796753e-01,
                      le:7.9649388790130615e-01 }
                  - { var:25, quality:4.7889214754104614e-01,
                      le:1.3157894834876060e-02 }
                  - { var:42, quality:4.7675901651382446e-01,
                      le:5.9453785419464111e-01 }
                  - { var:40, quality:4.7243896126747131e-01,
                      gt:5.7983197271823883e-02 }
                  - { var:67, quality:4.7114783525466919e-01,
                      le:9.3040287494659424e-01 }
                  - { var:49, quality:4.6696692705154419e-01,
                      le:8.9417690038681030e-01 }
                  - { var:7, quality:4.6161210536956787e-01,
                      le:2.1666663885116577e-01 }
                  - { var:12, quality:4.6083348989486694e-01,
                      le:1.9791665673255920e-01 }
                  - { var:21, quality:4.5786809921264648e-01,
                      le:2.8654970228672028e-02 }
                  - { var:51, quality:4.5634263753890991e-01,
                      gt:3.2866381108760834e-02 }
                  - { var:48, quality:4.5432662963867188e-01,
                      le:5.5174902081489563e-02 }
                  - { var:33, quality:4.5219349861145020e-01,
                      le:5.0833332538604736e-01 }
                  - { var:43, quality:4.5058262348175049e-01,
                      le:3.3949154615402222e-01 }
                  - { var:8, quality:4.5000663399696350e-01,
                      le:9.2719778418540955e-02 }
                  - { var:11, quality:4.4922804832458496e-01,
                      le:6.5217398107051849e-02 }
                  - { var:34, quality:4.4626262784004211e-01,
                      le:2.3516950011253357e-01 }
                  - { var:58, quality:4.4601851701736450e-01,
                      gt:3.9819005131721497e-01 }
                  - { var:70, quality:4.4568657875061035e-01,
                      le:3.8418805599212646e-01 }
                  - { var:31, quality:4.4490802288055420e-01,
                      gt:3.0834909528493881e-02 }
                  - { var:57, quality:4.4348996877670288e-01,
                      le:1.2820514850318432e-02 }
                  - { var:52, quality:4.4196456670761108e-01,
                      gt:5.2272725850343704e-02 }
                  - { var:66, quality:4.4194257259368896e-01,
                      le:1.0416665114462376e-02 }
            -
               depth: 1
               sample_count: 47
               value: -9.9650464895189117e-01
               norm_class_idx: 0
               Tn: 2147483647
               complexity: 1
               alpha: 0.
               node_risk: 0.
               tree_risk: 0.
               tree_error: 0.
            -
               depth: 1
               sample_count: 26
               value: 9.9650464895189117e-01
               norm_class_idx: 1
               Tn: 2147483647
               complexity: 1
               alpha: 0.
               node_risk: 0.
               tree_risk: 0.
               tree_error: 0.
      -
         best_tree_idx: -1
         nodes:
            -
               depth: 0
               sample_count: 73
               value: -1.2424001573409187e+00
               norm_class_idx: 0
               Tn: 0
               complexity: 2
               alpha: 0.
               node_risk: 0.
               tree_risk: 0.
               tree_error: 0.
               splits:
                  - { var:61, quality:7.7598154544830322e-01,
                      le:2.3437500000000000e-01 }
                  - { var:70, quality:7.0226842164993286e-01,
                      le:1.1931820213794708e-01 }
                  - { var:52, quality:6.8215119838714600e-01,
                      le:2.1111109852790833e-01 }
                  - { var:62, quality:6.4897143840789795e-01,
                      le:7.4626849964261055e-03 }
                  - { var:59, quality:6.3451677560806274e-01,
                      gt:2.3596620559692383e-01 }
                  - { var:8, quality:6.1566388607025146e-01,
                      le:9.2719778418540955e-02 }
                  - { var:53, quality:6.1443018913269043e-01,
                      le:7.3529398068785667e-03 }
                  - { var:25, quality:6.0937970876693726e-01,
                      le:2.6671409606933594e-02 }
                  - { var:71, quality:6.0888367891311646e-01,
                      le:1.1094850301742554e-01 }
                  - { var:16, quality:6.0665655136108398e-01,
                      le:9.8863631486892700e-02 }
            -
               depth: 1
               sample_count: 65
               value: -1.2424001573409187e+00
               norm_class_idx: 0
               Tn: 2147483647
               complexity: 1
               alpha: 0.
               node_risk: 0.
               tree_risk: 0.
               tree_error: 0.
            -
               depth: 1
               sample_count: 8
               value: 1.2424001573409187e+00
               norm_class_idx: 1
               Tn: 2147483647
               complexity: 1
               alpha: 0.
               node_risk: 0.
               tree_risk: 0.
               tree_error: 0.
      -
         best_tree_idx: -1
         nodes:
            -
               depth: 0
               sample_count: 73
               value: 1.3289821236290491e+00
               norm_class_idx: 1
               Tn: 0
               complexity: 2
               alpha: 0.
               node_risk: 0.
               tree_risk: 0.
               tree_error: 0.
               splits:
                  - { var:42, quality:7.9067224264144897e-01,
                      le:1.8034054338932037e-01 }
                  - { var:51, quality:6.7826747894287109e-01,
                      le:3.7218889594078064e-01 }
                  - { var:40, quality:6.7522239685058594e-01,
                      gt:9.6527799963951111e-02 }
                  - { var:34, quality:6.5897625684738159e-01,
                      le:4.2727276682853699e-02 }
                  - { var:6, quality:6.5589445829391479e-01,
                      le:2.5820514559745789e-01 }
                  - { var:49, quality:6.5581971406936646e-01,
                      gt:8.8461540639400482e-02 }
                  - { var:33, quality:6.5530520677566528e-01,
                      le:3.1698566675186157e-01 }
                  - { var:21, quality:6.4292609691619873e-01,
                      le:1.9638039171695709e-02 }
                  - { var:43, quality:6.4040493965148926e-01,
                      le:2.4624625220894814e-02 }
                  - { var:31, quality:6.3402235507965088e-01,
                      gt:3.6962367594242096e-02 }
                  - { var:15, quality:6.3220328092575073e-01,
                      le:3.7315875291824341e-01 }
                  - { var:4, quality:6.2533318996429443e-01,
                      gt:5.0310559570789337e-02 }
                  - { var:13, quality:6.2372356653213501e-01,
                      gt:6.8783067166805267e-02 }
                  - { var:7, quality:6.1999362707138062e-01,
                      le:3.5165484994649887e-02 }
                  - { var:24, quality:6.1901038885116577e-01,
                      le:6.9297659397125244e-01 }
                  - { var:23, quality:6.1238938570022583e-01,
                      gt:1.0651627182960510e-01 }
                  - { var:57, quality:6.1032122373580933e-01,
                      le:7.6949149370193481e-02 }
                  - { var:12, quality:6.1032122373580933e-01,
                      le:1.9791665673255920e-01 }
                  - { var:44, quality:6.0670405626296997e-01,
                      le:1.8464051187038422e-02 }
                  - { var:22, quality:6.0312348604202271e-01,
                      gt:3.6661211401224136e-02 }
                  - { var:14, quality:6.0100263357162476e-01,
                      gt:6.7460313439369202e-02 }
                  - { var:35, quality:5.9966319799423218e-01,
                      le:6.6734075546264648e-02 }
                  - { var:67, quality:5.9530925750732422e-01,
                      gt:2.4305555969476700e-02 }
                  - { var:60, quality:5.9348088502883911e-01,
                      le:4.3727272748947144e-01 }
                  - { var:25, quality:5.8744311332702637e-01,
                      le:5.8324493467807770e-02 }
                  - { var:16, quality:5.8700692653656006e-01,
                      le:5.8941923081874847e-02 }
                  - { var:71, quality:5.8559536933898926e-01,
                      le:1.0164837539196014e-01 }
                  - { var:53, quality:5.8322167396545410e-01,
                      le:3.7226773798465729e-02 }
                  - { var:8, quality:5.8114385604858398e-01,
                      le:1.8350169062614441e-02 }
            -
               depth: 1
               sample_count: 48
               value: 1.3289821236290491e+00
               norm_class_idx: 1
               Tn: 2147483647
               complexity: 1
               alpha: 0.
               node_risk: 0.
               tree_risk: 0.
               tree_error: 0.
            -
               depth: 1
               sample_count: 25
               value: -1.3289821236290491e+00
               norm_class_idx: 0
               Tn: 2147483647
               complexity: 1
               alpha: 0.
               node_risk: 0.
               tree_risk: 0.
               tree_error: 0.
      -
         best_tree_idx: -1
         nodes:
            -
               depth: 0
               sample_count: 62
               value: 1.0832455113981037e+00
               norm_class_idx: 1
               Tn: 0
               complexity: 2
               alpha: 0.
               node_risk: 0.
               tree_risk: 0.
               tree_error: 0.
               splits:
                  - { var:50, quality:7.3772555589675903e-01,
                      le:3.8486844301223755e-01 }
                  - { var:49, quality:5.6174498796463013e-01,
                      gt:3.1531530618667603e-01 }
                  - { var:13, quality:5.4494053125381470e-01,
                      gt:3.2520565390586853e-01 }
                  - { var:15, quality:5.3248357772827148e-01,
                      le:1.3360530138015747e-01 }
                  - { var:67, quality:5.2004098892211914e-01,
                      le:2.1980674564838409e-01 }
                  - { var:7, quality:5.0512039661407471e-01,
                      le:8.7878786027431488e-02 }
                  - { var:51, quality:5.0381088256835938e-01,
                      le:6.7231640219688416e-02 }
                  - { var:33, quality:5.0275701284408569e-01,
                      le:5.0833332538604736e-01 }
                  - { var:31, quality:4.9360620975494385e-01,
                      gt:3.6962367594242096e-02 }
                  - { var:41, quality:4.9169003963470459e-01,
                      le:5.7472825050354004e-01 }
                  - { var:42, quality:4.9126273393630981e-01,
                      le:7.7376566827297211e-02 }
                  - { var:40, quality:4.9019989371299744e-01,
                      gt:7.3856212198734283e-02 }
                  - { var:24, quality:4.8445534706115723e-01,
                      le:6.9297659397125244e-01 }
                  - { var:16, quality:4.8140850663185120e-01,
                      le:7.9365102574229240e-03 }
                  - { var:58, quality:4.7911795973777771e-01,
                      le:1.6196718811988831e-01 }
                  - { var:32, quality:4.7689160704612732e-01,
                      gt:1.8481180071830750e-01 }
                  - { var:4, quality:4.7098660469055176e-01,
                      gt:2.4404759705066681e-01 }
                  - { var:23, quality:4.6519511938095093e-01,
                      gt:2.0548909902572632e-01 }
                  - { var:68, quality:4.5907995104789734e-01,
                      gt:2.8960573673248291e-01 }
                  - { var:69, quality:4.5288330316543579e-01,
                      gt:5.3125000000000000e-01 }
                  - { var:34, quality:4.5171400904655457e-01,
                      le:4.7449365258216858e-02 }
                  - { var:6, quality:4.5053321123123169e-01,
                      le:1.9259259104728699e-01 }
                  - { var:39, quality:4.4852739572525024e-01,
                      gt:2.0007999613881111e-02 }
                  - { var:22, quality:4.4556871056556702e-01,
                      gt:4.3782049417495728e-01 }
                  - { var:14, quality:4.4320946931838989e-01,
                      le:5.2579369395971298e-02 }
                  - { var:59, quality:4.4264498353004456e-01,
                      le:3.7186378240585327e-01 }
                  - { var:5, quality:4.4228371977806091e-01,
                      gt:4.2428570985794067e-01 }
                  - { var:48, quality:4.4108113646507263e-01,
                      gt:2.4127904325723648e-02 }
                  - { var:43, quality:4.3409541249275208e-01,
                      le:1.3823530077934265e-01 }
                  - { var:70, quality:4.3309280276298523e-01,
                      le:7.4866309762001038e-02 }
                  - { var:44, quality:4.2223173379898071e-01,
                      le:3.2765738666057587e-02 }
                  - { var:57, quality:4.2056500911712646e-01,
                      gt:1.2820514850318432e-02 }
                  - { var:52, quality:4.1910794377326965e-01,
                      gt:2.1111109852790833e-01 }
                  - { var:61, quality:4.1807419061660767e-01,
                      gt:3.1280543655157089e-02 }
                  - { var:12, quality:4.1514754295349121e-01,
                      gt:2.0032050088047981e-02 }
                  - { var:60, quality:4.1459017992019653e-01,
                      gt:3.4057968854904175e-01 }
                  - { var:17, quality:4.1368564963340759e-01,
                      le:9.1812670230865479e-02 }
                  - { var:3, quality:4.0354415774345398e-01,
                      gt:2.0238094031810760e-02 }
            -
               depth: 1
               sample_count: 37
               value: -1.0832455113981037e+00
               norm_class_idx: 0
               Tn: 2147483647
               complexity: 1
               alpha: 0.
               node_risk: 0.
               tree_risk: 0.
               tree_error: 0.
            -
               depth: 1
               sample_count: 25
               value: 1.0832455113981037e+00
               norm_class_idx: 1
               Tn: 2147483647
               complexity: 1
               alpha: 0.
               node_risk: 0.
               tree_risk: 0.
               tree_error: 0.
      -
         best_tree_idx: -1
         nodes:
            -
               depth: 0
               sample_count: 58
               value: 9.6950757169658008e-01
               norm_class_idx: 1
               Tn: 0
               complexity: 2
               alpha: 0.
               node_risk: 0.
               tree_risk: 0.
               tree_error: 0.
               splits:
                  - { var:24, quality:6.8689256906509399e-01,
                      le:9.6153849735856056e-03 }
                  - { var:60, quality:5.9049463272094727e-01,
                      le:1.1024305224418640e-01 }
                  - { var:58, quality:5.8024692535400391e-01,
                      gt:3.3666664361953735e-01 }
                  - { var:22, quality:5.7396173477172852e-01,
                      gt:7.2456896305084229e-01 }
                  - { var:14, quality:5.4948443174362183e-01,
                      gt:7.4537038803100586e-01 }
                  - { var:59, quality:5.2118313312530518e-01,
                      le:3.8181819021701813e-02 }
                  - { var:68, quality:5.1892286539077759e-01,
                      gt:6.8650794029235840e-01 }
                  - { var:4, quality:5.1859140396118164e-01,
                      le:9.9358975887298584e-02 }
                  - { var:23, quality:5.1239722967147827e-01,
                      le:2.6315789669752121e-02 }
                  - { var:40, quality:5.1051837205886841e-01,
                      gt:6.1828386783599854e-01 }
                  - { var:5, quality:5.0806009769439697e-01,
                      gt:8.4791666269302368e-01 }
                  - { var:69, quality:4.9799597263336182e-01,
                      le:8.4692046046257019e-02 }
                  - { var:42, quality:4.9476650357246399e-01,
                      gt:6.0000002384185791e-01 }
                  - { var:21, quality:4.9128192663192749e-01,
                      gt:9.4339596107602119e-03 }
                  - { var:15, quality:4.9058198928833008e-01,
                      le:8.8932812213897705e-02 }
                  - { var:12, quality:4.8900219798088074e-01,
                      gt:1.9791665673255920e-01 }
                  - { var:48, quality:4.8628708720207214e-01,
                      gt:5.5174902081489563e-02 }
                  - { var:51, quality:4.8572090268135071e-01,
                      le:3.2866381108760834e-02 }
                  - { var:49, quality:4.8410493135452271e-01,
                      gt:4.8331481218338013e-01 }
                  - { var:41, quality:4.7868958115577698e-01,
                      gt:6.7647063732147217e-01 }
                  - { var:53, quality:4.7289571166038513e-01,
                      gt:3.7226773798465729e-02 }
                  - { var:32, quality:4.7275847196578979e-01,
                      le:1.7241379246115685e-02 }
                  - { var:70, quality:4.7262197732925415e-01,
                      gt:4.5111107826232910e-01 }
                  - { var:67, quality:4.7223651409149170e-01,
                      le:5.9149183332920074e-02 }
                  - { var:31, quality:4.6976643800735474e-01,
                      gt:9.8275864124298096e-01 }
                  - { var:50, quality:4.6974873542785645e-01,
                      le:4.0408164262771606e-02 }
                  - { var:13, quality:4.6760228276252747e-01,
                      gt:6.6287875175476074e-01 }
                  - { var:52, quality:4.6624946594238281e-01,
                      le:2.5396825745701790e-02 }
                  - { var:62, quality:4.6391966938972473e-01,
                      gt:1.4807692170143127e-01 }
                  - { var:44, quality:4.6391966938972473e-01,
                      gt:6.7994937300682068e-02 }
                  - { var:71, quality:4.6092763543128967e-01,
                      gt:2.3010431230068207e-01 }
                  - { var:66, quality:4.6070793271064758e-01,
                      gt:1.0416665114462376e-02 }
                  - { var:11, quality:4.6070793271064758e-01,
                      gt:6.5217398107051849e-02 }
                  - { var:7, quality:4.5801845192909241e-01,
                      gt:2.6059320569038391e-01 }
                  - { var:35, quality:4.5793563127517700e-01,
                      gt:1.4347825944423676e-01 }
                  - { var:8, quality:4.5793563127517700e-01,
                      gt:2.2080418467521667e-01 }
            -
               depth: 1
               sample_count: 30
               value: -9.6950757169658008e-01
               norm_class_idx: 0
               Tn: 2147483647
               complexity: 1
               alpha: 0.
               node_risk: 0.
               tree_risk: 0.
               tree_error: 0.
            -
               depth: 1
               sample_count: 28
               value: 9.6950757169658008e-01
               norm_class_idx: 1
               Tn: 2147483647
               complexity: 1
               alpha: 0.
               node_risk: 0.
               tree_risk: 0.
               tree_error: 0.
      -
         best_tree_idx: -1
         nodes:
            -
               depth: 0
               sample_count: 59
               value: -1.0896608179578373e+00
               norm_class_idx: 0
               Tn: 0
               complexity: 2
               alpha: 0.
               node_risk: 0.
               tree_risk: 0.
               tree_error: 0.
               splits:
                  - { var:61, quality:7.3030912876129150e-01,
                      le:2.5816990062594414e-02 }
                  - { var:4, quality:5.8303952217102051e-01,
                      le:3.5016030073165894e-01 }
                  - { var:40, quality:5.7956969738006592e-01,
                      le:5.0423729419708252e-01 }
                  - { var:6, quality:5.7336938381195068e-01,
                      gt:1.5277779102325439e-01 }
                  - { var:70, quality:5.6371194124221802e-01,
                      le:9.4634875655174255e-02 }
                  - { var:31, quality:5.5510115623474121e-01,
                      le:3.2882881164550781e-01 }
                  - { var:52, quality:5.3224670886993408e-01,
                      le:2.1111109852790833e-01 }
                  - { var:68, quality:5.3215789794921875e-01,
                      le:7.3940682411193848e-01 }
                  - { var:5, quality:5.3144264221191406e-01,
                      gt:6.3492059707641602e-02 }
                  - { var:48, quality:5.2867597341537476e-01,
                      le:5.5174902081489563e-02 }
                  - { var:22, quality:5.2450454235076904e-01,
                      le:3.7853103876113892e-01 }
                  - { var:49, quality:5.2258664369583130e-01,
                      le:2.9499009251594543e-01 }
                  - { var:59, quality:5.2101039886474609e-01,
                      le:7.2129631042480469e-01 }
                  - { var:41, quality:5.1511323451995850e-01,
                      gt:4.5971870422363281e-01 }
                  - { var:50, quality:5.1247125864028931e-01,
                      gt:2.0373569428920746e-01 }
                  - { var:14, quality:5.0856077671051025e-01,
                      le:7.4537038803100586e-01 }
                  - { var:24, quality:5.0778484344482422e-01,
                      gt:1.3487525284290314e-01 }
                  - { var:25, quality:4.9762603640556335e-01,
                      le:2.6671409606933594e-02 }
                  - { var:13, quality:4.9496719241142273e-01,
                      le:1.9727888703346252e-01 }
                  - { var:69, quality:4.9434125423431396e-01,
                      gt:3.7412589788436890e-01 }
                  - { var:62, quality:4.9341732263565063e-01,
                      le:3.8518518209457397e-02 }
                  - { var:23, quality:4.9092599749565125e-01,
                      le:7.4547553062438965e-01 }
                  - { var:60, quality:4.8420929908752441e-01,
                      gt:1.5909095108509064e-01 }
                  - { var:35, quality:4.8247939348220825e-01,
                      le:9.4339596107602119e-03 }
                  - { var:21, quality:4.8047634959220886e-01,
                      le:2.1315190941095352e-02 }
                  - { var:8, quality:4.7766566276550293e-01,
                      le:5.2168026566505432e-02 }
                  - { var:71, quality:4.7354614734649658e-01,
                      le:1.1094850301742554e-01 }
                  - { var:43, quality:4.7196385264396667e-01,
                      le:1.9761028885841370e-01 }
                  - { var:53, quality:4.7112792730331421e-01,
                      le:3.5050505399703979e-01 }
                  - { var:7, quality:4.7090917825698853e-01,
                      le:2.1666663885116577e-01 }
                  - { var:58, quality:4.7017830610275269e-01,
                      le:3.5528761148452759e-01 }
                  - { var:44, quality:4.6896615624427795e-01,
                      le:1.4838710427284241e-01 }
            -
               depth: 1
               sample_count: 38
               value: -1.0896608179578373e+00
               norm_class_idx: 0
               Tn: 2147483647
               complexity: 1
               alpha: 0.
               node_risk: 0.
               tree_risk: 0.
               tree_error: 0.
            -
               depth: 1
               sample_count: 21
               value: 1.0896608179578373e+00
               norm_class_idx: 1
               Tn: 2147483647
               complexity: 1
               alpha: 0.
               node_risk: 0.
               tree_risk: 0.
               tree_error: 0.
      -
         best_tree_idx: -1
         nodes:
            -
               depth: 0
               sample_count: 49
               value: 7.8691809376150701e-01
               norm_class_idx: 1
               Tn: 0
               complexity: 2
               alpha: 0.
               node_risk: 0.
               tree_risk: 0.
               tree_error: 0.
               splits:
                  - { var:69, quality:6.7666512727737427e-01,
                      le:3.4604418277740479e-01 }
                  - { var:39, quality:5.6414836645126343e-01,
                      le:2.0007999613881111e-02 }
                  - { var:48, quality:5.6405359506607056e-01,
                      le:1.1627905070781708e-02 }
                  - { var:67, quality:5.5271923542022705e-01,
                      gt:9.0740740299224854e-02 }
                  - { var:58, quality:5.5264210700988770e-01,
                      gt:8.4757834672927856e-02 }
                  - { var:12, quality:5.4890602827072144e-01,
                      le:6.5862715244293213e-02 }
                  - { var:6, quality:5.3639143705368042e-01,
                      le:4.1203704476356506e-01 }
                  - { var:51, quality:5.3457283973693848e-01,
                      le:4.1025638580322266e-01 }
                  - { var:60, quality:5.3335881233215332e-01,
                      le:5.8787882328033447e-01 }
                  - { var:3, quality:5.3335881233215332e-01,
                      le:2.0238094031810760e-02 }
                  - { var:31, quality:5.2970117330551147e-01,
                      gt:1.6432225704193115e-01 }
                  - { var:4, quality:5.2812731266021729e-01,
                      gt:8.0128207802772522e-02 }
                  - { var:24, quality:5.2436894178390503e-01,
                      le:2.6153850555419922e-01 }
                  - { var:16, quality:5.1141643524169922e-01,
                      le:9.8863631486892700e-02 }
                  - { var:42, quality:5.1114231348037720e-01,
                      le:5.3571426868438721e-01 }
                  - { var:17, quality:5.0728595256805420e-01,
                      le:9.1812670230865479e-02 }
                  - { var:30, quality:5.0355678796768188e-01,
                      le:9.1905921697616577e-02 }
                  - { var:21, quality:5.0045639276504517e-01,
                      le:1.9638039171695709e-02 }
                  - { var:35, quality:4.9559506773948669e-01,
                      le:5.2912220358848572e-02 }
                  - { var:22, quality:4.9455854296684265e-01,
                      gt:6.1188817024230957e-02 }
                  - { var:57, quality:4.8169669508934021e-01,
                      le:7.6949149370193481e-02 }
                  - { var:49, quality:4.8100021481513977e-01,
                      gt:1.0434779524803162e-01 }
                  - { var:40, quality:4.7392308712005615e-01,
                      gt:3.3482145518064499e-02 }
                  - { var:41, quality:4.7226634621620178e-01,
                      le:5.6124997138977051e-01 }
                  - { var:32, quality:4.7100213170051575e-01,
                      le:6.0311448574066162e-01 }
                  - { var:8, quality:4.6621909737586975e-01,
                      le:7.5854703783988953e-02 }
            -
               depth: 1
               sample_count: 39
               value: 7.8691809376150701e-01
               norm_class_idx: 1
               Tn: 2147483647
               complexity: 1
               alpha: 0.
               node_risk: 0.
               tree_risk: 0.
               tree_error: 0.
            -
               depth: 1
               sample_count: 10
               value: -7.8691809376150701e-01
               norm_class_idx: 0
               Tn: 2147483647
               complexity: 1
               alpha: 0.
               node_risk: 0.
               tree_risk: 0.
               tree_error: 0.
      -
         best_tree_idx: -1
         nodes:
            -
               depth: 0
               sample_count: 60
               value: -8.3850822058967089e-01
               norm_class_idx: 0
               Tn: 0
               complexity: 2
               alpha: 0.
               node_risk: 0.
               tree_risk: 0.
               tree_error: 0.
               splits:
                  - { var:22, quality:6.8274933099746704e-01,
                      le:2.4509049952030182e-01 }
                  - { var:60, quality:6.0069400072097778e-01,
                      gt:5.0948762893676758e-01 }
                  - { var:24, quality:6.0069400072097778e-01,
                      gt:3.8257575035095215e-01 }
                  - { var:32, quality:5.9525507688522339e-01,
                      gt:5.4110360145568848e-01 }
                  - { var:31, quality:5.9510827064514160e-01,
                      le:5.1298707723617554e-02 }
                  - { var:4, quality:5.8432251214981079e-01,
                      le:2.1114060282707214e-01 }
                  - { var:39, quality:5.7105588912963867e-01,
                      gt:1.9419305026531219e-02 }
                  - { var:58, quality:5.6965833902359009e-01,
                      le:2.0551839470863342e-01 }
                  - { var:13, quality:5.6752872467041016e-01,
                      le:9.6153840422630310e-02 }
                  - { var:67, quality:5.6187081336975098e-01,
                      le:7.6702505350112915e-02 }
                  - { var:3, quality:5.4643577337265015e-01,
                      gt:8.3333346992731094e-03 }
                  - { var:69, quality:5.4593527317047119e-01,
                      gt:5.3125000000000000e-01 }
                  - { var:6, quality:5.4228258132934570e-01,
                      gt:4.3910259008407593e-01 }
                  - { var:40, quality:5.4171538352966309e-01,
                      le:2.7475488185882568e-01 }
                  - { var:12, quality:5.3499191999435425e-01,
                      gt:3.0824828892946243e-02 }
                  - { var:33, quality:5.2564793825149536e-01,
                      gt:3.9230769872665405e-01 }
                  - { var:15, quality:5.2220916748046875e-01,
                      gt:3.5190370678901672e-01 }
                  - { var:23, quality:5.1715123653411865e-01,
                      gt:7.4547553062438965e-01 }
                  - { var:48, quality:5.0831258296966553e-01,
                      gt:2.4127904325723648e-02 }
                  - { var:5, quality:5.0728011131286621e-01,
                      gt:7.0329666137695312e-01 }
                  - { var:41, quality:4.9004438519477844e-01,
                      gt:6.2407028675079346e-01 }
                  - { var:70, quality:4.8802620172500610e-01,
                      le:8.9285699650645256e-03 }
                  - { var:50, quality:4.8729184269905090e-01,
                      gt:6.2934780120849609e-01 }
                  - { var:49, quality:4.8409739136695862e-01,
                      le:1.5476191043853760e-01 }
                  - { var:14, quality:4.8387476801872253e-01,
                      gt:5.4110360145568848e-01 }
                  - { var:51, quality:4.7790744900703430e-01,
                      gt:4.6606335043907166e-01 }
                  - { var:42, quality:4.7345784306526184e-01,
                      gt:3.8366013765335083e-01 }
                  - { var:68, quality:4.7224569320678711e-01,
                      gt:8.8606679439544678e-01 }
                  - { var:38, quality:4.7201770544052124e-01,
                      gt:4.1666671633720398e-02 }
                  - { var:30, quality:4.7201770544052124e-01,
                      gt:9.1905921697616577e-02 }
                  - { var:29, quality:4.7201770544052124e-01,
                      gt:1.1363635212182999e-01 }
                  - { var:59, quality:4.5922276377677917e-01,
                      gt:7.2129631042480469e-01 }
                  - { var:25, quality:4.5518174767494202e-01,
                      gt:5.0098881125450134e-02 }
                  - { var:34, quality:4.5414954423904419e-01,
                      gt:4.7449365258216858e-02 }
                  - { var:44, quality:4.5272618532180786e-01,
                      gt:3.2765738666057587e-02 }
            -
               depth: 1
               sample_count: 9
               value: 8.3850822058967089e-01
               norm_class_idx: 1
               Tn: 2147483647
               complexity: 1
               alpha: 0.
               node_risk: 0.
               tree_risk: 0.
               tree_error: 0.
            -
               depth: 1
               sample_count: 51
               value: -8.3850822058967089e-01
               norm_class_idx: 0
               Tn: 2147483647
               complexity: 1
               alpha: 0.
               node_risk: 0.
               tree_risk: 0.
               tree_error: 0.
      -
         best_tree_idx: -1
         nodes:
            -
               depth: 0
               sample_count: 49
               value: 8.3332900264481413e-01
               norm_class_idx: 1
               Tn: 0
               complexity: 2
               alpha: 0.
               node_risk: 0.
               tree_risk: 0.
               tree_error: 0.
               splits:
                  - { var:32, quality:6.7839407920837402e-01,
                      le:3.9589786529541016e-01 }
                  - { var:31, quality:5.3326779603958130e-01,
                      gt:5.7417583465576172e-01 }
                  - { var:14, quality:5.2234262228012085e-01,
                      le:3.7651818990707397e-01 }
                  - { var:23, quality:5.0825136899948120e-01,
                      le:4.6296292543411255e-01 }
                  - { var:22, quality:5.0777196884155273e-01,
                      gt:2.4764150381088257e-01 }
                  - { var:4, quality:4.9665513634681702e-01,
                      gt:2.8753754496574402e-01 }
                  - { var:59, quality:4.9571210145950317e-01,
                      gt:3.7186378240585327e-01 }
                  - { var:70, quality:4.9359345436096191e-01,
                      gt:8.9285699650645256e-03 }
                  - { var:39, quality:4.8686909675598145e-01,
                      le:1.9419305026531219e-02 }
                  - { var:67, quality:4.8668292164802551e-01,
                      gt:9.3466103076934814e-02 }
                  - { var:69, quality:4.7457563877105713e-01,
                      le:5.3125000000000000e-01 }
                  - { var:58, quality:4.7236990928649902e-01,
                      gt:9.8535090684890747e-02 }
                  - { var:51, quality:4.6857202053070068e-01,
                      gt:1.5151514671742916e-02 }
                  - { var:13, quality:4.6812340617179871e-01,
                      gt:6.6287875175476074e-01 }
                  - { var:42, quality:4.6708533167839050e-01,
                      gt:1.1282704770565033e-01 }
                  - { var:5, quality:4.6527376770973206e-01,
                      le:2.5211864709854126e-01 }
                  - { var:68, quality:4.5497903227806091e-01,
                      le:2.8960573673248291e-01 }
                  - { var:60, quality:4.5453870296478271e-01,
                      le:5.5624485015869141e-01 }
                  - { var:48, quality:4.4077825546264648e-01,
                      le:2.4127904325723648e-02 }
                  - { var:41, quality:4.4076839089393616e-01,
                      gt:1.4142856001853943e-01 }
                  - { var:12, quality:4.4074106216430664e-01,
                      le:3.0824828892946243e-02 }
                  - { var:24, quality:4.3450176715850830e-01,
                      le:3.8257575035095215e-01 }
                  - { var:3, quality:4.2907908558845520e-01,
                      le:2.0238094031810760e-02 }
                  - { var:40, quality:4.2669501900672913e-01,
                      gt:2.7475488185882568e-01 }
                  - { var:49, quality:4.2283883690834045e-01,
                      le:3.3630949258804321e-01 }
                  - { var:50, quality:4.2217287421226501e-01,
                      gt:3.8486844301223755e-01 }
                  - { var:15, quality:4.1638553142547607e-01,
                      gt:1.9041869044303894e-01 }
                  - { var:6, quality:4.0904217958450317e-01,
                      le:4.3910259008407593e-01 }
                  - { var:52, quality:4.0835988521575928e-01,
                      le:4.1341829299926758e-01 }
                  - { var:33, quality:3.9543491601943970e-01,
                      gt:2.9515048861503601e-01 }
                  - { var:38, quality:3.9465492963790894e-01,
                      le:4.1666671633720398e-02 }
                  - { var:30, quality:3.9465492963790894e-01,
                      le:9.1905921697616577e-02 }
                  - { var:29, quality:3.9465492963790894e-01,
                      le:1.1363635212182999e-01 }
                  - { var:7, quality:3.9186111092567444e-01,
                      gt:4.9011856317520142e-02 }
                  - { var:34, quality:3.8933339715003967e-01,
                      gt:4.6920824795961380e-02 }
                  - { var:61, quality:3.8134947419166565e-01,
                      le:5.5050507187843323e-02 }
                  - { var:62, quality:3.7943592667579651e-01,
                      gt:7.4626849964261055e-03 }
                  - { var:71, quality:3.7056720256805420e-01,
                      gt:9.6153849735856056e-03 }
                  - { var:16, quality:3.6991646885871887e-01,
                      gt:7.2077915072441101e-02 }
                  - { var:43, quality:3.6519315838813782e-01,
                      gt:6.2200963497161865e-02 }
                  - { var:44, quality:3.5856452584266663e-01,
                      gt:2.4269005283713341e-02 }
                  - { var:25, quality:3.5563454031944275e-01,
                      gt:1.3157894834876060e-02 }
                  - { var:21, quality:3.5252231359481812e-01,
                      le:2.8654970228672028e-02 }
                  - { var:53, quality:3.5229134559631348e-01,
                      gt:1.0869565419852734e-02 }
                  - { var:35, quality:3.4941047430038452e-01,
                      gt:1.6786899417638779e-02 }
            -
               depth: 1
               sample_count: 28
               value: 8.3332900264481413e-01
               norm_class_idx: 1
               Tn: 2147483647
               complexity: 1
               alpha: 0.
               node_risk: 0.
               tree_risk: 0.
               tree_error: 0.
            -
               depth: 1
               sample_count: 21
               value: -8.3332900264481413e-01
               norm_class_idx: 0
               Tn: 2147483647
               complexity: 1
               alpha: 0.
               node_risk: 0.
               tree_risk: 0.
               tree_error: 0.
      -
         best_tree_idx: -1
         nodes:
            -
               depth: 0
               sample_count: 55
               value: -7.2739688691505500e-01
               norm_class_idx: 0
               Tn: 0
               complexity: 2
               alpha: 0.
               node_risk: 0.
               tree_risk: 0.
               tree_error: 0.
               splits:
                  - { var:59, quality:6.5728342533111572e-01,
                      le:3.3809524774551392e-01 }
                  - { var:61, quality:4.7586286067962646e-01,
                      gt:3.6129027605056763e-02 }
                  - { var:41, quality:4.6730139851570129e-01,
                      le:1.3029660284519196e-01 }
                  - { var:50, quality:4.6055081486701965e-01,
                      le:1.6518694162368774e-01 }
                  - { var:14, quality:4.5826521515846252e-01,
                      le:2.7594339847564697e-01 }
                  - { var:58, quality:4.5522081851959229e-01,
                      gt:3.9705878496170044e-01 }
                  - { var:13, quality:4.5150220394134521e-01,
                      gt:3.3771932125091553e-01 }
                  - { var:40, quality:4.5134025812149048e-01,
                      gt:5.1230180263519287e-01 }
                  - { var:23, quality:4.4686654210090637e-01,
                      le:1.0429862886667252e-01 }
                  - { var:52, quality:4.4488137960433960e-01,
                      gt:7.4357412755489349e-02 }
                  - { var:4, quality:4.4189491868019104e-01,
                      gt:3.5016030073165894e-01 }
                  - { var:68, quality:4.3752810359001160e-01,
                      gt:3.4694474935531616e-01 }
                  - { var:60, quality:4.2862626910209656e-01,
                      gt:3.9354839920997620e-01 }
                  - { var:5, quality:4.2646750807762146e-01,
                      le:4.3223440647125244e-01 }
                  - { var:24, quality:4.2102161049842834e-01,
                      gt:4.7317302227020264e-01 }
                  - { var:51, quality:4.2004552483558655e-01,
                      gt:3.2575756311416626e-01 }
                  - { var:22, quality:4.1932657361030579e-01,
                      gt:9.2647063732147217e-01 }
                  - { var:15, quality:4.1691780090332031e-01,
                      gt:3.5190370678901672e-01 }
                  - { var:62, quality:4.1639333963394165e-01,
                      gt:2.5981206446886063e-02 }
                  - { var:31, quality:4.1455766558647156e-01,
                      le:4.2572468519210815e-02 }
                  - { var:6, quality:4.1245090961456299e-01,
                      le:1.8524870276451111e-02 }
                  - { var:44, quality:4.1033902764320374e-01,
                      gt:7.3529398068785667e-03 }
                  - { var:33, quality:4.0809375047683716e-01,
                      gt:4.0833336114883423e-01 }
                  - { var:43, quality:4.0080112218856812e-01,
                      gt:1.3823530077934265e-01 }
                  - { var:30, quality:4.0079480409622192e-01,
                      gt:1.7543859779834747e-02 }
                  - { var:67, quality:4.0058606863021851e-01,
                      le:2.7195686101913452e-01 }
                  - { var:34, quality:3.9891690015792847e-01,
                      gt:4.5983090996742249e-02 }
                  - { var:49, quality:3.9733329415321350e-01,
                      le:1.6807910799980164e-01 }
                  - { var:69, quality:3.9348164200782776e-01,
                      gt:6.4076244831085205e-01 }
                  - { var:42, quality:3.9319685101509094e-01,
                      gt:2.2686564922332764e-01 }
                  - { var:16, quality:3.8855287432670593e-01,
                      le:3.0667699873447418e-02 }
                  - { var:32, quality:3.8367700576782227e-01,
                      le:1.7241379246115685e-02 }
                  - { var:70, quality:3.8287541270256042e-01,
                      gt:1.1931820213794708e-01 }
                  - { var:21, quality:3.8256180286407471e-01,
                      gt:2.1315190941095352e-02 }
                  - { var:7, quality:3.8102135062217712e-01,
                      gt:8.9285699650645256e-03 }
                  - { var:71, quality:3.7678441405296326e-01,
                      gt:2.5816990062594414e-02 }
                  - { var:8, quality:3.7445557117462158e-01,
                      gt:3.3649504184722900e-02 }
                  - { var:48, quality:3.7286770343780518e-01,
                      gt:2.4127904325723648e-02 }
                  - { var:39, quality:3.6309698224067688e-01,
                      gt:2.0007999613881111e-02 }
                  - { var:12, quality:3.6253333091735840e-01,
                      le:3.0824828892946243e-02 }
            -
               depth: 1
               sample_count: 31
               value: -7.2739688691505500e-01
               norm_class_idx: 0
               Tn: 2147483647
               complexity: 1
               alpha: 0.
               node_risk: 0.
               tree_risk: 0.
               tree_error: 0.
            -
               depth: 1
               sample_count: 24
               value: 7.2739688691505500e-01
               norm_class_idx: 1
               Tn: 2147483647
               complexity: 1
               alpha: 0.
               node_risk: 0.
               tree_risk: 0.
               tree_error: 0.
      -
         best_tree_idx: -1
         nodes:
            -
               depth: 0
               sample_count: 51
               value: -7.8187771495099589e-01
               norm_class_idx: 0
               Tn: 0
               complexity: 2
               alpha: 0.
               node_risk: 0.
               tree_risk: 0.
               tree_error: 0.
               splits:
                  - { var:67, quality:6.4467883110046387e-01,
                      le:3.2731553912162781e-01 }
                  - { var:68, quality:5.7556295394897461e-01,
                      gt:1.0101009905338287e-01 }
                  - { var:32, quality:5.4697996377944946e-01,
                      gt:5.2666228264570236e-02 }
                  - { var:31, quality:5.4697996377944946e-01,
                      le:9.0963256359100342e-01 }
                  - { var:69, quality:5.2080726623535156e-01,
                      gt:1.8543954938650131e-02 }
                  - { var:16, quality:5.0408422946929932e-01,
                      le:1.6865080222487450e-02 }
                  - { var:41, quality:5.0343275070190430e-01,
                      le:5.7472825050354004e-01 }
                  - { var:50, quality:4.8712462186813354e-01,
                      le:4.6228790283203125e-01 }
                  - { var:43, quality:4.8097655177116394e-01,
                      le:3.1234869360923767e-01 }
                  - { var:58, quality:4.7877299785614014e-01,
                      le:5.0806450843811035e-01 }
                  - { var:49, quality:4.7083449363708496e-01,
                      gt:2.9338550567626953e-01 }
                  - { var:15, quality:4.7014990448951721e-01,
                      le:1.6203704476356506e-01 }
                  - { var:34, quality:4.6463143825531006e-01,
                      le:2.3516950011253357e-01 }
                  - { var:22, quality:4.6286198496818542e-01,
                      le:8.7383902072906494e-01 }
                  - { var:5, quality:4.6169310808181763e-01,
                      gt:3.3629325032234192e-01 }
                  - { var:23, quality:4.5936691761016846e-01,
                      gt:2.6315789669752121e-02 }
                  - { var:4, quality:4.5819520950317383e-01,
                      le:3.2051280140876770e-01 }
                  - { var:53, quality:4.5580771565437317e-01,
                      le:3.7226773798465729e-02 }
                  - { var:60, quality:4.5553824305534363e-01,
                      gt:4.9999997019767761e-02 }
                  - { var:7, quality:4.5430982112884521e-01,
                      le:1.5196719765663147e-01 }
                  - { var:33, quality:4.5338189601898193e-01,
                      gt:9.2592602595686913e-03 }
                  - { var:62, quality:4.4881749153137207e-01,
                      le:1.0751368105411530e-01 }
                  - { var:70, quality:4.4811204075813293e-01,
                      le:4.5111107826232910e-01 }
                  - { var:44, quality:4.4689437747001648e-01,
                      le:4.1995905339717865e-02 }
                  - { var:59, quality:4.4515812397003174e-01,
                      le:3.5049629211425781e-01 }
                  - { var:52, quality:4.4280949234962463e-01,
                      le:3.7012990564107895e-02 }
                  - { var:21, quality:4.4079199433326721e-01,
                      le:2.8654970228672028e-02 }
                  - { var:66, quality:4.4045484066009521e-01,
                      le:7.3419623076915741e-02 }
                  - { var:71, quality:4.3961709737777710e-01,
                      le:2.3129010200500488e-01 }
                  - { var:8, quality:4.3961709737777710e-01,
                      le:2.2080418467521667e-01 }
                  - { var:42, quality:4.3693637847900391e-01,
                      le:3.5873014479875565e-02 }
                  - { var:51, quality:4.3425050377845764e-01,
                      le:6.1145836114883423e-01 }
            -
               depth: 1
               sample_count: 32
               value: 7.8187771495099589e-01
               norm_class_idx: 1
               Tn: 2147483647
               complexity: 1
               alpha: 0.
               node_risk: 0.
               tree_risk: 0.
               tree_error: 0.
            -
               depth: 1
               sample_count: 19
               value: -7.8187771495099589e-01
               norm_class_idx: 0
               Tn: 2147483647
               complexity: 1
               alpha: 0.
               node_risk: 0.
               tree_risk: 0.
               tree_error: 0.
      -
         best_tree_idx: -1
         nodes:
            -
               depth: 0
               sample_count: 48
               value: -8.4209621437125404e-01
               norm_class_idx: 0
               Tn: 0
               complexity: 2
               alpha: 0.
               node_risk: 0.
               tree_risk: 0.
               tree_error: 0.
               splits:
                  - { var:50, quality:6.5732008218765259e-01,
                      le:6.2934780120849609e-01 }
                  - { var:32, quality:6.3528001308441162e-01,
                      le:7.8676474094390869e-01 }
                  - { var:33, quality:6.1255019903182983e-01,
                      le:7.5792777538299561e-01 }
                  - { var:41, quality:6.1162966489791870e-01,
                      le:6.2407028675079346e-01 }
                  - { var:23, quality:6.1162966489791870e-01,
                      le:8.0062794685363770e-01 }
                  - { var:67, quality:6.0966050624847412e-01,
                      le:9.8809516429901123e-01 }
                  - { var:5, quality:6.0536336898803711e-01,
                      le:7.7155172824859619e-01 }
                  - { var:59, quality:6.0359865427017212e-01,
                      le:7.8703701496124268e-01 }
            -
               depth: 1
               sample_count: 45
               value: -8.4209621437125404e-01
               norm_class_idx: 0
               Tn: 2147483647
               complexity: 1
               alpha: 0.
               node_risk: 0.
               tree_risk: 0.
               tree_error: 0.
            -
               depth: 1
               sample_count: 3
               value: 8.4209621437125404e-01
               norm_class_idx: 1
               Tn: 2147483647
               complexity: 1
               alpha: 0.
               node_risk: 0.
               tree_risk: 0.
               tree_error: 0.
      -
         best_tree_idx: -1
         nodes:
            -
               depth: 0
               sample_count: 47
               value: 8.0096407530985447e-01
               norm_class_idx: 1
               Tn: 0
               complexity: 2
               alpha: 0.
               node_risk: 0.
               tree_risk: 0.
               tree_error: 0.
               splits:
                  - { var:4, quality:6.8570816516876221e-01,
                      le:7.6197385787963867e-02 }
                  - { var:57, quality:6.6820687055587769e-01,
                      gt:1.2820514850318432e-02 }
                  - { var:14, quality:6.2743616104125977e-01,
                      gt:8.1978905200958252e-01 }
                  - { var:42, quality:6.2635201215744019e-01,
                      gt:5.9453785419464111e-01 }
                  - { var:69, quality:6.2307041883468628e-01,
                      gt:6.4076244831085205e-01 }
                  - { var:38, quality:6.2307041883468628e-01,
                      gt:4.1666671633720398e-02 }
                  - { var:12, quality:6.1910444498062134e-01,
                      gt:1.9791665673255920e-01 }
                  - { var:40, quality:6.1576277017593384e-01,
                      le:1.1090689897537231e-01 }
                  - { var:59, quality:6.1307644844055176e-01,
                      le:1.8181819468736649e-02 }
                  - { var:58, quality:6.1307644844055176e-01,
                      gt:9.0909087657928467e-01 }
                  - { var:41, quality:6.1307644844055176e-01,
                      gt:6.7647063732147217e-01 }
                  - { var:5, quality:6.0993486642837524e-01,
                      gt:9.0074682235717773e-01 }
                  - { var:33, quality:6.0851520299911499e-01,
                      gt:4.0833336114883423e-01 }
                  - { var:49, quality:6.0741597414016724e-01,
                      le:8.8461540639400482e-02 }
                  - { var:21, quality:6.0741567611694336e-01,
                      gt:9.4339596107602119e-03 }
                  - { var:67, quality:6.0733979940414429e-01,
                      le:2.4305555969476700e-02 }
                  - { var:48, quality:6.0674315690994263e-01,
                      gt:2.5320515036582947e-02 }
                  - { var:6, quality:6.0025465488433838e-01,
                      gt:4.7035259008407593e-01 }
                  - { var:11, quality:5.9937685728073120e-01,
                      gt:6.5217398107051849e-02 }
                  - { var:32, quality:5.9914910793304443e-01,
                      gt:6.8695652484893799e-01 }
                  - { var:66, quality:5.9902107715606689e-01,
                      gt:7.3419623076915741e-02 }
                  - { var:31, quality:5.9675061702728271e-01,
                      le:4.2572468519210815e-02 }
            -
               depth: 1
               sample_count: 7
               value: -8.0096407530985447e-01
               norm_class_idx: 0
               Tn: 2147483647
               complexity: 1
               alpha: 0.
               node_risk: 0.
               tree_risk: 0.
               tree_error: 0.
            -
               depth: 1
               sample_count: 40
               value: 8.0096407530985447e-01
               norm_class_idx: 1
               Tn: 2147483647
               complexity: 1
               alpha: 0.
               node_risk: 0.
               tree_risk: 0.
               tree_error: 0.
      -
         best_tree_idx: -1
         nodes:
            -
               depth: 0
               sample_count: 48
               value: -8.2480720629515025e-01
               norm_class_idx: 0
               Tn: 0
               complexity: 2
               alpha: 0.
               node_risk: 0.
               tree_risk: 0.
               tree_error: 0.
               splits:
                  - { var:61, quality:6.4437216520309448e-01,
                      le:2.3437500000000000e-01 }
                  - { var:25, quality:5.7999944686889648e-01,
                      le:2.6671409606933594e-02 }
                  - { var:8, quality:5.7866662740707397e-01,
                      le:7.5854703783988953e-02 }
                  - { var:62, quality:5.7846319675445557e-01,
                      le:8.2167834043502808e-02 }
            -
               depth: 1
               sample_count: 42
               value: -8.2480720629515025e-01
               norm_class_idx: 0
               Tn: 2147483647
               complexity: 1
               alpha: 0.
               node_risk: 0.
               tree_risk: 0.
               tree_error: 0.
            -
               depth: 1
               sample_count: 6
               value: 8.2480720629515025e-01
               norm_class_idx: 1
               Tn: 2147483647
               complexity: 1
               alpha: 0.
               node_risk: 0.
               tree_risk: 0.
               tree_error: 0.
      -
         best_tree_idx: -1
         nodes:
            -
               depth: 0
               sample_count: 46
               value: 7.6108600646692803e-01
               norm_class_idx: 1
               Tn: 0
               complexity: 2
               alpha: 0.
               node_risk: 0.
               tree_risk: 0.
               tree_error: 0.
               splits:
                  - { var:51, quality:6.6536921262741089e-01,
                      le:4.0833336114883423e-01 }
                  - { var:30, quality:6.2347179651260376e-01,
                      le:7.6020397245883942e-02 }
                  - { var:49, quality:6.2213122844696045e-01,
                      gt:1.0434779524803162e-01 }
                  - { var:67, quality:6.2098914384841919e-01,
                      gt:4.2735047638416290e-02 }
                  - { var:42, quality:6.2021446228027344e-01,
                      le:5.3571426868438721e-01 }
                  - { var:60, quality:6.1499685049057007e-01,
                      le:6.2812501192092896e-01 }
                  - { var:21, quality:6.1422216892242432e-01,
                      le:1.9638039171695709e-02 }
                  - { var:35, quality:6.0822987556457520e-01,
                      le:5.2912220358848572e-02 }
                  - { var:57, quality:5.9578347206115723e-01,
                      le:7.6949149370193481e-02 }
                  - { var:12, quality:5.9578347206115723e-01,
                      le:1.9791665673255920e-01 }
                  - { var:4, quality:5.9578347206115723e-01,
                      gt:5.0310559570789337e-02 }
                  - { var:22, quality:5.9254103899002075e-01,
                      gt:2.6254180818796158e-02 }
                  - { var:13, quality:5.9254103899002075e-01,
                      gt:5.3022630512714386e-02 }
                  - { var:40, quality:5.8979117870330811e-01,
                      gt:3.3482145518064499e-02 }
                  - { var:25, quality:5.8928066492080688e-01,
                      le:5.0098881125450134e-02 }
            -
               depth: 1
               sample_count: 40
               value: 7.6108600646692803e-01
               norm_class_idx: 1
               Tn: 2147483647
               complexity: 1
               alpha: 0.
               node_risk: 0.
               tree_risk: 0.
               tree_error: 0.
            -
               depth: 1
               sample_count: 6
               value: -7.6108600646692803e-01
               norm_class_idx: 0
               Tn: 2147483647
               complexity: 1
               alpha: 0.
               node_risk: 0.
               tree_risk: 0.
               tree_error: 0.
      -
         best_tree_idx: -1
         nodes:
            -
               depth: 0
               sample_count: 47
               value: -7.6210394068063370e-01
               norm_class_idx: 0
               Tn: 0
               complexity: 2
               alpha: 0.
               node_risk: 0.
               tree_risk: 0.
               tree_error: 0.
               splits:
                  - { var:24, quality:6.4020514488220215e-01,
                      le:3.1478661298751831e-01 }
                  - { var:31, quality:5.9275305271148682e-01,
                      gt:5.1298707723617554e-02 }
                  - { var:60, quality:5.9099149703979492e-01,
                      le:5.0948762893676758e-01 }
                  - { var:22, quality:5.9099149703979492e-01,
                      gt:6.1188817024230957e-02 }
                  - { var:69, quality:5.6560331583023071e-01,
                      le:5.3125000000000000e-01 }
                  - { var:6, quality:5.6541377305984497e-01,
                      le:4.3910259008407593e-01 }
                  - { var:39, quality:5.5958998203277588e-01,
                      le:2.0007999613881111e-02 }
                  - { var:58, quality:5.5559700727462769e-01,
                      gt:8.4757834672927856e-02 }
                  - { var:3, quality:5.4433238506317139e-01,
                      le:2.2108839824795723e-02 }
                  - { var:15, quality:5.3857946395874023e-01,
                      le:3.3321481943130493e-01 }
                  - { var:12, quality:5.3496342897415161e-01,
                      le:6.5862715244293213e-02 }
                  - { var:67, quality:5.3294336795806885e-01,
                      gt:7.6702505350112915e-02 }
                  - { var:33, quality:5.3277230262756348e-01,
                      le:3.9230769872665405e-01 }
                  - { var:13, quality:5.2780187129974365e-01,
                      gt:6.8783067166805267e-02 }
                  - { var:40, quality:5.2112847566604614e-01,
                      gt:1.1090689897537231e-01 }
                  - { var:4, quality:5.1031506061553955e-01,
                      gt:7.9277865588665009e-02 }
                  - { var:32, quality:5.0752633810043335e-01,
                      le:5.3286719322204590e-01 }
                  - { var:51, quality:5.0472640991210938e-01,
                      le:4.6606335043907166e-01 }
                  - { var:42, quality:5.0458592176437378e-01,
                      gt:2.5657895952463150e-02 }
                  - { var:30, quality:5.0241369009017944e-01,
                      le:1.0783860087394714e-01 }
                  - { var:29, quality:5.0241369009017944e-01,
                      le:1.1363635212182999e-01 }
                  - { var:38, quality:5.0154834985733032e-01,
                      le:4.1666671633720398e-02 }
                  - { var:49, quality:4.9735155701637268e-01,
                      gt:1.0434779524803162e-01 }
                  - { var:41, quality:4.9477523565292358e-01,
                      gt:1.0657595098018646e-01 }
                  - { var:44, quality:4.9017262458801270e-01,
                      le:3.2765738666057587e-02 }
                  - { var:25, quality:4.8860341310501099e-01,
                      le:5.0098881125450134e-02 }
                  - { var:48, quality:4.8846486210823059e-01,
                      le:2.4127904325723648e-02 }
                  - { var:23, quality:4.8088273406028748e-01,
                      gt:6.5856948494911194e-02 }
            -
               depth: 1
               sample_count: 38
               value: -7.6210394068063370e-01
               norm_class_idx: 0
               Tn: 2147483647
               complexity: 1
               alpha: 0.
               node_risk: 0.
               tree_risk: 0.
               tree_error: 0.
            -
               depth: 1
               sample_count: 9
               value: 7.6210394068063370e-01
               norm_class_idx: 1
               Tn: 2147483647
               complexity: 1
               alpha: 0.
               node_risk: 0.
               tree_risk: 0.
               tree_error: 0.
      -
         best_tree_idx: -1
         nodes:
            -
               depth: 0
               sample_count: 46
               value: 7.0551598485502365e-01
               norm_class_idx: 1
               Tn: 0
               complexity: 2
               alpha: 0.
               node_risk: 0.
               tree_risk: 0.
               tree_error: 0.
               splits:
                  - { var:41, quality:6.4157378673553467e-01,
                      le:3.0041655898094177e-01 }
                  - { var:40, quality:5.3105580806732178e-01,
                      gt:6.6091954708099365e-01 }
                  - { var:61, quality:4.9149426817893982e-01,
                      gt:3.1280543655157089e-02 }
                  - { var:43, quality:4.8735380172729492e-01,
                      gt:6.1212815344333649e-02 }
                  - { var:58, quality:4.8469167947769165e-01,
                      le:2.3475410044193268e-01 }
                  - { var:67, quality:4.8167714476585388e-01,
                      le:5.9149183332920074e-02 }
                  - { var:68, quality:4.7725561261177063e-01,
                      gt:7.3940682411193848e-01 }
                  - { var:59, quality:4.7504264116287231e-01,
                      gt:6.1666667461395264e-01 }
                  - { var:51, quality:4.5503026247024536e-01,
                      gt:4.0833336114883423e-01 }
                  - { var:48, quality:4.5003631711006165e-01,
                      gt:5.5174902081489563e-02 }
                  - { var:71, quality:4.4988700747489929e-01,
                      gt:4.0522873401641846e-02 }
                  - { var:5, quality:4.4816568493843079e-01,
                      gt:7.9655176401138306e-01 }
                  - { var:60, quality:4.4686460494995117e-01,
                      gt:6.2812501192092896e-01 }
                  - { var:30, quality:4.4686460494995117e-01,
                      gt:1.0783860087394714e-01 }
                  - { var:52, quality:4.4640254974365234e-01,
                      gt:4.4796800613403320e-01 }
                  - { var:7, quality:4.4607242941856384e-01,
                      gt:2.6059320569038391e-01 }
                  - { var:70, quality:4.4341975450515747e-01,
                      gt:2.1457371115684509e-01 }
                  - { var:49, quality:4.4315537810325623e-01,
                      le:1.0434779524803162e-01 }
                  - { var:6, quality:4.4189926981925964e-01,
                      le:3.3119659870862961e-02 }
                  - { var:14, quality:4.4165298342704773e-01,
                      gt:7.4537038803100586e-01 }
                  - { var:24, quality:4.3771123886108398e-01,
                      gt:4.7317302227020264e-01 }
                  - { var:34, quality:4.3439379334449768e-01,
                      gt:4.6920824795961380e-02 }
                  - { var:22, quality:4.3330502510070801e-01,
                      le:3.6661211401224136e-02 }
                  - { var:15, quality:4.3330502510070801e-01,
                      gt:3.5190370678901672e-01 }
                  - { var:13, quality:4.3330502510070801e-01,
                      le:6.8783067166805267e-02 }
                  - { var:42, quality:4.3160805106163025e-01,
                      gt:4.5588237047195435e-01 }
                  - { var:4, quality:4.2880964279174805e-01,
                      gt:3.5016030073165894e-01 }
                  - { var:69, quality:4.2659607529640198e-01,
                      le:2.7908986806869507e-01 }
                  - { var:21, quality:4.2481026053428650e-01,
                      gt:2.1315190941095352e-02 }
                  - { var:62, quality:4.2227658629417419e-01,
                      gt:1.0641027241945267e-01 }
                  - { var:53, quality:4.2227658629417419e-01,
                      gt:3.7226773798465729e-02 }
                  - { var:50, quality:4.2035683989524841e-01,
                      le:3.8486844301223755e-01 }
                  - { var:33, quality:4.1903617978096008e-01,
                      gt:7.5792777538299561e-01 }
                  - { var:44, quality:4.1850778460502625e-01,
                      gt:4.1995905339717865e-02 }
                  - { var:25, quality:4.1820907592773438e-01,
                      gt:5.0098881125450134e-02 }
                  - { var:3, quality:4.1614904999732971e-01,
                      gt:2.2108839824795723e-02 }
                  - { var:8, quality:4.1587704420089722e-01,
                      gt:2.2080418467521667e-01 }
                  - { var:23, quality:4.1297048330307007e-01,
                      le:1.0429862886667252e-01 }
            -
               depth: 1
               sample_count: 19
               value: -7.0551598485502365e-01
               norm_class_idx: 0
               Tn: 2147483647
               complexity: 1
               alpha: 0.
               node_risk: 0.
               tree_risk: 0.
               tree_error: 0.
            -
               depth: 1
               sample_count: 27
               value: 7.0551598485502365e-01
               norm_class_idx: 1
               Tn: 2147483647
               complexity: 1
               alpha: 0.
               node_risk: 0.
               tree_risk: 0.
               tree_error: 0.
      -
         best_tree_idx: -1
         nodes:
            -
               depth: 0
               sample_count: 46
               value: -9.0138241586324885e-01
               norm_class_idx: 0
               Tn: 0
               complexity: 2
               alpha: 0.
               node_risk: 0.
               tree_risk: 0.
               tree_error: 0.
               splits:
                  - { var:6, quality:6.7581677436828613e-01,
                      le:1.5107709169387817e-01 }
                  - { var:40, quality:5.6677454710006714e-01,
                      gt:5.0423729419708252e-01 }
                  - { var:5, quality:5.2991193532943726e-01,
                      gt:5.5902779102325439e-01 }
                  - { var:41, quality:5.2475297451019287e-01,
                      le:1.3922515511512756e-01 }
                  - { var:4, quality:5.1064383983612061e-01,
                      gt:3.3974361419677734e-01 }
                  - { var:33, quality:5.0905561447143555e-01,
                      le:3.6531984806060791e-02 }
                  - { var:14, quality:4.9754139780998230e-01,
                      gt:5.6515157222747803e-01 }
                  - { var:24, quality:4.9544993042945862e-01,
                      le:1.2719300389289856e-01 }
                  - { var:42, quality:4.7842386364936829e-01,
                      le:4.0408164262771606e-02 }
                  - { var:60, quality:4.7547677159309387e-01,
                      le:1.5909095108509064e-01 }
                  - { var:69, quality:4.7282376885414124e-01,
                      le:2.6213371753692627e-01 }
                  - { var:68, quality:4.6941488981246948e-01,
                      gt:3.4694474935531616e-01 }
                  - { var:49, quality:4.5656868815422058e-01,
                      le:7.6236593723297119e-01 }
                  - { var:32, quality:4.5579156279563904e-01,
                      gt:5.4583334922790527e-01 }
                  - { var:23, quality:4.4728371500968933e-01,
                      gt:6.1025643348693848e-01 }
                  - { var:67, quality:4.4071927666664124e-01,
                      le:5.9149183332920074e-02 }
                  - { var:7, quality:4.3797558546066284e-01,
                      le:3.5628020763397217e-02 }
                  - { var:59, quality:4.2831838130950928e-01,
                      gt:7.2129631042480469e-01 }
                  - { var:16, quality:4.2784142494201660e-01,
                      le:7.9365102574229240e-03 }
                  - { var:31, quality:4.2653828859329224e-01,
                      gt:3.2882881164550781e-01 }
                  - { var:58, quality:4.2112603783607483e-01,
                      gt:3.5528761148452759e-01 }
                  - { var:48, quality:4.1832491755485535e-01,
                      gt:5.5174902081489563e-02 }
                  - { var:50, quality:4.1501370072364807e-01,
                      le:4.5472973585128784e-01 }
                  - { var:52, quality:4.1151976585388184e-01,
                      gt:4.0493446588516235e-01 }
                  - { var:22, quality:4.0777400135993958e-01,
                      gt:5.2895754575729370e-01 }
                  - { var:12, quality:4.0529739856719971e-01,
                      le:6.5862715244293213e-02 }
                  - { var:61, quality:4.0517485141754150e-01,
                      gt:1.4648334681987762e-01 }
                  - { var:39, quality:4.0238878130912781e-01,
                      le:2.2399198263883591e-02 }
                  - { var:15, quality:3.9370238780975342e-01,
                      le:2.2282609343528748e-01 }
                  - { var:13, quality:3.9287564158439636e-01,
                      le:2.1073645353317261e-01 }
                  - { var:70, quality:3.9183002710342407e-01,
                      le:3.6445010453462601e-02 }
                  - { var:51, quality:3.8861432671546936e-01,
                      gt:2.7655565738677979e-01 }
                  - { var:30, quality:3.8522768020629883e-01,
                      gt:1.0783860087394714e-01 }
                  - { var:17, quality:3.7528765201568604e-01,
                      le:9.1812670230865479e-02 }
                  - { var:62, quality:3.7466531991958618e-01,
                      gt:3.3103708177804947e-02 }
                  - { var:38, quality:3.7118563055992126e-01,
                      le:4.1666671633720398e-02 }
                  - { var:57, quality:3.6814260482788086e-01,
                      le:1.2820514850318432e-02 }
                  - { var:21, quality:3.6786630749702454e-01,
                      gt:2.1315190941095352e-02 }
                  - { var:25, quality:3.6759203672409058e-01,
                      gt:5.0098881125450134e-02 }
                  - { var:43, quality:3.6714607477188110e-01,
                      gt:1.9761028885841370e-01 }
                  - { var:3, quality:3.6104813218116760e-01,
                      gt:2.2108839824795723e-02 }
                  - { var:71, quality:3.6083403229713440e-01,
                      gt:2.2748449444770813e-01 }
                  - { var:44, quality:3.6083403229713440e-01,
                      gt:1.1960785090923309e-01 }
                  - { var:8, quality:3.6083403229713440e-01,
                      gt:2.2080418467521667e-01 }
            -
               depth: 1
               sample_count: 23
               value: 9.0138241586324885e-01
               norm_class_idx: 1
               Tn: 2147483647
               complexity: 1
               alpha: 0.
               node_risk: 0.
               tree_risk: 0.
               tree_error: 0.
            -
               depth: 1
               sample_count: 23
               value: -9.0138241586324885e-01
               norm_class_idx: 0
               Tn: 2147483647
               complexity: 1
               alpha: 0.
               node_risk: 0.
               tree_risk: 0.
               tree_error: 0.
      -
         best_tree_idx: -1
         nodes:
            -
               depth: 0
               sample_count: 46
               value: 7.5043816299158717e-01
               norm_class_idx: 1
               Tn: 0
               complexity: 2
               alpha: 0.
               node_risk: 0.
               tree_risk: 0.
               tree_error: 0.
               splits:
                  - { var:59, quality:6.3799440860748291e-01,
                      le:3.9009660482406616e-01 }
                  - { var:60, quality:5.2834087610244751e-01,
                      gt:3.2051280140876770e-01 }
                  - { var:23, quality:4.9157756567001343e-01,
                      le:5.3056901693344116e-01 }
                  - { var:24, quality:4.8985594511032104e-01,
                      gt:2.6153850555419922e-01 }
                  - { var:49, quality:4.5444938540458679e-01,
                      le:8.9417690038681030e-01 }
                  - { var:22, quality:4.4734889268875122e-01,
                      le:6.1188817024230957e-02 }
                  - { var:5, quality:4.4092530012130737e-01,
                      le:7.7155172824859619e-01 }
                  - { var:69, quality:4.4053921103477478e-01,
                      gt:3.8374125957489014e-01 }
                  - { var:31, quality:4.3938547372817993e-01,
                      le:5.1298707723617554e-02 }
                  - { var:51, quality:4.3929994106292725e-01,
                      gt:3.2866381108760834e-02 }
                  - { var:67, quality:4.2906135320663452e-01,
                      le:6.4225780963897705e-01 }
                  - { var:58, quality:4.2705664038658142e-01,
                      le:2.7991455793380737e-01 }
                  - { var:14, quality:4.2536178231239319e-01,
                      le:6.6278672218322754e-01 }
                  - { var:41, quality:4.2435669898986816e-01,
                      le:5.1363635063171387e-01 }
                  - { var:42, quality:4.2392522096633911e-01,
                      le:1.1282704770565033e-01 }
                  - { var:13, quality:4.1812041401863098e-01,
                      le:6.6287875175476074e-01 }
                  - { var:6, quality:4.1794261336326599e-01,
                      gt:4.1203704476356506e-01 }
                  - { var:68, quality:4.1741749644279480e-01,
                      gt:2.6610638946294785e-02 }
                  - { var:52, quality:4.1417735815048218e-01,
                      gt:6.4295493066310883e-02 }
                  - { var:70, quality:4.1149461269378662e-01,
                      le:4.8766158521175385e-02 }
                  - { var:39, quality:4.0857386589050293e-01,
                      gt:2.0007999613881111e-02 }
                  - { var:32, quality:4.0652623772621155e-01,
                      gt:4.0491557121276855e-01 }
                  - { var:3, quality:3.9392438530921936e-01,
                      gt:8.3333346992731094e-03 }
                  - { var:48, quality:3.9391437172889709e-01,
                      le:5.5174902081489563e-02 }
                  - { var:15, quality:3.9255234599113464e-01,
                      gt:2.0979020744562149e-02 }
                  - { var:16, quality:3.9185488224029541e-01,
                      le:3.0667699873447418e-02 }
                  - { var:40, quality:3.9168059825897217e-01,
                      le:2.3458334803581238e-01 }
                  - { var:57, quality:3.8158208131790161e-01,
                      le:2.9769670218229294e-02 }
                  - { var:25, quality:3.8062229752540588e-01,
                      le:1.3157894834876060e-02 }
                  - { var:50, quality:3.7954357266426086e-01,
                      le:6.8940675258636475e-01 }
                  - { var:33, quality:3.7630870938301086e-01,
                      le:2.9515048861503601e-01 }
                  - { var:7, quality:3.7163320183753967e-01,
                      le:2.1666663885116577e-01 }
                  - { var:4, quality:3.6580848693847656e-01,
                      gt:3.2051280140876770e-01 }
                  - { var:8, quality:3.6445635557174683e-01,
                      le:1.8350169062614441e-02 }
                  - { var:71, quality:3.6413392424583435e-01,
                      le:9.8214313387870789e-02 }
                  - { var:61, quality:3.6360377073287964e-01,
                      gt:3.1280543655157089e-02 }
                  - { var:43, quality:3.6355569958686829e-01,
                      le:4.6540993452072144e-01 }
                  - { var:34, quality:3.6355569958686829e-01,
                      le:3.4653314948081970e-01 }
                  - { var:12, quality:3.6035582423210144e-01,
                      le:1.9791665673255920e-01 }
            -
               depth: 1
               sample_count: 27
               value: -7.5043816299158717e-01
               norm_class_idx: 0
               Tn: 2147483647
               complexity: 1
               alpha: 0.
               node_risk: 0.
               tree_risk: 0.
               tree_error: 0.
            -
               depth: 1
               sample_count: 19
               value: 7.5043816299158717e-01
               norm_class_idx: 1
               Tn: 2147483647
               complexity: 1
               alpha: 0.
               node_risk: 0.
               tree_risk: 0.
               tree_error: 0.
      -
         best_tree_idx: -1
         nodes:
            -
               depth: 0
               sample_count: 45
               value: 7.2660507586515721e-01
               norm_class_idx: 1
               Tn: 0
               complexity: 2
               alpha: 0.
               node_risk: 0.
               tree_risk: 0.
               tree_error: 0.
               splits:
                  - { var:5, quality:6.6643303632736206e-01,
                      le:4.6818178892135620e-01 }
                  - { var:6, quality:5.3820002079010010e-01,
                      gt:1.9259259104728699e-01 }
                  - { var:68, quality:5.2259743213653564e-01,
                      le:6.3221502304077148e-01 }
                  - { var:14, quality:5.1885879039764404e-01,
                      le:5.6515157222747803e-01 }
                  - { var:69, quality:5.0999283790588379e-01,
                      gt:1.3299658894538879e-01 }
                  - { var:23, quality:5.0341951847076416e-01,
                      le:5.9719330072402954e-01 }
                  - { var:33, quality:5.0090044736862183e-01,
                      gt:1.0216449946165085e-01 }
                  - { var:59, quality:4.9969270825386047e-01,
                      le:4.7846156358718872e-01 }
                  - { var:60, quality:4.9315735697746277e-01,
                      gt:2.9618966579437256e-01 }
                  - { var:24, quality:4.9108144640922546e-01,
                      gt:1.0639879852533340e-01 }
                  - { var:13, quality:4.8635411262512207e-01,
                      gt:2.6136365532875061e-01 }
                  - { var:58, quality:4.7875347733497620e-01,
                      le:3.2738095521926880e-01 }
                  - { var:67, quality:4.7722959518432617e-01,
                      gt:5.9149183332920074e-02 }
                  - { var:32, quality:4.6397200226783752e-01,
                      le:6.8695652484893799e-01 }
                  - { var:51, quality:4.6296623349189758e-01,
                      le:4.1025638580322266e-01 }
                  - { var:41, quality:4.6272227168083191e-01,
                      gt:1.3779661059379578e-01 }
                  - { var:21, quality:4.5707321166992188e-01,
                      le:1.8362529575824738e-02 }
                  - { var:57, quality:4.5195266604423523e-01,
                      le:2.9769670218229294e-02 }
                  - { var:40, quality:4.4637396931648254e-01,
                      le:3.7003970146179199e-01 }
                  - { var:30, quality:4.4466751813888550e-01,
                      le:6.8564258515834808e-02 }
                  - { var:48, quality:4.4315972924232483e-01,
                      le:2.4127904325723648e-02 }
                  - { var:52, quality:4.4063517451286316e-01,
                      le:4.4796800613403320e-01 }
                  - { var:49, quality:4.4046562910079956e-01,
                      gt:1.3961035013198853e-01 }
                  - { var:4, quality:4.3289864063262939e-01,
                      gt:7.6197385787963867e-02 }
                  - { var:42, quality:4.3002945184707642e-01,
                      le:5.3571426868438721e-01 }
                  - { var:50, quality:4.2654559016227722e-01,
                      le:6.8940675258636475e-01 }
                  - { var:35, quality:4.1931882500648499e-01,
                      le:5.2912220358848572e-02 }
                  - { var:61, quality:4.1843488812446594e-01,
                      le:4.2857146263122559e-01 }
                  - { var:12, quality:4.1748979687690735e-01,
                      le:1.9791665673255920e-01 }
                  - { var:31, quality:4.1198328137397766e-01,
                      le:9.6235048770904541e-01 }
                  - { var:22, quality:4.1104379296302795e-01,
                      gt:2.6254180818796158e-02 }
                  - { var:7, quality:4.0724855661392212e-01,
                      gt:1.3888889923691750e-02 }
            -
               depth: 1
               sample_count: 27
               value: 7.2660507586515721e-01
               norm_class_idx: 1
               Tn: 2147483647
               complexity: 1
               alpha: 0.
               node_risk: 0.
               tree_risk: 0.
               tree_error: 0.
            -
               depth: 1
               sample_count: 18
               value: -7.2660507586515721e-01
               norm_class_idx: 0
               Tn: 2147483647
               complexity: 1
               alpha: 0.
               node_risk: 0.
               tree_risk: 0.
               tree_error: 0.
      -
         best_tree_idx: -1
         nodes:
            -
               depth: 0
               sample_count: 49
               value: -8.0588772521311436e-01
               norm_class_idx: 0
               Tn: 0
               complexity: 2
               alpha: 0.
               node_risk: 0.
               tree_risk: 0.
               tree_error: 0.
               splits:
                  - { var:50, quality:6.5366238355636597e-01,
                      le:1.0791924595832825e-01 }
                  - { var:49, quality:5.9093320369720459e-01,
                      gt:8.4476763010025024e-01 }
                  - { var:13, quality:5.1049393415451050e-01,
                      gt:3.6403509974479675e-01 }
                  - { var:33, quality:4.9403065443038940e-01,
                      gt:2.9515048861503601e-01 }
                  - { var:14, quality:4.9396464228630066e-01,
                      le:5.2579369395971298e-02 }
                  - { var:71, quality:4.8702439665794373e-01,
                      gt:9.6153849735856056e-03 }
                  - { var:57, quality:4.8498708009719849e-01,
                      gt:1.2820514850318432e-02 }
                  - { var:51, quality:4.8391550779342651e-01,
                      le:6.2358278781175613e-02 }
                  - { var:4, quality:4.7912004590034485e-01,
                      le:7.6197385787963867e-02 }
                  - { var:8, quality:4.7819581627845764e-01,
                      gt:1.8350169062614441e-02 }
                  - { var:70, quality:4.7306275367736816e-01,
                      gt:8.9285699650645256e-03 }
                  - { var:69, quality:4.6767997741699219e-01,
                      gt:6.4076244831085205e-01 }
                  - { var:22, quality:4.6689793467521667e-01,
                      gt:3.1600829958915710e-01 }
                  - { var:52, quality:4.6610349416732788e-01,
                      gt:4.1341829299926758e-01 }
                  - { var:7, quality:4.6409159898757935e-01,
                      gt:2.8374135494232178e-01 }
                  - { var:25, quality:4.6337479352951050e-01,
                      gt:1.3157894834876060e-02 }
                  - { var:21, quality:4.5718058943748474e-01,
                      gt:8.9285699650645256e-03 }
                  - { var:15, quality:4.5457255840301514e-01,
                      le:1.3360530138015747e-01 }
                  - { var:5, quality:4.5194572210311890e-01,
                      gt:9.0074682235717773e-01 }
                  - { var:23, quality:4.4618245959281921e-01,
                      le:2.6315789669752121e-02 }
                  - { var:6, quality:4.4317996501922607e-01,
                      gt:4.8791208863258362e-01 }
                  - { var:35, quality:4.4157785177230835e-01,
                      gt:1.6786899417638779e-02 }
                  - { var:62, quality:4.3804734945297241e-01,
                      gt:1.4918032288551331e-01 }
                  - { var:53, quality:4.3804734945297241e-01,
                      gt:3.6731634289026260e-02 }
                  - { var:44, quality:4.3555068969726562e-01,
                      gt:4.9607843160629272e-02 }
                  - { var:61, quality:4.3547683954238892e-01,
                      gt:5.7189546525478363e-02 }
                  - { var:58, quality:4.3393582105636597e-01,
                      gt:2.8967428207397461e-01 }
                  - { var:41, quality:4.3212205171585083e-01,
                      gt:5.1363635063171387e-01 }
                  - { var:59, quality:4.3172645568847656e-01,
                      le:1.6820275783538818e-01 }
                  - { var:32, quality:4.2982760071754456e-01,
                      gt:7.2500002384185791e-01 }
                  - { var:42, quality:4.2816698551177979e-01,
