%YAML:1.0
my_svm: !!opencv-ml-svm
   svm_type: C_SVC
   kernel: { type:RBF, gamma:1. }
   C: 2.7799999999999998e+00
   term_criteria: { epsilon:1.0000000133514320e-10, iterations:10000 }
   var_all: 2
   var_count: 2
   class_count: 2
   class_labels: !!opencv-matrix
      rows: 1
      cols: 2
      dt: i
      data: [ 0, 1 ]
   sv_total: 162
   support_vectors:
      - [ 1667199616., 2.35619402e+00 ]
      - [ 1920425856., 0. ]
      - [ 1667198080., 7.85398185e-01 ]
      - [ 1., 7.85398185e-01 ]
      - [ 28., 0. ]
      - [ 3., 0. ]
      - [ 3., 7.85398185e-01 ]
      - [ 1752391552., 7.85398185e-01 ]
      - [ 1811953664., 1.57079601e+00 ]
      - [ 1., 0. ]
      - [ 5., 7.85398185e-01 ]
      - [ 5., 0. ]
      - [ 69., 7.85398185e-01 ]
      - [ 3., 1.57079601e+00 ]
      - [ 3., 0. ]
      - [ 5., 1.57079601e+00 ]
      - [ 1811950080., 2.35619402e+00 ]
      - [ 1811950464., 0. ]
      - [ 0., 7.85398185e-01 ]
      - [ 1., 0. ]
      - [ -1879020672., 0. ]
      - [ 1811942912., 1.57079601e+00 ]
      - [ 1811942912., 2.35619402e+00 ]
      - [ 6639000., 0. ]
      - [ 0., 7.85398185e-01 ]
      - [ 433., 2.35619402e+00 ]
      - [ 1920425856., 7.85398185e-01 ]
      - [ 21., 2.35619402e+00 ]
      - [ 1811969152., 0. ]
      - [ 24., 1.57079601e+00 ]
      - [ 1919377280., 2.35619402e+00 ]
      - [ 69., 0. ]
      - [ 0., 7.85398185e-01 ]
      - [ 29806., 2.35619402e+00 ]
      - [ 0., 7.85398185e-01 ]
      - [ 373., 2.35619402e+00 ]
      - [ 0., 0. ]
      - [ 450330880., 7.85398185e-01 ]
      - [ 0., 0. ]
      - [ 2., 7.85398185e-01 ]
      - [ 1., 2.35619402e+00 ]
      - [ 2., 1.57079601e+00 ]
      - [ 0., 7.85398185e-01 ]
      - [ 1., 1.57079601e+00 ]
      - [ 1., 2.35619402e+00 ]
      - [ 1., 0. ]
      - [ 2., 1.57079601e+00 ]
      - [ 0., 1.57079601e+00 ]
      - [ 69., 2.35619402e+00 ]
      - [ 1744859648., 0. ]
      - [ 1342203648., 1.57079601e+00 ]
      - [ 1140850816., 0. ]
      - [ 3., 1.57079601e+00 ]
      - [ 1342206336., 2.35619402e+00 ]
      - [ 0., 1.57079601e+00 ]
      - [ 0., 1.57079601e+00 ]
      - [ 0., 2.35619402e+00 ]
      - [ 1342192512., 1.57079601e+00 ]
      - [ 28., 2.35619402e+00 ]
      - [ 0., 0. ]
      - [ 1920151424., 2.35619402e+00 ]
      - [ 3., 1.57079601e+00 ]
      - [ 1140865792., 7.85398185e-01 ]
      - [ 1140873472., 1.57079601e+00 ]
      - [ 1303224064., 7.85398185e-01 ]
      - [ 1140855680., 7.85398185e-01 ]
      - [ 1140875264., 1.57079601e+00 ]
      - [ 1140882176., 0. ]
      - [ 1., 0. ]
      - [ 1667198080., 0. ]
      - [ 1., 0. ]
      - [ 5., 1.57079601e+00 ]
      - [ 5., 2.35619402e+00 ]
      - [ 69., 1.57079601e+00 ]
      - [ 14., 1.57079601e+00 ]
      - [ 1290959744., 2.35619402e+00 ]
      - [ 1009351488., 7.85398185e-01 ]
      - [ 1294380928., 2.35619402e+00 ]
      - [ 5., 7.85398185e-01 ]
      - [ 1920425856., 1.57079601e+00 ]
      - [ 1919120256., 2.35619402e+00 ]
      - [ -279113088., 0. ]
      - [ 297310784., 7.85398185e-01 ]
      - [ 1919377280., 1.57079601e+00 ]
      - [ 1., 7.85398185e-01 ]
      - [ 1., 1.57079601e+00 ]
      - [ 1784640128., 1.57079601e+00 ]
      - [ 2., 2.35619402e+00 ]
      - [ 3., 0. ]
      - [ 3., 2.35619402e+00 ]
      - [ 3., 0. ]
      - [ 846360576., 2.35619402e+00 ]
      - [ 3., 1.57079601e+00 ]
      - [ 386274112., 2.35619402e+00 ]
      - [ 0., 0. ]
      - [ 1., 0. ]
      - [ 3., 7.85398185e-01 ]
      - [ 23., 2.35619402e+00 ]
      - [ 28., 0. ]
      - [ -1299147648., 0. ]
      - [ 0., 7.85398185e-01 ]
      - [ 0., 1.57079601e+00 ]
      - [ 1811956224., 2.35619402e+00 ]
      - [ -805292544., 2.35619402e+00 ]
      - [ 1768909440., 0. ]
      - [ 2., 7.85398185e-01 ]
      - [ 2., 1.57079601e+00 ]
      - [ 1752391552., 0. ]
      - [ 1., 2.35619402e+00 ]
      - [ 1., 0. ]
      - [ 1., 1.57079601e+00 ]
      - [ 1140864512., 1.57079601e+00 ]
      - [ 1., 0. ]
      - [ 2., 7.85398185e-01 ]
      - [ -1879025280., 0. ]
      - [ -1879024640., 2.35619402e+00 ]
      - [ 1., 0. ]
      - [ 402664192., 0. ]
      - [ 0., 7.85398185e-01 ]
      - [ 0., 2.35619402e+00 ]
      - [ 0., 0. ]
      - [ 69., 7.85398185e-01 ]
      - [ 1952412288., 2.35619402e+00 ]
      - [ 37., 0. ]
      - [ 14., 7.85398185e-01 ]
      - [ 4543308., 1.57079601e+00 ]
      - [ 85., 2.35619402e+00 ]
      - [ 69., 0. ]
      - [ 15., 7.85398185e-01 ]
      - [ 0., 1.57079601e+00 ]
      - [ 69., 2.35619402e+00 ]
      - [ 0., 7.85398185e-01 ]
      - [ 1342236416., 0. ]
      - [ 1869242240., 1.57079601e+00 ]
      - [ 0., 2.35619402e+00 ]
      - [ 1920425856., 1.57079601e+00 ]
      - [ 69., 2.35619402e+00 ]
      - [ 1920151424., 7.85398185e-01 ]
      - [ 66., 1.57079601e+00 ]
      - [ 1667199616., 0. ]
      - [ -656629824., 1.57079601e+00 ]
      - [ 1953393024., 0. ]
      - [ 3489., 7.85398185e-01 ]
      - [ 69., 1.57079601e+00 ]
      - [ -933838784., 2.35619402e+00 ]
      - [ 0., 7.85398185e-01 ]
      - [ 0., 1.57079601e+00 ]
      - [ 3., 7.85398185e-01 ]
      - [ 5., 7.85398185e-01 ]
      - [ 5., 1.57079601e+00 ]
      - [ -1191758208., 0. ]
      - [ 5., 7.85398185e-01 ]
      - [ 5., 1.57079601e+00 ]
      - [ 5., 7.85398185e-01 ]
      - [ 5., 2.35619402e+00 ]
      - [ 5., 2.35619402e+00 ]
      - [ 1., 0. ]
      - [ 23., 0. ]
      - [ 32., 7.85398185e-01 ]
      - [ 1290957824., 0. ]
      - [ 1., 0. ]
      - [ 1533462528., 2.35619402e+00 ]
   decision_functions:
      -
         sv_count: 162
         rho: -3.0216524790405128e-02
         alpha: [ 9.7379646278835985e-01, 6.2987618420890878e-01,
             6.2987618421884950e-01, 2.7799999999999998e+00,
             2.7799999999999998e+00, 2.7799999999999998e+00,
             2.7799999999999998e+00, 2.1525941554749632e+00,
             9.6978347518533159e-01, 2.7799999999999998e+00,
             2.7799999999999998e+00, 2.3381523652720522e+00,
             2.7799999999999998e+00, 2.7799999999999998e+00,
             2.7799999999999998e+00, 2.7799999999999998e+00,
             9.6978347519632935e-01, 9.6978347523045783e-01,
             2.7766063254237312e+00, 2.7799999999999998e+00,
             9.6978347523950603e-01, 6.2987611107893116e-01,
             6.2987611100232510e-01, 9.6978347522504937e-01,
             2.7799999999999998e+00, 9.6978347519870700e-01,
             6.2987618416537094e-01, 9.9348300623789931e-01,
             9.6978347519154706e-01, 1.2598979837148072e+00,
             6.2987611104794472e-01, 2.7799999999999998e+00,
             2.7799999999999998e+00, 9.6978347519029429e-01,
             2.7799999999999998e+00, 9.6978347519963659e-01,
             2.7799999999999998e+00, 9.6978347518748065e-01,
             2.7799999999999998e+00, 2.7799999999999998e+00,
             2.7799999999999998e+00, 2.7799999999999998e+00,
             1.2221909082195397e+00, 2.7799999999999998e+00,
             2.7799999999999998e+00, 2.7799999999999998e+00,
             2.7799999999999998e+00, 2.7799999999999998e+00,
             2.7799999999999998e+00, 9.6978347521810926e-01,
             9.6978347521511976e-01, 9.6978347522239949e-01,
             2.7799999999999998e+00, 9.6978347520603814e-01,
             2.7799999999999998e+00, 2.7799999999999998e+00,
             2.7799999999999998e+00, 9.6978347524301423e-01,
             9.6978340848920963e-01, 8.2674536415029065e-01,
             1.0648091160700006e+00, 6.7231770000017110e-01,
             9.6978347520246277e-01, 9.6978347521529085e-01,
             9.6978347520775876e-01, 9.6978347521405939e-01,
             9.6978347524456332e-01, 9.6978347522999508e-01,
             2.7799999999999998e+00, 6.2987618414747393e-01,
             2.7799999999999998e+00, 2.7799999999999998e+00,
             2.7799999999999998e+00, 2.7799999999999998e+00,
             2.1525955636625618e+00, 9.6978347517560559e-01,
             9.6978347519703556e-01, 9.6978347519703556e-01,
             2.7799999999999998e+00, 2.7799999999999998e+00,
             9.6978347524435882e-01, 9.6978347523333075e-01,
             9.6978347520130204e-01, 6.2987611105109986e-01,
             -2.2699011235553952e+00, -2.7799999999999998e+00,
             -1.0302165247720303e+00, -2.6570144734645496e+00,
             -2.3828253831879596e+00, -2.1934904849226422e+00,
             -2.7799999999999998e+00, -1.0302165248125195e+00,
             -2.7799999999999998e+00, -1.0302165247627284e+00,
             -2.7799999999999998e+00, -2.7799999999999998e+00,
             -2.7799999999999998e+00, -1.2943999569547564e+00,
             -2.7799999999999998e+00, -1.0302165247592558e+00,
             -2.7799999999999998e+00, -2.7799999999999998e+00,
             -1.0302165248029644e+00, -1.0302165247977961e+00,
             -1.0302165248084529e+00, -2.7024297369162400e+00,
             -2.7799999999999998e+00, -2.1918455343820771e+00,
             -2.7799999999999998e+00, -2.7799999999999998e+00,
             -2.7799999999999998e+00, -1.0302165247800283e+00,
             -2.7799999999999998e+00, -1.5272958403497778e+00,
             -1.0302165247847601e+00, -1.0302165247556412e+00,
             -2.7799999999999998e+00, -1.0302165247604940e+00,
             -2.7799999999999998e+00, -2.7087915832010245e+00,
             -2.7799999999999998e+00, -2.7799999999999998e+00,
             -1.0302165248097057e+00, -1.0302165247857296e+00,
             -1.9147790359236390e+00, -1.0302165247636763e+00,
             -1.0302165248488204e+00, -2.7799999999999998e+00,
             -7.5314861893070528e-01, -2.7799999999999998e+00,
             -2.7776398185488911e+00, -2.7799999999999998e+00,
             -1.0302165247659116e+00, -1.0302165247700050e+00,
             -1.6692042166396954e+00, -2.7799999999999998e+00,
             -1.0325081014075563e+00, -1.1205177854607402e+00,
             -1.0301479199204049e+00, -1.0339958755398853e+00,
             -1.0302165248001116e+00, -1.0302165248032389e+00,
             -1.0302165248029644e+00, -2.7799999999999998e+00,
             -1.0302165247744257e+00, -2.7799999999999998e+00,
             -2.7799999999999998e+00, -2.7799999999999998e+00,
             -2.7799999999999998e+00, -2.3358830144668805e+00,
             -1.0302165247800819e+00, -2.7799999999999998e+00,
             -2.3591680844048417e+00, -2.6345615874338626e+00,
             -2.6489026963156399e+00, -1.4032259407300973e+00,
             -2.7799999999999998e+00, -1.0645698619975263e+00,
             -1.0302165340312892e+00, -1.0302165247554367e+00,
             -1.4044755675930922e+00, -1.0302165248003634e+00 ]
         index: [ 0, 1, 2, 3, 4, 5, 6, 7, 8, 9, 10, 11, 12, 13, 14, 15,
             16, 17, 18, 19, 20, 21, 22, 23, 24, 25, 26, 27, 28, 29, 30,
             31, 32, 33, 34, 35, 36, 37, 38, 39, 40, 41, 42, 43, 44, 45,
             46, 47, 48, 49, 50, 51, 52, 53, 54, 55, 56, 57, 58, 59, 60,
             61, 62, 63, 64, 65, 66, 67, 68, 69, 70, 71, 72, 73, 74, 75,
             76, 77, 78, 79, 80, 81, 82, 83, 84, 85, 86, 87, 88, 89, 90,
             91, 92, 93, 94, 95, 96, 97, 98, 99, 100, 101, 102, 103, 104,
             105, 106, 107, 108, 109, 110, 111, 112, 113, 114, 115, 116,
             117, 118, 119, 120, 121, 122, 123, 124, 125, 126, 127, 128,
             129, 130, 131, 132, 133, 134, 135, 136, 137, 138, 139, 140,
             141, 142, 143, 144, 145, 146, 147, 148, 149, 150, 151, 152,
             153, 154, 155, 156, 157, 158, 159, 160, 161 ]
