%YAML:1.0
my_nn: !!opencv-ml-ann-mlp
   layer_sizes: !!opencv-matrix
      rows: 1
      cols: 5
      dt: i
      data: [ 2, 3, 5, 3, 1 ]
   activation_function: SIGMOID_SYM
   f_param1: 1.
   f_param2: 1.
   min_val: -9.4999999999999996e-01
   max_val: 9.4999999999999996e-01
   min_val1: -9.7999999999999998e-01
   max_val1: 9.7999999999999998e-01
   training_params:
      train_method: RPROP
      dw0: 1.0000000000000001e-01
      dw_plus: 1.2000000000000000e+00
      dw_minus: 5.0000000000000000e-01
      dw_min: 1.0000000000000001e-01
      dw_max: 50.
      term_criteria: { epsilon:1.0000000000000000e-10, iterations:10000 }
   input_scale: [ 1.2443666619816414e-09, -4.6181833987632115e-01,
       1.1026958143071306e+00, -1.2333350508399188e+00 ]
   output_scale: [ 1.0526315789473684e+00, 0. ]
   inv_output_scale: [ 9.4999999999999996e-01, 0. ]
   weights:
      - [ 7.3208152239467705e-01, -1.2340720527833902e+00,
          -1.7963191528998599e+00, 4.4442928566932216e-01,
          8.4690405278339032e-01, -4.3703956980185401e+00,
          5.2669208759873785e+00, -3.2206375796028136e-01,
          -7.0262457389235011e-01 ]
      - [ -2.1166385455799358e-01, -5.4947181338192941e-01,
          -3.7435740343159141e-01, 5.3426861343458837e-02,
          -2.3274289474347040e-01, 1.3588980962861852e+00,
          -4.9770417387602650e-01, -1.3305382955304834e+00,
          7.0441182760054788e-01, -7.6014144098402845e+00,
          9.3039804915582158e-01, -2.9687236049409704e-01,
          -7.9606430103792525e-01, -5.8150337429112298e-03,
          6.7117530616056431e-01, 6.6383625124736190e-01,
          2.7061533756647521e-03, -6.3556183533482608e-02,
          4.8135554284127124e-01, 5.4663816484921135e-01 ]
      - [ 1.4466414738896780e-01, 5.2691852028265873e-01,
          4.1106118701375050e-01, -2.4098727557005359e-02,
          -6.2169485623806503e-02, -1.7551004514374988e-01,
          -5.5919485700355398e-01, -5.0328526573744281e-01,
          -4.7617991940114179e-02, -4.9715097232090266e-01,
          6.0026719776427401e-02, 1.5781422074522064e-01,
          -5.0421959050750587e-01, -3.7560000857966469e-01,
          5.6323253903739345e-01, 1.8481376649596068e-01,
          -2.9802703597651498e-02, -1.0420908190740838e-01 ]
      - [ 8.8225787785949583e-01, 1.1359070206551478e+00,
          9.1752453288167973e-02, -3.3987650160046556e-01 ]
